-0.2218507
0.4105744
0.1325031
0.1538045
-0.5277686
-0.2279317
-0.3228972
0.0106999
-0.2092677
-0.08910883
-0.8572972
0.6925862
-0.3178165
0.1572837
0.6823117
0.3838708
0.8223169
0.9667633
-0.98997
0.5642632
-0.9016073
-0.1251379
0.5866726
-0.1648969
-0.7460286
0.5774642
-0.06942405
0.281635
0.008906865
-0.4690518
-0.2756672
-0.4974844
-0.1880145
-0.3370723
-0.4218307
0.8049589
0.8520066
0.9938748
0.6144246
-0.3648551
0.2370724
-0.08830305
0.2051463
0.07182728
-0.1214969
0.7370531
0.7640902
0.3734823
-0.3340257
0.2614126
-0.3198697
-0.2110749
-0.1468182
-0.7505901
-0.1322376
-0.7243663
-0.401411
-0.5304245
-0.4243647
-0.3327275
-0.07993829
-0.316772
0.3962753
-0.8444126
0.6738188
0.2310058
-0.5125601
0.6103562
-0.7212194
0.9452586
0.6197805
-0.5511653
0.300789
-0.2513826
-0.1158671
0.3094677
-0.9783196
0.3372627
0.9673408
0.9783376
-0.02112479
-0.5389996
-0.2940003
-0.6583656
0.6108865
-0.9588952
0.1062403
-0.343602
-0.01089116
0.3471634
0.317519
-0.7583496
0.7150942
0.6691661
0.01536433
-0.2117623
0.6109079
-0.5434711
-0.8123056
0.5690354
0.7153727
-0.5731725
0.4061415
-0.3123634
-0.7174627
-0.7808701
-0.9170746
-0.4884526
-0.3614766
-0.1733425
0.1693934
0.9421909
0.4804667
0.2284718
0.3497535
-0.3215887
-0.03186622
0.7271091
0.1402231
-0.1144189
0.6200979
-0.969089
0.4226618
-0.2902548
-0.7701141
0.192953
0.04269316
-0.3868476
-0.53392
-0.334997
0.2265423
0.510133
-0.3012607
0.1406832
-0.1910557
0.03668424
-0.0194662
0.4775279
-0.008119106
-0.06752486
611
