0.07297104
0.3791312
0.5161749
-0.8964723
0.7270656
0.286608
-0.1810114
0.005349012
0.4392802
0.8224113
0.7455446
-0.002244469
0.9904489
0.5226914
-0.6575069
-0.7947602
0.7280881
-0.7345417
0.8786923
0.2458531
0.2385961
-0.3946025
0.5196665
0.7060483
0.7536865
0.7902622
-0.573984
0.3769389
0.5014063
-0.9368545
0.8594227
0.9627848
-0.7121711
0.3178118
0.1400366
-0.3776577
-0.9595379
0.8999705
-0.6327479
-0.9753539
0.4648649
-0.2227651
-0.2655399
0.2202269
0.426407
-0.3788552
0.9904665
-0.007308902
0.3869967
0.01868209
-0.3893318
0.6035948
0.9761216
-0.07126463
0.07305244
0.1101863
0.09130225
-0.8016369
-0.03650883
0.1047232
0.2461458
-0.08098184
-0.3619031
0.4146341
-0.6424536
-0.03169032
-0.7367045
-0.229778
-0.9037156
0.7213482
-0.7852267
-0.2646029
-0.1215384
-0.1399898
-0.3648151
0.6350012
-0.3707241
-0.4090689
-0.3670042
-0.3564998
-0.3010401
-0.7723471
-0.5865523
-0.6033169
-0.1830003
-0.05959544
0.3246879
-0.1268052
-0.03973466
-0.8282731
-0.6409531
0.2702401
0.8036861
-0.3540961
0.8098727
-0.2705322
0.8987733
0.8744498
-0.4149581
0.7914057
0.9918689
0.3995354
-0.6403047
-0.2565036
-0.6802779
-0.6169847
0.1901471
0.5794385
-0.8882644
-0.8673521
0.7854984
-0.7818925
0.2380978
-0.2082357
-0.2543237
0.9759057
0.1153321
0.992193
0.6047614
0.6280787
0.06953642
-0.6111544
-0.8148199
-0.6951214
0.7294793
-0.184762
-0.6242982
-0.8650348
-0.4597119
-0.7478303
-0.5551459
0.04983742
-0.5208045
-0.4996521
-0.1419981
-0.5191475
-0.01044486
0.6216835
0.6510068
-0.158906
195
