0.3744291
0.8109118
-0.874032
-0.359769
0.003591724
0.2464781
0.2132289
-0.08251064
0.05695762
-0.9817889
-0.5777153
0.4613989
0.1097307
0.7068412
0.1417742
-0.1109421
0.04381127
-0.1609063
-0.4514354
-0.6376588
0.6419863
-0.225314
-0.1045215
-0.0648419
0.2282432
-0.4327595
-0.8097087
-0.06229654
-0.8086809
-0.7816582
0.9117114
-0.6065993
0.4324296
-0.2118342
-0.4143648
0.3018491
0.1906662
0.8052869
-0.5122269
0.2742389
-0.02626595
0.2603935
-0.3478043
-0.8612985
-0.1140954
0.1869241
-0.7580443
0.05362144
0.7346133
0.6645163
0.5749825
0.6841335
-0.9360424
-0.3825193
-0.7823225
-0.01897159
-0.6215177
0.3378021
-0.9454042
0.7017426
-0.9441881
0.407942
-0.5702837
0.7827188
0.04447701
0.1618912
-0.1907968
-0.02897078
-0.1790635
0.9548501
-0.3528977
0.9901899
0.1044804
-0.1159517
-0.2126413
0.9578529
-0.2892716
-0.7220021
-0.2825194
-0.7527852
-0.8112417
-0.1475109
-0.1168923
-0.5104235
-0.8374701
-0.4962306
0.9636844
0.6497108
0.7436888
0.423744
-0.5073541
-0.780363
-0.01564961
-0.467077
-0.3728634
-0.01645578
-0.8440869
0.7681474
0.3513428
-0.07194825
-0.5238044
0.9639578
-0.6638591
0.4873985
0.475758
-0.2775066
-0.1989743
0.5743811
-0.5450493
0.7139081
0.01734402
-0.2712285
0.5941133
-0.3691483
0.2090967
0.8361748
-0.5764084
0.8967934
0.1555822
-0.9390672
0.005978039
0.04105579
0.6196864
0.8928848
0.4786545
-0.3168556
0.654049
0.6170818
0.4082903
-0.9351347
0.1568271
0.1363474
0.823047
0.003572466
0.2298708
0.4599868
0.2583758
-0.747744
0.2804799
-0.673645
691
