0.6568682
0.6748978
-0.2601828
-0.2246639
-0.1361974
-0.3249286
0.7350954
-0.1814326
0.6028385
0.4917541
0.5186502
-0.217838
-0.172512
-0.7022332
0.6641189
0.5777133
-0.2302964
0.7239234
-0.7094898
0.7523285
0.4121806
0.9001745
0.1028917
-0.5498864
-0.02868914
0.08369134
0.4388527
-0.0131777
0.8458226
-0.5607292
-0.4376126
-0.4219378
-0.689558
-0.2410111
-0.08512836
0.8686236
0.7481785
-0.009274513
-0.03390847
-0.172932
-0.8523422
-0.3178345
-0.5184234
-0.6749384
-0.07821427
-0.1520008
-0.604328
-0.294753
-0.7304042
-0.1360047
0.8218362
0.3713165
0.6463489
-0.8028647
0.79477
0.07880598
0.3644559
0.9808283
0.8604645
-0.004820965
-0.07310711
-0.2556301
0.8524758
-0.2242295
0.3440963
-0.1635153
-0.6994146
-0.4975736
0.3759811
-0.1838803
0.1820413
-0.9355435
0.4543276
0.426515
0.9304923
-0.9591359
-0.7461745
-0.09424353
-0.3446564
0.8925049
0.7192355
0.4580243
0.1263578
-0.1493565
0.5123779
0.8180175
-0.2744136
0.5346715
0.4148926
-0.921613
0.5680382
0.2457521
0.6147444
-0.8500282
0.6450268
-0.9167988
0.227838
0.05506165
-0.6054307
-0.1190784
-0.4058264
0.4899155
-0.9500966
-0.6229091
0.1447598
-0.6361881
-0.7550414
-0.2042946
-0.3152427
0.9767525
-0.6467804
0.8297844
-0.4340642
0.7820775
0.4271409
0.6811408
0.1296255
0.702504
0.1307437
0.260895
0.6086467
0.2455237
-0.8921428
-0.5049405
-0.7780539
0.6921257
-0.9854469
0.07723664
-0.7182449
0.5666805
0.7959055
0.4581201
-0.7790009
-0.3214089
0.5392853
0.8894511
-0.1079114
0.3442804
0.4235027
0.8312371
185
