-0.9198222
-0.9331089
-0.5058714
0.6827561
-0.582234
0.4515902
-0.4000494
0.09146561
0.05426846
0.9439922
0.3294953
-0.4611687
-0.6401429
0.2864776
0.7712246
0.3398483
-0.8590892
0.3325684
-0.7424722
-0.9842288
0.4641176
-0.4512302
-0.7060988
-0.8714042
0.6337303
-0.04954702
-0.7653571
0.9113573
-0.7869142
0.7575065
0.2362242
0.332126
-0.1574751
0.21159
-0.2685625
-0.5328532
-0.3188013
-0.6667912
-0.8783398
-0.8611938
-0.4577664
-0.6785194
0.3595541
0.3925191
-0.3992523
-0.3919426
-0.1575538
0.6944513
0.3698422
-0.7205822
0.2253439
0.3470185
-0.9608298
0.5229734
0.0901308
-0.2519481
0.2243662
0.2825386
-0.04868149
0.9506192
-0.2296086
-0.7332582
-0.03019457
-0.08453771
0.4017586
0.008014697
0.1792772
-0.03266208
-0.3142702
0.1631672
-0.5025979
-0.5535405
0.9627262
0.97811
-0.2095727
-0.882901
-0.4904005
-0.2290722
0.03846496
-0.1143216
0.7260868
-0.04789576
-0.03996124
-0.7375335
-0.01288492
-0.03051759
-0.6376795
0.9270626
0.8098314
0.7234228
0.2878695
0.7138608
0.647479
-0.04150706
0.641404
-0.9042259
-0.6412457
0.3814441
-0.3979081
-0.5163513
-0.9015422
-0.9284816
-0.3440137
-0.5158362
-0.446669
-0.7267603
-0.6130202
0.7767037
-0.4641417
-0.8793516
-0.6142687
0.2973036
0.4727072
0.2278957
-0.3372503
0.05653061
-0.3807372
-0.9886875
0.2740582
0.3059845
-0.3507397
0.7978331
-0.6347539
-0.7979189
0.0647094
-0.5741162
0.7904732
0.4785624
0.424779
-0.4828124
0.7301192
-0.2671042
-0.7649305
-0.08218343
-0.5000529
-0.5712168
0.479397
0.7321431
0.5997168
0.9305845
185
