-0.6458054
0.04447088
-0.7812366
-0.3869754
0.3800682
0.6575339
-0.862372
0.01577621
0.3472483
-0.02516546
-0.2982505
-0.7422086
-0.9304276
0.1591931
0.8919887
0.118458
-0.1013026
0.5982264
-0.1255572
0.9212698
-0.5722913
0.01848619
-0.7101095
-0.64153
0.1263891
0.1097744
-0.9894544
0.8241028
0.8963848
0.5803329
0.9350005
0.9595086
0.456827
0.07983944
0.354722
0.4690534
-0.6353088
0.2050201
-0.007377921
-0.6981904
0.3142215
0.6659464
-0.2189516
-0.8777711
0.2137234
-0.5773152
0.8118274
0.8445213
0.002314145
0.2684664
0.04761666
0.2216372
0.2219223
-0.5249891
0.6884569
-0.605314
0.5876439
0.138924
0.2583025
0.9110147
0.2928427
-0.06739214
-0.9768459
0.04543867
0.6606131
0.03580315
0.476743
0.9473435
0.9454697
0.4693038
0.3066306
0.05417612
-0.4040877
0.6059763
-0.1263469
0.2060715
0.7965639
0.8148797
-0.3299869
-0.2682969
0.5221305
-0.1283784
-0.4341998
0.98537
-0.7125098
0.002392691
0.9363545
-0.5886117
0.4192264
-0.6810811
0.9923104
-0.5826523
0.2595504
0.5233182
-0.004820939
-0.7399547
0.07003409
0.175072
0.2485758
-0.9923481
-0.3738791
0.9969478
0.1745081
-0.729389
0.7463359
-0.8240049
-0.3441631
0.2365522
-0.8124793
-0.3139358
-0.5416685
0.1762556
0.7196976
-0.06061633
0.9187043
-0.124505
0.6730574
-0.5001641
-0.9497404
0.4005677
0.9657691
-0.698329
-0.3012323
0.9378178
-0.1568171
0.3096828
0.879668
-0.6746987
0.8596404
-0.302342
-0.4497655
-0.4399883
0.627359
0.9839489
-0.7266284
-0.6541251
0.151924
0.6264166
-0.9333343
0.4119952
188
