0.4229288
-0.9813889
0.7985135
0.1304065
0.9687967
-0.7588506
-0.006170854
-0.02044935
0.7447883
-0.02058124
-0.5384152
0.6833364
0.08034422
0.1288944
-0.6924281
-0.3987851
-0.6726807
-0.3066556
0.2898338
-0.9288032
-0.8904824
-0.9146026
0.8629321
-0.5806498
-0.4647225
0.7902175
-0.4105091
-0.2218739
-0.3771249
-0.7294442
-0.7948489
0.4201373
0.5158647
-0.30811
-0.2529595
-0.3608677
0.6666796
-0.8818426
0.4079595
-0.4976391
-0.04297512
-0.1785426
0.1360017
0.9155058
-0.08887602
0.6671283
0.2866074
0.3362168
0.7851697
-0.7330969
-0.04368393
-0.4684467
0.6384451
0.6780134
-0.1899369
-0.9972086
-0.4972537
0.1066235
-0.616634
0.3296644
-0.4255302
-0.1243282
0.5715912
0.2424274
-0.9776061
0.6401274
-0.4526653
0.1648384
-0.7822295
-0.3595564
0.3146075
-0.008897462
-0.09182522
0.02293063
0.1148807
0.5779643
-0.5530477
-0.8150813
0.609287
-0.4675139
0.2874711
0.4828674
-0.6052399
0.2932107
0.696086
0.3294794
0.8485461
-0.7265626
-0.3305039
0.106913
-0.9082024
-0.4981588
0.9003869
-0.2324841
0.1877534
0.9659224
0.9132826
-0.8869289
-0.1993749
0.3331597
0.220176
0.1016887
0.7269297
0.2526836
-0.02056804
0.4734487
-0.8632067
-0.6547656
0.9819275
0.4805838
-0.8457547
-0.770691
-0.5628726
0.276453
0.2378669
-0.9273714
-0.0247152
-0.1959247
-0.945326
-0.9435285
0.7268448
-0.5657364
-0.6357868
-0.1153893
0.4202676
-0.7870811
0.2641728
0.6554912
-0.9565013
0.641432
0.441171
-0.8982821
-0.7970087
-0.8712967
-0.6217592
0.05816221
0.04574002
0.1183071
-0.9446562
0.6234574
195
