0.4270887
0.01982226
0.9268274
0.8259987
0.7679972
-0.6567035
0.7190511
0.9758628
-0.3953286
-0.4716329
0.3771527
-0.018202
-0.4346338
0.234056
0.2060762
0.7569777
-0.3960556
-0.2600949
-0.3401851
0.8208007
0.4290436
-0.8318015
-0.943487
0.2755518
0.8282463
-0.5568136
-0.1838846
-0.2058583
-0.3073507
-0.7767721
-0.8879835
0.4257579
-0.7495788
0.6167115
-0.6249161
0.1587224
0.1135995
0.8983994
0.5633971
0.06057211
-0.2136679
-0.02815471
0.129334
0.2800281
0.6430928
-0.547573
-0.3333139
-0.1612248
-0.3241779
-0.1512451
-0.3250478
-0.9198223
-0.5495949
0.4207292
0.3234854
-0.9986691
-0.230599
-0.6898841
0.4509147
-0.3907252
0.229697
0.8206517
-0.5875343
0.5440993
0.742035
-0.5946925
0.852464
0.2853381
0.5909632
-0.2463508
0.09029165
0.7651691
-0.9359171
0.81106
0.1458486
0.3488659
0.7177934
-0.3642162
0.9520663
0.8269154
0.6737854
-0.4940006
0.3432269
-0.9166255
-0.006469157
-0.7086352
0.01329221
-0.293678
0.8746765
0.9697765
0.3062584
0.8282614
-0.6925638
-0.1902521
0.9702805
0.02116298
-0.09223763
0.318274
-0.8658205
-0.7057731
-0.2653664
-0.9690977
-0.1132911
-0.1510933
0.1749695
-0.8310473
-0.2630492
-0.6329694
-0.5728016
0.03212067
-0.01196135
-0.9369209
-0.5645605
0.4811383
0.3030165
0.4014356
0.5132155
0.6027178
0.5738188
-0.279128
0.4975451
-0.4658099
0.1511585
0.2967363
-0.9809844
0.0593893
-0.1215398
0.2151762
-0.3639095
-0.02310416
-0.3880848
0.3507628
-0.7914146
-0.08005436
-0.1611232
0.6107063
-0.92944
0.8620886
-0.219642
0.5920952
185
