-0.6700174
-0.5612828
-0.1557578
0.03782225
0.4089237
-0.7758623
-0.8593857
0.6689696
-0.2549661
0.4193171
-0.7704874
0.775655
-0.1149039
0.6996546
-0.9708327
-0.2184547
-0.2297063
0.2160335
0.3680569
-0.7951097
0.3683089
-0.5704804
-0.9516284
-0.2958563
0.6848487
0.5635972
-0.7384637
-0.6543294
0.4663477
0.6351077
0.9568912
0.04194487
-0.7843106
-0.1398823
0.1863563
0.9767768
0.7701076
0.8600899
-0.1392959
0.5149881
0.2015512
-0.3676534
-0.5003607
0.08615068
-0.07990359
0.005769686
0.2825673
-0.2500001
-0.1062149
-0.4789979
-0.487996
0.9589506
-0.8240939
0.938764
0.1067825
0.2880377
-0.7769722
0.9841245
0.8514659
0.4321469
-0.54597
-0.7194756
-0.1917346
0.2300458
-0.7822341
0.597166
0.2760156
0.7989454
-0.2204418
0.02339763
0.498978
-0.9797062
-0.6777515
-0.1529452
0.6928864
0.4093583
-0.7463865
-0.8903924
0.5973611
-0.603189
0.3405694
-0.7225882
-0.5057954
-0.9657993
0.1810777
0.6763667
-0.7663206
-0.0143564
-0.3576482
0.5891903
-0.2992389
0.9711622
0.08053166
0.8373065
-0.9839898
0.1812574
-0.6899018
0.6525845
0.3932643
0.5107381
-0.2478438
0.1729597
0.1526387
-0.5030259
0.1804327
-0.7654078
0.4647459
-0.8582946
-0.2423137
0.4304158
0.05435827
0.2373842
0.3417727
-0.7377244
-0.2686142
-0.5171322
0.1999928
-0.02904104
0.2140356
0.03650843
0.2870678
0.6234311
-0.5943189
0.2688201
-0.7287586
-0.6739817
-0.1323449
0.8252744
0.6666221
0.4582942
0.9446124
-0.8880919
0.3519214
-0.8330546
0.3424528
-0.8968148
-0.06436095
-0.768071
0.3028149
-0.3017901
195
