0.4901523
-0.04952305
-0.3822491
0.1891488
0.9562096
-0.02727159
0.4884679
-0.002738152
-0.9090865
-0.1142333
0.423319
0.4240532
0.1203393
-0.6452449
-0.7984275
0.6521998
0.9591007
-0.552389
0.9585759
0.1733217
-0.1531677
-0.6653796
-0.1969961
0.8434479
-0.9071265
0.0488592
0.6928354
0.972865
-0.2007321
0.9491437
-0.02433375
-0.8477712
-0.8643719
-0.5806248
-0.1800153
0.3674231
-0.7098457
0.3415111
-0.280052
-0.9728087
-0.9553731
-0.4881482
-0.9211076
0.6816916
0.7585801
-0.09615414
0.543652
0.003376903
-0.293294
0.5458787
0.7978225
-0.08504611
0.9109514
0.9776232
-0.9159555
0.3379235
-0.1851512
-0.8016242
-0.6308359
-0.4112134
-0.3174258
-0.8530432
-0.7226861
-0.9362779
-0.1588602
-0.08853281
0.3451608
0.4386477
-0.403825
0.2977267
-0.8914522
-0.0442762
0.7409049
-0.5873028
0.3754992
0.9318784
-0.576331
-0.1746193
0.7594034
-0.2450501
-0.7659896
0.4944596
0.6037009
-0.7895186
0.2665696
-0.1712906
0.8749149
-0.928094
0.5782354
0.9085175
-0.9777378
-0.1484935
-0.2546639
0.4222213
0.9186435
0.08890308
-0.2290532
0.6661952
-0.6938077
0.8267017
-0.5198232
-0.2817287
0.2439735
0.9517561
0.3118683
-0.6966372
0.311253
0.70047
-0.2889463
0.255335
0.4630087
-0.2570572
-0.3798597
-0.5393535
-0.4334756
0.8310676
0.4016207
-0.1449074
-0.8549214
0.7522367
-0.8594796
0.6789657
0.1324554
-0.2305267
-0.1824501
0.3902765
0.7117503
0.7891488
0.1008289
0.07213638
-0.3793745
-0.2768009
-0.885673
-0.4959316
0.2919413
0.4910676
-0.1256807
0.1430544
0.643957
0.4355019
185
