0.3293352
0.4365186
-0.6388713
-0.9813414
-0.6468502
0.6906394
0.7185801
0.3217326
-0.3198647
0.6854963
-0.6196226
-0.2552672
0.3154316
-0.4490822
0.4574174
-0.9338908
-0.6304112
0.1905591
0.9972394
0.400461
0.02407109
0.02942036
0.1698865
-0.2244745
0.3567289
0.02181296
-0.1848731
0.7010389
-0.4137661
-0.7719351
0.1569149
-0.6486751
0.8197005
-0.6352367
0.02019036
0.2210363
-0.01376066
-0.8521501
-0.5195996
-0.2229263
-0.05990602
-0.3108912
-0.6719381
-0.5408206
0.6735869
0.5208141
0.3901252
-0.1481665
-0.37278
0.2515587
0.5307481
0.4508851
0.04018273
0.8386009
-0.7449197
-0.02198965
0.616818
0.9963654
-0.001531696
0.1321135
-0.2955999
0.5707302
-0.1586678
0.9030616
-0.2545977
0.6912685
-0.5833291
-0.1437478
-0.1226691
0.9366033
-0.324016
0.5177553
-0.4366609
-0.2543193
0.8697129
0.573186
0.9892376
0.3312856
-0.4795549
-0.6212814
0.4049949
-0.1812385
-0.2974294
0.4541203
0.5236648
0.5861847
0.5099927
0.9166389
0.619361
0.3289219
-0.1956346
-0.8700129
0.270519
-0.4562029
-0.8989103
0.4223387
-0.8742303
0.5823811
-0.4105335
-0.8995991
0.5315765
-0.9411604
-0.6686116
-0.7514986
0.8465637
-0.2880134
-0.2516856
0.5860624
-0.6850639
-0.3311044
0.4680176
0.7001791
-0.6229957
0.6695464
-0.6722518
-0.425587
-0.6997888
-0.7024649
0.801972
0.3230636
0.5654988
-0.1657102
-0.7332142
-0.22307
-0.5949732
-0.3828556
0.186367
-0.6851622
-0.100883
0.1577264
-0.1751284
-0.5968248
0.01634952
0.8515496
-0.08929905
0.7048158
-0.5582429
0.03302419
0.1263721
-0.05074826
185
