0.8250725
0.3324949
0.2684334
0.3321867
0.1021905
0.9702013
0.08506005
0.4988075
-0.08357542
-0.005365194
-0.646234
0.7638081
0.3341618
-0.6671277
0.3465517
-0.0579685
-0.07966012
0.8593473
0.8854946
0.8388697
0.3934601
0.5684636
0.9284317
0.2706417
-0.6924246
-0.5469965
-0.05032594
0.9059111
0.6895738
-0.224525
-0.1091543
0.6165246
0.0757684
-0.3898734
0.2743127
0.3057283
0.05468387
0.8523078
-0.04167306
-0.2125522
0.8948981
-0.4836456
-0.7505294
-0.2985816
-0.1412905
-0.1236095
0.1214057
0.2085538
-0.8072275
-0.5950016
0.5311784
0.08364402
0.9321097
-0.1244683
0.9502484
-0.7914522
-0.7432735
-0.3416932
-0.942126
0.7964622
-0.08448258
0.2327522
-0.4595195
-0.8710232
0.09973673
0.8374116
0.5143375
-0.3672567
0.4741627
-0.5298388
0.8206258
0.7117861
0.6665748
0.4804961
-0.6923088
-0.6901839
0.636354
0.05289998
0.3203933
-0.9009724
-0.803723
-0.7086328
0.8480371
0.8931116
0.8599576
0.6580935
0.07604412
-0.05320837
0.5103899
0.4369011
0.7913908
-0.5780594
-0.6218549
-0.5118343
-0.03317799
-0.816888
-0.1502204
-0.2310256
-0.6062728
-0.4511065
0.2400365
-0.9314943
0.8881605
-0.9062551
-0.7912785
0.2398112
0.2356069
-0.961002
0.01557415
-0.7078451
0.1325037
0.3099349
0.147917
-0.3790271
-0.9949287
-0.5064231
-0.1453929
-0.9476852
0.1621548
-0.08337527
-0.012368
-0.2546369
-0.7609839
-0.07473072
0.2301247
0.7521201
0.8236256
0.5728299
0.2717747
0.06788006
0.07420922
0.597356
-0.9626741
0.02823839
-0.03347615
-0.1136579
0.1434502
0.2270642
0.8880403
0.3663808
175
