-0.1965137
0.02372933
0.7846369
-0.4062349
-0.5507309
0.04602772
-0.8170756
0.4528758
0.258041
0.2147019
-0.6405136
0.2769497
0.4971997
0.3258471
0.4746842
0.6426805
-0.9688201
-0.1400779
0.1272211
0.3223794
-0.9036391
-0.9914573
-0.8490423
0.6491934
0.4886686
-0.8912256
0.525298
-0.4458481
-0.8282962
-0.04095636
-0.6893476
0.4017313
-0.2057262
0.9474528
-0.4428617
0.7106823
0.2481633
-0.086831
0.4505851
0.5874442
0.7209402
-0.0362965
-0.5543912
0.9493953
-0.02848088
0.06566654
0.4463983
-0.6118676
0.5395698
-0.1422505
0.361044
-0.4107016
0.05536038
-0.07100333
0.05572831
0.401755
-0.7705445
0.837184
-0.9633732
-0.2614132
0.7978644
0.2697554
-0.9977093
0.6705968
0.4937617
0.3957829
-0.1686591
0.5478045
-0.645672
-0.5909823
-0.8037178
0.6430475
0.3203523
-0.7305284
0.9613354
0.5070626
-0.04681771
0.221961
-0.4065349
-0.9130864
0.8793188
0.688114
-0.4824749
0.4331171
0.1611792
0.040897
0.3994406
0.123677
-0.5463088
0.1613554
-0.1206586
0.7003589
-0.441159
0.04156739
0.391162
-0.9221072
0.6433512
-0.8238629
0.9880599
0.4644566
-0.8875157
-0.7755627
0.7946673
0.4526561
-0.02156938
0.6729301
-0.9282267
0.6222433
0.7678174
-0.9851687
-0.9976856
0.1057786
0.3834928
-0.1247286
0.8592454
-0.9024945
-0.2890856
-0.03927664
-0.7205652
0.4158689
0.7524318
-0.3447962
0.5597445
-0.1101286
-0.7034666
0.9718449
0.8483801
0.8676962
0.291041
-0.7115947
0.4352893
0.330939
0.4541436
-0.4213662
-0.9154007
-0.2264597
-0.6953788
0.6422538
0.5738717
0.06367372
175
