-0.523626
0.2627205
0.771608
0.6058434
-0.6978775
0.07732999
0.5654811
0.8117115
0.5660651
0.6899919
-0.6863977
-0.5151762
0.9859624
0.9349701
0.5661258
-0.3597519
0.8210383
-0.01430665
0.1545213
0.07724753
0.2989531
0.2328169
-0.1611095
-0.9405236
-0.04595815
0.7916378
0.4657762
0.7359294
0.9601531
0.6540558
-0.0826132
0.3882813
0.4048939
0.5240437
-0.2770939
-0.197756
0.6374688
-0.5292889
0.7026944
0.6309934
-0.49502
0.8819617
-0.3292469
-0.4106254
-0.8406589
-0.2882046
0.2730176
0.2924449
0.2129035
0.550815
-0.3625911
0.1997097
-0.728224
0.6487591
0.7808231
0.08809268
0.8578265
-0.7524357
-0.1170627
0.4998786
0.4398612
0.09477001
-0.8909829
0.9350717
0.1850119
-0.5683594
0.8140707
0.3965878
0.775629
-0.1456697
0.3672304
-0.4714066
0.7727898
0.6037063
-0.5601614
-0.9007566
-0.03895902
0.1901314
-0.7213466
0.8659492
0.9338112
0.2182119
-0.1470079
-0.5397255
-0.7858054
0.8226168
0.2792641
0.4698222
-0.6609682
-0.7087346
-0.0118267
-0.759119
-0.304918
-0.1516359
-0.736237
0.9763866
-0.8908281
0.06704682
-0.850464
-0.9399024
0.7507545
-0.9171138
0.01379155
0.3469543
0.6170037
0.419197
-0.6532823
0.8115014
0.4345645
0.9582062
0.8088286
-0.6119957
0.9085326
-0.4083281
-0.4882948
0.1989803
-0.600312
0.260653
0.6713088
0.2086253
-0.6775313
-0.2529761
0.2470518
0.7155313
0.1035758
0.2843442
0.5148018
-0.5741645
0.9867026
0.02064159
0.7525257
0.1495396
0.755567
-0.6795529
-0.9428794
0.5458069
0.3096794
-0.7386798
0.9485692
0.01521429
611
