-0.311608
0.02308236
-0.5960722
-0.8460025
-0.5302597
-0.6774856
0.137895
0.1196849
0.9280258
0.9529011
-0.9313519
-0.8493987
-0.2266935
-0.1721112
0.08501613
0.1360535
0.2689164
0.3713123
-0.1621944
0.2553087
0.4717233
-0.09932173
0.3722028
-0.1464798
0.2883605
0.3301373
0.4258565
-0.5880618
0.3123372
0.1046264
-0.4567542
-0.9900594
0.7744782
0.1778426
0.1922469
0.4580454
-0.5277828
0.2799683
0.4100433
0.08589252
-0.5767907
-0.3567591
-0.760569
0.02644634
-0.9050428
-0.1047728
-0.9140826
0.367479
0.3902306
-0.790852
-0.5364054
-0.5198496
-0.9680568
-0.6811238
0.2879914
-0.3215486
0.2486042
0.2260852
-0.0382494
0.01169491
0.8502973
0.8579267
0.7096416
-0.1578667
0.5296918
0.4254072
0.9111703
0.7468602
-0.2670684
-0.8102111
0.05013613
0.9014374
0.9810817
-0.3713424
-0.2082858
-0.008427121
-0.1312649
0.05332656
0.5655288
-0.3900908
-0.9184669
-0.8002287
0.4501876
-0.6993577
0.2543292
-0.3146809
-0.699701
-0.0676551
0.6481508
0.7668397
0.5468751
-0.274643
-0.4529634
0.2202544
-0.9642436
-0.4782281
-0.3378408
0.6107734
-0.7652678
0.1033843
-0.9735079
0.03259081
0.8019502
-0.2196786
-0.872385
-0.7361767
0.02996277
0.7313009
0.06454702
-0.3973277
-0.6218476
-0.6837407
0.5779344
0.1949109
0.4648198
0.1249403
0.31089
-0.5106128
-0.1936231
0.007919882
-0.236752
-0.6996031
0.5121281
0.6295473
-0.8367032
-0.9824547
-0.9005128
0.2007603
-0.4989573
-0.472109
0.9616101
0.1374342
0.9887795
-0.03714349
-0.7682432
0.7652738
-0.3781631
-0.7447233
-0.1641776
-0.8706111
638
