-0.523626
0.2627205
0.771608
0.6058434
-0.6978775
0.07732999
0.5654811
0.8117115
0.5660651
0.6899919
-0.6863977
-0.5151762
0.9859624
0.9349701
0.5661258
-0.3597519
0.8210383
-0.01430665
0.1545213
0.07724753
0.2989531
0.2328169
-0.1611095
-0.9405236
-0.04595815
0.7916378
0.4657762
0.7359294
0.9601531
0.6540558
-0.0826132
0.3882813
0.4048939
0.5240437
-0.2770939
-0.197756
0.6374688
-0.5292889
0.7026944
0.6309934
-0.49502
0.8819617
-0.3292469
-0.4106254
-0.8406589
-0.2882046
0.2730176
0.2924449
0.2129035
0.550815
-0.3625911
0.1997097
-0.728224
0.6487591
0.7808231
-0.7243663
-0.401411
-0.5304245
-0.4243647
-0.3327275
-0.07993829
-0.316772
0.3962753
-0.8444126
0.6738188
0.2310058
-0.5125601
0.6103562
-0.7212194
0.9452586
0.6197805
-0.5511653
0.300789
-0.2513826
-0.1158671
0.3094677
-0.9783196
0.3372627
0.9673408
0.9783376
-0.02112479
-0.5389996
-0.2940003
-0.6583656
0.6108865
-0.9588952
0.1062403
-0.343602
-0.01089116
0.3471634
0.317519
-0.7583496
0.7150942
0.6691661
0.01536433
-0.2117623
0.6109079
-0.5434711
-0.8123056
0.5690354
0.7153727
-0.5731725
0.4061415
-0.3123634
-0.7174627
-0.7808701
-0.9170746
-0.4884526
-0.3614766
-0.1733425
0.1693934
0.9421909
0.4804667
0.2284718
0.3497535
-0.3215887
-0.03186622
0.7271091
0.1402231
-0.1144189
0.6200979
-0.969089
0.4226618
-0.2902548
-0.7701141
0.192953
0.04269316
-0.3868476
-0.53392
-0.334997
0.2265423
0.510133
-0.3012607
0.1406832
-0.1910557
0.03668424
-0.0194662
0.4775279
-0.008119106
-0.06752486
611
