-0.6497804
-0.6489919
-0.3469957
-0.4961531
0.0741625
0.4900364
0.3486148
0.4453979
0.8937835
0.2155203
-0.694699
-0.119808
0.9566651
-0.9150957
-0.2464705
0.365562
0.8364488
0.7381698
0.9842167
-0.8754523
-0.2061573
-0.3451633
-0.8230131
-0.3947262
0.7704288
-0.9652767
-0.3557008
-0.03113967
-0.8462668
0.1727133
0.7079158
0.1738649
-0.882471
-0.941462
0.0006834841
0.7690684
0.841168
-0.7196583
0.4485516
0.6991474
-0.4105651
-0.9476966
0.4943457
0.3002313
0.7233449
0.07528254
-0.4440911
0.6297957
0.1473878
-0.5347762
0.784484
-0.4894634
0.5784099
-0.5729965
-0.7773314
0.1763547
-0.7665209
-0.4055336
0.5031635
0.3050942
0.6488684
0.06827298
0.9968463
-0.8053638
-0.3739146
-0.7470024
0.3858463
-0.3435662
-0.6384406
0.6782469
-0.1903469
-0.7933468
-0.409218
0.518993
-0.6599363
-0.7166939
0.0764268
0.7499834
-0.6173948
-0.405926
0.8012442
-0.9501672
0.4656969
-0.151361
0.5238449
-0.3603571
0.1770186
0.9228928
0.4324525
-0.2523142
-0.616778
0.1847342
0.9187824
0.7703047
-0.1105057
-0.6172183
0.4615214
0.9753527
-0.03983242
0.4400389
0.9988558
-0.1940745
0.2471905
-0.4466862
-0.3360204
0.7346513
0.04483975
-0.2702291
-0.09684139
0.5830258
0.9993361
-0.6894137
0.1620139
-0.2445224
-0.0781279
-0.5358658
0.1494906
-0.7734584
0.3051419
-0.7566963
-0.2085238
0.4104936
0.6962662
-0.07847946
0.6793912
-0.9962724
-0.04053726
-0.9625318
-0.1449867
-0.3945875
0.2384663
-0.6533441
-0.1531752
-0.2004205
-0.4052621
0.4906579
-0.1121811
-0.2897807
0.9267669
0.05971071
185
