0.7719531
-0.6462941
-0.5730547
-0.1131618
-0.8074916
0.9964455
-0.4603811
0.7379124
0.9882882
0.1452893
0.2992638
0.8644229
-0.01384955
0.8037741
-0.3442408
-0.4724073
0.3671294
0.3658715
-0.7423192
0.1371178
0.1981262
-0.0986928
-0.8614471
0.9426587
0.6924493
-0.2009017
0.6313019
-0.05990325
-0.8137599
-0.6141856
-0.2355258
-0.4824687
-0.4250484
-0.1747986
0.5200624
0.7875
-0.9858881
0.1984067
-0.001344688
0.04726001
0.5370267
0.2589971
-0.9597431
0.312609
0.5167868
-0.2808331
0.5986698
-0.8021412
-0.604505
-0.5113569
-0.04277883
0.4884756
0.1130736
-0.1185945
-0.5621291
0.2544218
0.7787542
0.6017439
0.3667758
-0.5949916
0.9823336
0.3412122
-0.2607429
-0.05897177
0.6082626
-0.9597333
0.8241659
0.6735415
-0.7130128
0.9365923
-0.07107703
0.1692705
-0.02962352
0.7690377
-0.8201033
0.7096506
0.7882336
0.2571474
0.5047879
-0.5619724
0.02034402
-0.9704421
0.5733209
0.7812318
-0.5965192
0.423262
0.7782742
0.6339234
0.2169388
0.4797957
0.9633341
-0.6594296
-0.08858056
0.062063
-0.881663
-0.6322439
-0.7113793
-0.7287808
0.1327123
0.8071362
-0.0690667
-0.6584776
-0.3069291
0.9574674
0.4682991
-0.07233676
0.9151546
0.3318418
-0.5220752
0.01460885
0.4761476
-0.8551692
-0.6151949
0.8869802
-0.5583258
0.6417632
-0.5702072
0.6771941
-0.1773088
0.2405064
0.7516461
0.5529467
-0.4591708
-0.5201489
0.005659016
-0.4125994
-0.5238004
0.01290907
-0.6992614
0.2522334
0.7944959
-0.5436082
-0.2207774
-0.5098209
-0.03812001
-0.1244868
0.6447529
0.6863407
0.3395575
-0.2382824