-0.006530768
-0.8989199
-0.1887678
0.9764324
0.7281496
-0.5896126
0.7997413
-0.5684317
-0.943596
0.5309364
0.8915565
0.2757116
0.9704806
0.8804789
-0.9873598
-0.5254585
0.5622997
-0.7971081
-0.004412575
-0.4072141
0.2829104
-0.7711861
0.9922844
0.7162071
-0.9788604
0.3750675
0.3335986
-0.5916273
-0.8411694
-0.9687132
0.8420219
0.9982244
0.6207901
0.2917548
0.3489499
-0.5240655
0.5824662
-0.3396497
-0.5327892
-0.4688825
0.02510088
-0.7266923
-0.9826784
0.7079528
0.969323
0.5656821
-0.5358925
0.06301551
-0.5309606
0.5868125
0.5419146
0.2363801
0.5275102
0.3082707
-0.08030437
-0.004755175
-0.5197101
0.5194774
-0.3725175
0.2522151
-0.1720788
0.139391
0.9643575
0.5252864
-0.4941644
0.6182488
0.2583899
-0.7374722
0.9111558
-0.5530418
-0.989566
-0.5007158
0.7338524
0.4087749
0.05087129
-0.9534698
-0.2986963
-0.3159863
-0.2034885
0.0258948
-0.1052224
0.8141212
0.7808902
-0.09338452
0.2033656
-0.297369
-0.9661331
-0.9044963
-0.2140808
0.7307011
0.2175446
0.3199384
-0.2508056
-0.9797474
-0.4793165
-0.4741834
-0.4605447
-0.3914533
-0.3429185
0.9227927
-0.1356216
0.7800938
-0.733496
0.4431446
-0.3079651
0.7277935
0.4554899
-0.3791053
-0.8950949
-0.7829354
-0.03862209
-0.6152138
-0.2664418
-0.1032186
-0.9653295
0.5079829
-0.6098035
0.9441049
0.00460291
0.9800189
0.07879354
-0.3501568
0.6054463
0.9883631
0.5825798
-0.7696598
-0.7672198
-0.7092922
-0.28326
0.3230779
-0.4089596
-0.9195911
-0.4208914
-0.4205531
-0.9354831
-0.4900087
0.08056292
-0.1158911
-0.128055
0.6953827