-0.7659805
-0.9956238
-0.2744133
0.7984627
0.1850556
-0.517012
0.3150792
-0.9330777
-0.6063413
-0.9838114
0.583535
0.4916579
-0.05463126
0.4383336
0.1731793
-0.8969327
-0.08062463
-0.9465216
-0.7280947
0.003206972
-0.4183216
0.4787115
0.6097069
0.02878228
0.6833326
-0.9386109
0.2681538
0.741394
0.8499724
0.009732085
0.7231669
0.08103872
-0.08225311
0.8686494
0.4744515
0.4526328
0.2514482
-0.5834913
0.293637
0.1344628
0.4672356
0.6930701
0.304792
0.6263236
0.6110305
0.6688503
0.2362031
0.1403634
0.8697658
-0.5014334
-0.4772548
-0.9931579
-0.3879879
0.6290845
-0.3768454
0.1529807
0.08662928
-0.1430628
-0.6759888
0.7324229
0.2315398
-0.1014295
-0.2267147
0.2591959
-0.4510471
0.8904649
-0.813134
0.3190452
0.8273031
0.504329
-0.1331357
0.779012
-0.8162874
0.7733387
-0.5195382
-0.4251637
-0.1333005
0.9806225
-0.5943724
-0.4696482
-0.02524021
-0.5887835
0.4173827
-0.8824505
0.7781923
-0.1754036
-0.6922466
0.658551
0.3196965
0.5839866
0.2657668
0.9324031
-0.4107943
0.789308
-0.7324015
0.6882237
0.5093575
0.5314533
0.1458618
0.03619415
-0.1978492
0.2555805
-0.2652642
0.339414
0.5238069
-0.8884713
-0.4105406
-0.5055375
0.8508921
0.7985582
-0.1547726
0.4280783
0.5372407
-0.2599753
-0.5333439
0.2991367
-0.6906351
-0.01602266
-0.008402621
-0.1392707
-0.6188926
-0.3445873
-0.8268167
-0.2088911
-0.2978218
0.6112837
0.04427623
-0.1557014
-0.7504682
-0.6310669
0.985377
-0.627763
-0.8702697
-0.3929306
0.6851245
0.5466815
-0.1260242
-0.3226419
0.6508934
-0.5209444