-0.4353073
0.1584086
0.6381348
-0.8890028
-0.1252069
-0.5346586
-0.5647009
0.794687
0.086596
-0.05053755
-0.9252835
0.3531424
-0.7220737
-0.7546274
0.2072926
0.619396
-0.3941354
0.6546846
-0.6844833
-0.680426
-0.9060808
0.8762667
-0.7145857
0.4285998
0.1974941
-0.6079084
-0.2931883
-0.9437275
-0.1220521
-0.2195096
-0.5624124
-0.1824278
-0.7915414
-0.5056153
0.9786876
-0.7384912
0.4977311
0.6833045
-0.2512735
-0.9432417
0.8156912
-0.611924
-0.5559728
0.1018922
-0.2584539
-0.3940299
0.3965768
-0.5547743
0.4730171
0.3367713
0.04276459
-0.7940885
-0.7946007
-0.9760071
0.3089648
0.7471206
-0.05004997
0.1437501
-0.8676904
-0.3867156
-0.03238972
-0.2480054
0.04596044
0.02983766
0.1337712
0.6866405
-0.09088475
0.1760341
0.5038264
-0.3986775
-0.7771809
-0.8393611
-0.8183325
-0.0212546
0.2768094
0.8880078
0.6708673
-0.7385786
-0.8803651
0.4503735
0.4421416
0.5630616
0.9239628
-0.7353365
0.8128801
0.685593
0.7716117
0.1786209
0.3606135
-0.707953
0.3523935
-0.678303
-0.820522
-0.852596
0.8339391
0.6550523
-0.7935915
0.4652818
0.8250828
-0.1464617
-0.06489719
0.1351555
-0.6744093
-0.9773564
0.8946297
0.479703
-0.7180514
0.9407358
-0.7888872
0.6233718
0.9755088
0.7713291
0.7831366
0.8402626
0.2608909
-0.3540867
-0.4274835
-0.1014436
0.1958985
0.4787189
0.480232
0.4438335
0.3509513
-0.3497119
0.6662197
0.08766372
0.8350482
-0.8409761
0.08411567
0.7971064
0.6060593
0.7301315
-0.9496915
-0.5037369
0.4748647
0.6708125
0.779925
-0.9162997
0.003772657
0.1669668