0.6399232
0.5022271
0.6408246
0.3063667
-0.3759537
-0.1360261
0.002995383
-0.2397093
-0.8344309
0.07127856
0.4895596
-0.2297479
0.6395506
-0.8034438
-0.7700817
-0.8920974
-0.5698475
0.8661404
-0.9976183
-0.8593694
-0.4740336
0.4744936
-0.6960789
-0.2302171
-0.992732
-0.6111957
0.6843984
-0.3386131
-0.6959383
0.5927354
0.06368005
-0.7416238
-0.1019379
0.2445189
-0.8580077
-0.5484787
-0.3441938
0.3212958
0.8176963
0.8779316
-0.3167913
0.4769136
-0.001464183
-0.8463342
0.4089989
-0.9565892
-0.3672295
0.07702723
0.457582
-0.4212547
0.6180072
0.4377086
-0.6199399
-0.2403284
0.2993325
0.381547
-0.395835
-0.6036943
0.1643744
-0.827475
-0.7918324
0.6816996
-0.0574056
-0.7123625
-0.6119302
-0.987354
0.7717163
0.4858848
-0.2124427
-0.8134925
0.475132
0.3531253
-0.5914416
0.4236365
-0.4773766
0.08825786
0.0944335
0.5442495
0.4704504
-0.3742791
0.7846394
0.2880927
0.4970126
-0.8684634
0.3845677
0.3819805
0.3157818
-0.3895754
-0.1435509
-0.8706537
-0.320195
0.1699215
-0.4662615
0.6311888
-0.5972005
0.3300834
0.06835525
0.5748993
0.6310425
-0.6792589
-0.05102267
0.08852103
0.6065768
-0.168139
-0.2058941
-0.6700855
0.940696
-0.7514765
0.3751039
0.917352
-0.9342347
0.9937404
0.5398566
0.03502806
0.4927201
0.03824614
0.147961
0.3114056
0.884838
0.05798639
-0.05570931
-0.803183
0.8548423
-0.5331838
0.2375301
-0.613389
0.7465485
0.5766973
-0.3704694
-0.8072911
0.1475618
-0.15409
-0.8308544
0.5530984
-0.4400443
0.7908989
0.7482361
-0.5380155
-0.3611835
-0.6536784