-0.8226061
-0.5533072
-0.4226885
-0.4588428
-0.8830971
-0.3052286
0.2746702
-0.6433652
0.9609239
-0.4505668
0.9671898
0.3633686
0.1293864
0.6252486
-0.9869658
-0.4682911
-0.837405
0.1219867
-0.8566962
-0.5795279
0.6881627
0.577406
0.7904755
-0.9806285
0.2170385
-0.9035943
0.7329704
0.001021895
0.1942818
0.828616
0.604195
0.2418011
0.01447763
0.8860406
-0.07816441
0.9214309
0.4002703
0.5867645
0.5357102
-0.1841963
0.6259134
-0.8420996
0.4275172
-0.7016591
-0.1690741
0.4864387
0.2134117
0.1828758
-0.2308867
-0.9981819
0.2691863
-0.3465011
0.7721316
0.008987134
-0.5146257
-0.06440727
0.4322152
-0.3087292
0.6193216
-0.8045281
0.2945012
0.6879057
-0.1790754
0.1451201
-0.07648027
0.8092895
0.9358514
-0.1689545
-0.2056773
-0.4734044
0.3182972
-0.02028079
-0.6471266
-0.8585143
0.1512858
0.03466372
0.8052744
-0.2185116
0.5339972
-0.7185543
-0.3358095
0.04169958
0.3817002
-0.001190085
-0.4658851
0.9162893
-0.5791234
0.8693575
-0.03747909
0.1125461
0.9855796
-0.4307753
-0.2075582
0.009114635
0.4975065
-0.3538058
0.8050271
0.2860315
0.147055
0.7962621
0.6811643
-0.5680767
0.6488785
-0.5123324
0.3376275
-0.7725132
0.2717987
-0.2266783
-0.5251278
-0.4309151
-0.4852839
0.5628577
0.7287499
-0.4932245
-0.7901077
-0.2747236
-0.1045361
0.81181
0.6476136
-0.7226745
-0.9957376
-0.3501801
0.6839905
-0.001939424
-0.1545687
-0.1136262
0.3308407
0.8652058
-0.1961418
-0.07620098
0.762865
0.03195269
-0.6933839
-0.03508772
0.7667296
0.1013328
0.3129497
-0.1250753
-0.2110824
0.8088385