-0.8308978
-0.8314804
0.6880471
0.8023925
-0.710929
-0.9421952
-0.5381265
-0.3484186
-0.2375345
-0.4426485
-0.5127738
-0.4275797
0.6904896
0.2226276
0.2176279
-0.1022567
-0.1294688
-0.9103794
-0.8497688
-0.8177349
0.1875391
0.5209287
-0.8608503
0.1610851
-0.7396693
0.7941975
0.8735088
-0.6822736
-0.1213231
0.902246
-0.679846
-0.5701125
0.1564461
-0.8300965
0.6484371
0.134579
-0.462833
-0.1720365
0.317585
0.8477378
0.09055141
-0.4399938
0.563825
0.7098171
-0.903284
0.5771857
-0.6673955
-0.9667053
-0.7682204
0.678185
0.4155715
-0.1626673
0.931884
-0.4006546
-0.7096152
0.7392148
0.01207349
0.5181436
-0.8460445
0.1544919
0.5206378
0.6339101
0.3339964
-0.08527224
0.4668001
0.9272201
0.008595385
0.9806725
0.1259116
0.6404422
-0.4348612
-0.1627636
0.857841
-0.5279537
-0.2333063
-0.6497936
0.5890446
0.5398043
-0.1292997
-0.478884
-0.217876
-0.6446348
-0.8362291
0.7241849
-0.6183918
-0.3137561
0.09589111
-0.7582816
-0.2968966
0.721217
-0.8740163
-0.4435056
0.7020519
0.6771428
0.282599
-0.746685
-0.2978348
0.09177867
-0.05687654
0.7465097
0.9881411
-0.2071997
0.1625945
0.7106636
-0.103939
0.06020628
-0.3264382
-0.7923009
-0.7822628
0.6041409
-0.3566764
-0.2296449
-0.1849598
-0.5672615
0.02850831
-0.03585663
0.9318582
0.6568535
0.6321287
0.2134851
0.2250549
0.9168167
0.03754906
0.3794019
0.6523012
0.7723384
0.6746419
-0.8528226
0.5759853
0.7064874
0.6766446
0.3813456
0.3220671
0.2665593
0.8777924
-0.9882311
0.540325
0.7310325
-0.3043234
0.4174648
615
