0.8856809
0.6434095
0.00838404
0.8551508
-0.1116525
-0.8915375
0.9519067
-0.7074926
0.4790393
-0.7238337
0.7123386
0.5670283
-0.9158796
-0.5059704
0.4365458
-0.04486265
-0.3731734
-0.1316358
-0.5790246
0.7234502
-0.8485258
-0.421905
-0.1032727
0.291023
-0.7243207
-0.4534547
0.7668723
-0.3832023
0.9800228
-0.4914628
-0.369545
0.1756146
-0.6497415
-0.223093
0.2674463
0.3386991
0.01982921
0.4199727
0.0945133
-0.003637056
-0.3959034
-0.2495598
0.1393386
0.7472118
0.7956896
0.3603802
-0.8653284
0.7918566
-0.4730231
-0.9299142
0.4038236
-0.2959822
0.7142637
-0.9736358
-0.6436577
-0.2899338
0.2931509
-0.7685229
-0.4122955
0.5496484
0.08863324
-0.468066
0.1979941
-0.5173237
0.6720697
-0.03810164
-0.5723103
-0.6630914
-0.30166
-0.9238343
-0.1795343
-0.16503
-0.6586127
-0.6491104
-0.6803735
0.4474564
-0.1361687
-0.1296369
-0.06531928
0.5656131
0.2533944
0.5353952
-0.9709067
-0.5696256
0.419904
-0.901479
0.9776205
0.8675822
0.1048373
-0.694452
-0.08899058
-0.3170795
-0.2783673
0.01834764
-0.8241028
0.7691266
-0.5909472
-0.211551
0.4275852
-0.6517668
-0.5034511
0.2643086
-0.1428242
-0.03863623
-0.1833085
0.8684284
-0.3250754
0.2838893
-0.3935398
-0.7421787
-0.2675544
0.4255687
0.1266398
-0.7178435
-0.361361
-0.5942873
0.8103013
-0.8203536
-0.6932209
0.9029431
-0.4471545
0.6392406
-0.09067657
-0.6498931
0.5796167
0.5561572
0.9777942
0.3800235
0.5341981
-0.5488019
-0.2274681
0.5799419
-0.7360972
-0.3231406
-0.1668325
0.8278256
-0.5912445
0.7469367
0.7917354
0.01419133
626
