-0.5716194
-0.8679462
0.08822842
0.6304917
0.3277543
-0.4713366
-0.9665735
-0.6221578
0.3926895
-0.7396557
0.01956346
-0.4341266
-0.4614461
-0.9059739
-0.2737941
0.6231042
-0.9869998
0.2012437
0.1904017
0.4126113
-0.142981
0.2683499
-0.03471543
0.6466067
0.6486349
-0.3492686
-0.4946705
0.0354763
-0.1823887
-0.2919066
-0.1936429
0.2206292
-0.3764482
0.3017381
-0.7342191
-0.8905429
0.9633499
0.003792649
0.5522521
0.9468165
-0.02148573
0.6185426
0.02012744
-0.7677968
-0.01029068
-0.3278626
-0.51376
-0.2396421
0.9223599
-0.2342239
0.6748191
0.6170059
-0.7040879
0.2981978
0.9614951
0.2077514
0.5085019
0.7864903
0.3647108
0.2182972
-0.4346865
0.02963388
-0.1744098
0.445873
0.28183
0.4010209
0.5457459
-0.6936494
0.1043167
-0.9459314
0.1368642
0.2526424
0.2788838
-0.5753744
0.7377923
0.2400132
-0.02756211
0.6670868
0.6851115
-0.5591165
0.1422295
-0.2811609
0.6707655
0.5993142
-0.8572201
0.7767232
-0.604961
0.1776789
-0.9800919
-0.13524
-0.4362888
0.6569992
0.8994759
0.4981835
-0.1900477
0.7258719
-0.6603413
-0.4044982
-0.5055891
0.7496961
0.6996995
-0.1808468
0.07524635
0.4814765
0.6235465
-0.04402008
0.9462404
-0.3034021
0.1554179
-0.8152281
-0.1872875
-0.6691769
0.7665823
-0.5000492
-0.345414
-0.09168573
0.130158
0.3274067
-0.3640793
0.5559581
0.06136215
-0.04975589
0.8119397
0.3546206
-0.645631
-0.682289
-0.822604
0.7974073
-0.198921
-0.2181876
0.2937728
-0.7241601
-0.4883311
0.5003396
0.628171
-0.1885936
-0.04774314
0.1708147
-0.05527184
0.2344656
194
