-0.2633501
-0.7458927
0.7876025
0.4731093
0.1052246
0.2966986
0.7439937
-0.3456866
0.2407276
0.8064404
0.4176664
0.8621307
0.02572268
-0.9593036
-0.1266478
-0.02198533
-0.8524147
0.9449083
-0.8696371
0.07476284
-0.0232175
0.3522673
0.01305573
0.8439713
-0.8829754
-0.1319892
0.1261502
0.2633044
-0.7102526
-0.9333727
0.3633146
0.9265732
0.4443096
-0.6237555
-0.2291108
-0.9058597
0.5985398
0.5656473
0.6371663
-0.2576214
-0.9234056
-0.0691158
-0.002778107
0.8734015
0.1816612
-0.8016287
-0.7738874
-0.3158469
-0.2209577
0.4868152
-0.1788626
0.3912682
0.1614452
0.9823127
-0.8871497
-0.1899233
-0.1902023
0.411358
-0.29778
0.01108435
0.6981587
-0.8216536
0.01714699
-0.501651
0.7298459
-0.5132178
-0.1350912
0.1523212
-0.1409647
-0.3250191
-0.2480979
0.4634323
0.165866
-0.3564522
-0.7463745
0.5855143
-0.8091778
0.03074304
0.731121
0.3069479
-0.9417869
0.7147922
-0.4389156
0.278663
-0.6315314
0.1849682
-0.09057382
-0.05403938
-0.3536015
-0.715893
0.2292315
-0.5537813
-0.293388
-0.03781454
0.9904765
-0.3868379
0.7650182
-0.6463259
0.6197761
0.5961468
-0.9924509
0.1953696
-0.04696797
0.4720944
0.428602
0.1063453
-0.1698162
0.8827821
0.6138442
-0.07211789
0.9006506
0.8638371
-0.2350405
-0.581887
0.7818529
0.2519401
0.4717344
-0.9450385
-0.4921276
0.1166838
-0.278236
-0.4887653
0.5325451
0.2628885
-0.3325682
0.5565325
-0.4895998
0.6937716
0.2149458
0.1472802
-0.2446694
-0.69196
0.4168989
-0.1967611
0.4062974
-0.8056239
-0.05016736
-0.8570286
0.4968102
0.1165285
195
