0.564438
0.6378488
0.2687471
0.1533643
-0.658798
-0.6355693
-0.6939873
0.04978341
0.7901167
0.6407273
0.6166223
-0.2437721
-0.30879
-0.4036987
-0.4030287
0.05690815
-0.2653678
-0.6056168
0.6854088
0.2446295
0.7394021
-0.7851215
-0.8698064
-0.3984526
0.485248
-0.1725063
0.3333527
0.1421268
-0.2928457
-0.3129417
0.5188342
0.5142896
0.660991
0.2105723
0.9895462
-0.9043102
0.06993853
-0.9622505
0.6229252
-0.4555724
-0.6317891
0.6231465
-0.0540006
-0.8662639
0.7453461
-0.5180073
0.03091459
0.5032743
0.05771327
-0.6780187
0.6177762
-0.6902018
0.1023832
0.16419
0.680004
-0.9498516
0.9768578
-0.9418253
0.1638181
-0.7544879
0.2944921
-0.7317368
0.4268583
0.245689
0.2725164
0.9934759
0.8102285
-0.4425261
-0.1490448
-0.8850214
-0.9740064
0.2313578
0.3366699
0.3634275
0.6268533
0.4296039
0.1124953
-0.0339964
-0.07845666
0.4350996
-0.149364
0.275178
0.9783087
-0.5383578
0.3925662
0.2505711
-0.9125687
-0.584698
0.9380559
0.9960703
-0.7145386
-0.4875354
0.1867943
0.5079466
-0.4815659
0.1368531
-0.7135234
0.5825719
-0.4931172
-0.6842577
0.3694975
-0.935089
-0.418269
0.6226137
0.4713453
-0.6574018
-0.6685105
-0.3592589
0.7716238
-0.570567
0.9627171
0.5615558
-0.8798811
0.1677478
0.9600508
-0.2179725
0.08146885
0.9189117
-0.272745
-0.8643367
0.7069994
-0.7723434
-0.9494089
-0.4647871
-0.2545189
0.9610826
-0.3503732
0.7140562
0.8920822
0.2842551
0.09811435
-0.5282458
0.1943798
-0.5078896
0.4723825
0.2890802
0.1550591
-0.1894391
-0.4984086
-0.3894613
194
