0.2270893
0.3579104
0.5636864
-0.7866652
-0.7248475
0.8982382
0.8309942
-0.1634973
-0.5047304
-0.4423064
-0.3725204
-0.4563315
0.8114837
0.9031608
-0.4894951
-0.1425648
-0.8867062
-0.6014423
-0.3175536
0.5444801
0.5458847
-0.02083459
-0.1566583
-0.6006205
0.8819559
-0.6601045
0.7290228
0.9544365
-0.4225305
0.2287913
0.8996662
-0.9180661
-0.3834845
-0.4101373
-0.5639403
-0.4809805
-0.6106568
0.402025
0.1872859
-0.2371686
-0.8318645
-0.2444817
0.572112
-0.6484
-0.0547764
-0.02321819
0.9978421
0.8085614
-0.9157262
-0.04549792
-0.659524
0.1678752
-0.8367188
0.6312011
-0.8743707
0.1451554
-0.2586052
-0.02617623
0.7772751
0.756133
0.508895
-0.5710309
0.6492168
0.7324382
-0.6104419
0.8719613
-0.0284435
0.4598837
-0.04206277
0.5337231
-0.1404068
-0.6952676
-0.685716
0.7279443
0.2040041
-0.6219906
-0.1841158
0.2121406
-0.7262498
-0.2631995
0.5985007
-0.244801
-0.8228386
-0.1786635
0.7198963
0.470697
-0.5672829
-0.1159226
-0.7996955
-0.4359016
0.547463
-0.0705405
-0.5559122
0.6535628
0.9032382
0.863403
-0.5587656
0.8441678
0.1475959
-0.4327858
-0.8391024
-0.2142985
0.5348112
0.3474733
0.3560014
0.585277
-0.009286185
0.3419447
0.9113048
-0.3450677
-0.2875617
0.8573175
-0.2264808
0.2131768
-0.79133
-0.4205645
0.9848813
0.995654
0.8292
-0.4738449
0.4307269
0.1273887
-0.6877123
-0.609277
0.3728255
-0.9261083
-0.2300787
-0.03318935
-0.6280571
0.6187271
0.3872956
0.4739394
0.3008358
0.6188179
-0.9756378
0.7411832
0.9816798
-0.03601542
-0.3873335
0.1404607
191
