0.8856809
0.6434095
0.00838404
0.8551508
-0.1116525
-0.8915375
0.9519067
-0.7074926
0.4790393
-0.7238337
0.6166223
-0.2437721
-0.30879
-0.4036987
-0.4030287
0.05690815
-0.2653678
-0.6056168
0.6854088
0.2446295
0.7394021
-0.7851215
-0.8698064
-0.3984526
0.485248
-0.1725063
0.3333527
0.1421268
-0.2928457
0.902246
-0.679846
-0.5701125
0.1564461
-0.8300965
0.6484371
0.134579
-0.462833
-0.1720365
0.317585
0.8477378
0.09055141
-0.4399938
0.563825
0.7098171
-0.903284
0.5771857
-0.6673955
-0.9667053
-0.7682204
0.678185
0.4155715
-0.1626673
0.931884
-0.4006546
-0.7096152
0.7392148
0.01207349
0.5181436
-0.8460445
0.1544919
0.5206378
0.6339101
0.3339964
-0.08527224
0.4668001
0.9272201
0.008595385
0.9806725
0.1259116
0.6404422
-0.4348612
-0.1627636
0.857841
-0.5279537
-0.2333063
-0.6497936
0.5890446
0.5398043
-0.1292997
-0.478884
-0.217876
-0.6446348
-0.8362291
0.7241849
-0.6183918
-0.3137561
0.09589111
-0.7582816
-0.2968966
0.721217
-0.8740163
-0.4435056
0.7020519
0.6771428
0.282599
-0.746685
-0.2978348
0.09177867
-0.05687654
0.7465097
0.9881411
-0.2071997
0.1625945
0.7106636
-0.103939
0.06020628
-0.3264382
-0.7923009
-0.7822628
0.6041409
-0.3566764
-0.2296449
-0.1849598
-0.5672615
0.02850831
-0.03585663
0.9318582
0.4511077
-0.1487004
0.6061686
-0.1480823
0.7611485
-0.3659492
-0.7801036
0.6013358
0.1028431
-0.9824704
-0.3685918
0.3783656
0.4847482
-0.3031287
0.1611082
-0.8951783
-0.4570388
0.149475
-0.0488711
0.451925
0.8095376
0.8512483
0.1988383
611
