0.8645182
-0.2981262
0.5666141
0.3892181
0.2335504
0.7024753
-0.8487332
-0.3382571
0.4284659
-0.8544863
-0.1094557
0.1260134
0.2530286
-0.6934415
0.5620222
0.5565145
-0.04107445
0.2004498
-0.5137542
0.117584
-0.01084781
-0.7651263
-0.1867532
-0.6701539
0.159705
0.36616
-0.2652717
0.7838353
0.2131165
-0.3772037
0.5982562
0.6970168
-0.3020781
-0.8780312
0.1987555
-0.9925442
-0.1643651
-0.3014635
0.4344217
0.4417868
0.3004189
0.02962927
0.2176227
0.5535737
-0.8576845
-0.7568633
-0.04614943
0.4400622
-0.03095252
-0.02381311
0.9582794
0.3132888
0.690356
-0.8193691
0.2545712
-0.8324986
-0.996048
0.4446453
-0.8095375
0.2260946
-0.1331596
0.4527302
0.2273213
0.9866791
-0.1549052
0.860915
0.9083906
0.6994549
-0.835757
0.3188855
-0.3973361
0.5188633
-0.7685977
0.5100589
0.1593046
0.6758633
-0.4554822
-0.3673841
0.07527486
-0.007796478
0.362208
0.290083
0.5933727
0.9870219
0.7559559
-0.854474
-0.5303045
-0.2887573
0.276874
0.3378406
-0.9009349
0.13618
-0.4657064
-0.8844638
-0.1608771
0.7815556
-0.2017731
0.7075638
-0.605731
-0.5335479
0.6986189
-0.6787653
-0.6352127
0.976844
0.6139789
-0.3318036
0.7199161
0.703334
-0.575325
0.1090452
0.6978059
0.2927092
-0.8322287
-0.147378
0.1270295
0.7306604
-0.08156334
0.1117851
0.1475563
0.06353922
0.06268805
-0.7991731
0.3051859
0.6977909
0.6202666
-0.7185707
0.154076
-0.7454416
0.8960801
-0.5088918
0.9559472
-0.1588163
-0.7920591
0.9662296
0.2943976
-0.9305012
0.1223117
-0.2592493
-0.1400076
-0.9747044
190
