-0.941773
0.7081207
0.6223341
0.6032682
0.9831634
-0.8591528
0.8562231
-0.4139887
0.4772793
-0.4439315
0.04557374
-0.8937849
-0.6644429
0.9342051
-0.8577213
-0.3471324
-0.9877266
0.6236401
-0.3959593
-0.8158191
0.963123
-0.3622759
-0.1564819
0.7518778
0.130373
-0.9824249
-0.09974582
0.4073394
0.510372
0.5786647
-0.7183763
0.1271466
0.464252
-0.9594699
0.4548178
0.7158394
-0.8301817
0.6014515
0.6071597
-0.3366618
0.4313744
0.5938408
0.4209429
0.296984
-0.01094608
0.4977292
0.2413882
-0.5797513
-0.1937981
0.3664663
-0.1720486
0.6407623
-0.7853762
-0.9779053
-0.8961325
-0.06891967
-0.7561313
0.581804
-0.8515496
-0.732676
0.9710289
-0.7452284
-0.02114846
-0.1860588
0.124694
0.451733
-0.3147278
0.03857313
-0.05484878
-0.3554505
0.4114793
0.5920247
-0.1825617
0.2375744
0.3562295
-0.6776394
-0.5768996
-0.1785766
0.6480103
-0.8007073
0.7737064
0.3184502
0.258889
0.243048
0.6076359
-0.9731479
-0.8517049
-0.3496892
-0.08416398
-0.9969152
0.03056718
0.1312452
-0.3436998
-0.03738978
0.2518588
0.8393497
-0.2235975
-0.8166316
0.9407544
-0.3333067
0.0746288
-0.5800352
-0.2277615
-0.3930908
0.5927598
0.5095012
-0.6181267
-0.02842422
-0.5855411
-0.9229845
-0.2172148
0.5935579
-0.334032
-0.8546344
0.2367568
-0.1602164
0.5984715
-0.9837587
0.5620824
0.2853443
-0.3246695
-0.4980962
0.09781871
-0.7215421
0.5699207
-0.008485477
-0.1802137
-0.7894709
0.6448146
0.8467283
0.9404873
0.4515246
-0.5930355
0.5709948
0.4165075
-0.8198515
-0.3475178
0.1135234
-0.9937088
-0.2321478
195
