-0.2456143
0.4390376
-0.3904104
0.4896183
-0.5038379
-0.7908331
0.5189454
-0.6773499
-0.9751583
0.5102606
-0.4213269
-0.4450122
0.5157934
0.2366361
-0.9301349
-0.3932045
0.4707332
0.8960352
0.8328713
-0.1157079
0.5198813
-0.0574707
0.5120225
-0.1997277
-0.1502447
0.2042861
-0.8392345
0.3254219
0.9365764
-0.1806586
0.445198
0.6092081
0.6320119
-0.8781318
-0.365188
-0.3299329
-0.5989767
0.800913
0.3095367
0.04550569
-0.6983948
0.7786067
-0.6856939
-0.3083068
-0.8133939
-0.2658847
0.8693231
-0.4782053
-0.583196
-0.3264937
0.8510034
-0.7850969
0.7944561
0.8763352
0.9722669
0.1451776
0.8070257
-0.5122785
-0.1451937
0.826095
0.8081436
0.7180324
0.01311335
-0.02066403
0.2086553
-0.1999336
-0.7593183
-0.1758999
0.05002997
0.3357499
-0.2625276
-0.05106152
0.4792312
0.159365
0.03328864
0.3049782
0.1480732
0.6356872
-0.1719945
0.7045777
0.3972603
0.673044
-0.5293844
-0.8895186
0.01119783
0.7271656
-0.4039052
-0.3473241
-0.08678716
0.8347456
-0.5706146
0.5769233
-0.249117
0.9737868
-0.6919667
0.3526668
-0.7006245
0.1549412
0.6584046
-0.118372
0.586042
-0.7663642
0.6937892
-0.2877736
0.276246
-0.8220406
0.7442876
0.6839747
-0.1348626
-0.7548988
-0.4509172
0.1543498
0.5745087
0.02006072
0.3967096
-0.7687797
-0.03285062
0.03932649
-0.3286973
0.8559886
-0.4993092
0.08574051
0.1656955
-0.831598
0.7497078
-0.4961635
0.2551493
-0.2329952
0.883119
-0.1446708
0.5606906
0.4640985
-0.2294501
-0.4170957
0.1554948
-0.7570895
-0.9014646
0.4505548
-0.2862282
-0.2200225
195
