-0.3534348
0.06763224
-0.4582419
-0.5360501
0.8033978
0.6134671
0.8450595
-0.4551447
0.1438144
-0.5077587
0.5484759
-0.4577486
0.7944227
0.7125986
-0.5440766
0.4238595
-0.6925157
0.5749067
0.8533055
-0.1878598
-0.9962769
-0.2245743
0.7518698
0.9209523
0.5382066
0.7450802
0.7890649
0.3026323
-0.303447
0.04111888
0.06325476
-0.4146973
-0.8164077
-0.8563205
-0.9925178
-0.4808893
0.1558214
-0.9006588
-0.1013028
-0.0694905
-0.9897733
-0.3975107
0.9441018
0.9889389
-0.2219107
-0.4816529
-0.4760298
-0.4092834
0.962133
0.8830907
0.02234142
0.6496245
-0.5257384
0.9036093
-0.8287891
-0.9387374
-0.11596
-0.6019214
-0.5435323
0.2842871
-0.5423543
0.7457184
0.6461582
-0.7866951
-0.5179855
-0.05401342
-0.4018504
0.8054839
-0.06549072
0.9375763
-0.1001106
0.7167677
0.6127737
0.9702148
0.7897987
-0.6459015
-0.6988359
0.8482605
0.7497414
0.4769441
-0.1389597
0.3909863
-0.1538354
0.4122659
-0.4165269
0.3175364
-0.06085549
0.9702873
0.6616649
0.06149566
0.9209611
0.3503375
0.1648319
-0.0388791
-0.9693799
-0.7065411
-0.01028444
0.973887
-0.8008599
-0.5760092
-0.782817
-0.3242903
-0.1590248
-0.5148111
0.02205045
0.6313551
-0.1965401
0.06199572
0.3201362
-0.1463255
0.1221181
-0.08624734
-0.2635863
0.3949721
0.3633259
0.1073083
-0.4191135
-0.3149628
-0.8173152
-0.8114443
0.956271
-0.3757375
0.6063437
-0.4894815
0.7203933
-0.7758203
-0.1242075
0.1275848
-0.05183565
-0.8415564
0.5506386
0.2391683
-0.4718757
-0.1039331
-0.645174
0.9472876
-0.3454274
0.4511926
-0.95106
0.4761648
186
