0.4858157
-0.5629368
0.05487741
0.6741494
0.1333714
-0.5799257
-0.3828283
-0.9466353
-0.7192627
0.8293465
0.09348173
0.4744237
0.4722249
0.5288689
0.1799185
-0.3130418
0.4848657
0.9159933
0.3231111
0.6148182
0.6035972
-0.9732708
-0.2707218
-0.2291559
0.1691166
-0.7246249
-0.1975599
0.09936985
-0.9201946
0.7885957
0.9622638
0.9315166
0.7149167
0.9998534
0.4326734
0.9563032
0.6551638
-0.2165811
0.2108046
-0.3141327
-0.410974
-0.146072
0.6436996
-0.2428754
-0.9848701
0.3605664
-0.2553388
-0.4700084
-0.5502987
0.7489871
-0.06125692
-0.1176901
-0.1158208
-0.1759292
0.1781969
0.5542991
-0.2778535
0.055024
-0.758524
0.1770681
-0.2350895
0.8337529
-0.1574399
0.59487
0.2403205
-0.7604463
0.8307241
-0.2848997
0.513739
0.8193521
0.9422969
-0.04512595
0.466292
0.574124
-0.3239248
-0.2787127
0.1425501
0.9052073
0.5926472
0.6148176
0.5532287
0.7474161
-0.1421061
-0.09726273
0.02368521
-0.871489
0.0889565
-0.8799533
-0.2404671
0.1931197
-0.8744208
-0.05993647
0.2696799
0.3914525
-0.2564296
0.634152
0.387636
-0.9304244
-0.9189506
0.2938426
-0.7819837
-0.1605461
-0.06265558
-0.1651162
-0.8042416
0.191327
-0.975584
0.9814419
0.8003857
0.04968596
-0.5346575
-0.3979002
-0.7045089
0.04835631
0.05148897
0.8248469
-0.435927
0.4511077
-0.1487004
0.6061686
-0.1480823
0.7611485
-0.3659492
-0.7801036
0.6013358
0.1028431
-0.9824704
-0.3685918
0.3783656
0.4847482
-0.3031287
0.1611082
-0.8951783
-0.4570388
0.149475
-0.0488711
0.451925
0.8095376
0.8512483
0.1988383
629
