0.564438
0.6378488
0.2687471
0.1533643
-0.658798
-0.6355693
-0.6939873
0.04978341
0.7901167
0.6407273
0.6166223
-0.2437721
-0.30879
-0.4036987
-0.4030287
0.05690815
-0.2653678
-0.6056168
0.6854088
0.2446295
0.7394021
-0.7851215
-0.8698064
-0.3984526
0.485248
-0.1725063
0.3333527
0.1421268
-0.2928457
-0.3129417
0.5188342
0.5142896
0.660991
0.2105723
0.9895462
-0.9043102
0.06993853
-0.9622505
0.6229252
-0.4555724
-0.6317891
0.6231465
-0.0540006
-0.8662639
0.7453461
-0.5180073
0.03091459
0.5032743
0.05771327
-0.6780187
0.6177762
-0.6902018
0.1023832
0.16419
0.680004
-0.9498516
0.9768578
-0.9418253
0.1638181
-0.7544879
0.2944921
-0.7317368
0.4268583
0.245689
0.2725164
0.9934759
0.8102285
-0.4425261
-0.1490448
-0.8850214
-0.9740064
0.5592813
-0.4675387
-0.5182506
0.217744
0.6163567
0.3837714
-0.04741821
0.1529756
-0.5896192
-0.005649804
-0.7298225
0.3501394
0.1286988
-0.3976496
-0.7767221
-0.1717383
0.8340966
0.4785179
-0.6329804
0.7911388
0.1563618
0.6581868
-0.5732327
-0.5951419
0.1206233
-0.1701181
0.9241863
0.4380261
-0.9599674
0.3236119
-0.2711662
0.3292023
-0.1714073
0.8105917
-0.9137237
0.1383462
0.616674
0.1826735
0.02422319
-0.9319661
-0.6986575
0.1730534
-0.553333
-0.6747285
0.749523
-0.6412403
-0.8736122
-0.7325175
-0.9107002
0.1334692
-0.9113365
0.005095014
-0.00355613
-0.00169868
-0.7406555
-0.7699209
0.7038685
-0.3288423
0.1314677
-0.5219896
0.7670974
0.7699082
-0.8712476
-0.6576531
-0.3069923
0.09712411
-0.09652752
-0.1965728
-0.1471726
611
