-0.2399838
0.5567682
0.9813733
0.05722429
0.3340548
0.3436449
-0.5887722
-0.417519
-0.7759209
0.8041968
-0.9024825
0.5323707
0.2718222
-0.1969246
0.3209374
-0.8780565
0.4630859
0.1108849
0.5567315
0.03333544
-0.9205759
-0.7062672
-0.02979716
-0.9148401
0.485085
-0.007685397
0.1729766
-0.4827156
0.6860059
-0.9469354
0.8199926
-0.6153316
-0.1847526
-0.1328941
0.7584711
-0.03167987
0.8139184
-0.6373799
-0.1525354
0.6277642
0.04075059
-0.8557357
0.2102733
-0.1502164
-0.2240949
0.2669578
-0.5061044
-0.31461
0.09781927
-0.8368198
0.06993392
0.581251
0.7645489
-0.3392928
-0.04001506
-0.6246521
-0.2584792
0.1142673
0.2987532
-0.6342654
0.5297266
-0.9513924
0.7350163
-0.4036852
-0.2365538
0.9532531
-0.6779026
-0.5779614
-0.9728296
-0.9460204
0.6280479
-0.222304
-0.9869344
0.3935513
0.9634015
-0.5018269
-0.4708161
-0.6905044
0.1251749
0.1097372
-0.7492062
-0.9412907
0.2185311
0.3202713
-0.4766619
0.7713849
-0.350348
-0.7810674
-0.8963403
0.8052179
-0.3537773
0.3918797
-0.6645503
-0.206515
0.9997163
-0.7369454
-0.8688014
0.816722
-0.113618
-0.722268
-0.2622261
-0.8156
0.5602151
0.9880821
0.9123864
0.01122465
-0.6372801
-0.5557225
-0.8626309
0.1886
0.7256958
-0.4774117
0.01060759
0.4935354
0.7195119
-0.8621532
0.713158
-0.05846866
-0.4034015
-0.4996085
0.8220545
-0.4946245
0.5356566
0.7494384
0.3162057
0.4436479
0.2174809
-0.9750164
0.4811649
-0.04782312
-0.8645467
-0.9150937
-0.8278734
0.9365749
0.3840414
0.7282056
0.04810168
0.7249957
0.6007594
-0.6145087
611
