-0.4553555
-0.9954525
0.7426742
0.5430559
-0.8096113
0.2096921
0.8810183
0.3908011
-0.7978142
0.4135961
-0.5761606
0.9251121
-0.4933751
0.8409262
-0.3216184
-0.3328886
0.3054758
-0.9848406
-0.8111694
-0.6849418
0.3166375
-0.9119291
-0.913693
-0.6908624
0.9852723
0.9725299
0.7600992
0.6912283
0.3624687
-0.4173824
0.4891749
0.06407646
-0.5200964
-0.4220146
0.4952022
0.4390705
0.5568641
-0.9049867
-0.6122025
0.04447187
0.294406
-0.4532647
-0.3432824
-0.2643387
-0.2216792
-0.1381508
0.9000572
-0.7851457
-0.6528583
0.3860958
0.3105751
-0.6087986
-0.4043595
-0.895026
0.9995562
0.480568
0.524644
0.1646889
-0.9521464
-0.2486817
0.6528279
0.7860051
0.003003643
0.1577139
-0.8808098
0.8771041
0.2683945
0.7709636
0.06260549
0.8165324
-0.2329458
0.09062149
0.6680177
-0.1972652
0.004483071
-0.07456394
0.4924304
0.981333
-0.6904187
-0.4952958
-0.5521141
-0.4045897
0.6433747
-0.3888495
-0.07021028
0.7031699
-0.9389272
0.3221897
-0.5412048
0.6180981
-0.829324
0.7859005
0.03240781
-0.4287349
-0.7225824
-0.7962155
-0.1212824
0.8539828
0.7311782
0.8528847
0.3694187
0.9187242
0.905273
0.8424375
-0.06179016
-0.2848352
-0.2521733
0.98449
0.1751843
-0.7036136
0.4194952
-0.7975457
-0.2941064
-0.5702444
-0.4193577
0.8669274
-0.2464027
-0.5682614
-0.1197037
0.9154056
-0.001613498
0.4144117
-0.9602146
0.2097208
-0.5528864
-0.1516699
0.1853485
0.8255802
0.864525
-0.7106817
-0.8223906
0.5079405
-0.1938513
-0.9868051
0.08520902
-0.7545683
0.8895167
0.2136191
-0.9694918
0.06286234
15
