-0.2274938
0.5179704
0.7110256
-0.04610047
-0.4131284
-0.9911036
0.2860298
0.8641487
-0.4684204
0.06316309
0.07147745
0.4518149
0.3698452
-0.2881196
0.256328
-0.1090711
0.5855138
0.2764845
0.32231
-0.7739909
0.3584026
-0.8820955
-0.3176337
-0.1227772
-0.4931548
0.1116856
-0.209216
-0.7228622
-0.5866652
0.9238763
0.1928851
-0.1778609
-0.7884876
-0.4889775
-0.01914803
0.7984142
0.5005367
-0.8034638
-0.7944444
-0.4498256
-0.6630948
-0.4412248
0.5198493
-0.5970297
0.447656
-0.4778362
0.1553079
-0.01305534
-0.2782328
-0.2560893
-0.6804295
0.1173456
0.3064001
0.2481045
-0.9509813
0.9503671
0.3064581
0.2000031
0.9730476
-0.2115427
-0.4916402
0.08949357
0.6585931
0.9814052
-0.2737422
-0.4872978
0.9319656
-0.03312504
0.2642244
-0.2658359
0.735621
-0.4014308
-0.4452827
-0.4216007
0.9064386
-0.758943
-0.1884956
0.4342617
-0.1717959
-0.4435219
0.8052276
0.5907809
-0.6959098
0.6248775
0.4155165
-0.8966085
0.163546
-0.7698928
0.7847646
-0.5318502
0.8664486
-0.4663383
-0.06768819
0.4713914
-0.1854467
0.7383361
-0.9959421
-0.05855003
-0.5034683
0.206599
0.7106594
0.7210461
-0.8412594
-0.834711
-0.06131691
-0.2712104
-0.1867446
0.6815225
0.832588
0.9456272
-0.2131789
0.07635089
0.4152385
0.5048978
-0.07799131
0.9746981
-0.8428183
-0.8127983
0.1668519
-0.01207829
-0.4913557
-0.00948438
-0.5296567
-0.9423746
0.02350476
-0.9854251
-0.5601715
-0.6105717
0.6397162
0.1776491
0.4278016
0.1299819
0.6016737
-0.1174232
0.769657
-0.2711233
-0.8244576
-0.2008076
-0.2971312
0.4408185
47
