-0.5558308
-0.1430009
0.5086707
0.3815483
0.5142123
0.581849
-0.2466286
0.006581417
0.9834678
0.7767035
-0.5781884
-0.8198936
-0.02937484
-0.5290732
-0.5226716
-0.3498692
0.7713187
-0.6772899
0.3860718
-0.08910335
-0.8220724
0.1694604
0.8464115
0.9440629
0.5252581
-0.4810055
0.0440055
0.8512607
-0.03959651
0.1321502
0.9706961
0.5218722
0.8022018
0.4836968
0.9545158
0.4774854
0.4079892
0.3829446
0.1358262
0.8689734
-0.2699063
-0.427516
-0.4986046
0.7246495
-0.685015
-0.2817538
-0.9837729
-0.9092743
0.6755865
0.4331634
-0.1282679
0.6858063
0.08106474
0.2894321
0.7983038
-0.07770296
0.0547973
-0.9750262
0.4270325
-0.9632731
-0.8261403
0.3704268
0.8707552
-0.8855056
0.04660983
0.8493276
0.678711
0.2459757
-0.8440582
0.7590821
-0.3660964
0.680593
-0.3528765
0.9529085
-0.9608355
-0.5078787
-0.9116043
-0.4430206
-0.8542408
-0.3970389
0.4641972
0.01903167
-0.5757718
-0.07632338
-0.04170953
-0.3997307
0.651117
0.6877074
-0.562913
-0.8948118
0.7987744
-0.8379864
0.2270028
0.3767441
0.2350697
0.04950063
0.9253604
-0.451513
0.6854849
0.8228638
-0.3701495
0.4592478
0.9449665
0.07262547
0.9689662
0.8527005
0.2615782
-0.8426118
-0.6688583
0.1980345
0.2711801
0.3670899
0.5878868
0.3218444
-0.7620475
-0.9881539
-0.856576
-0.505989
-0.1205753
0.9971092
0.9239671
0.130224
0.5604907
-0.666922
0.1292316
0.1746559
0.7356265
0.5744981
0.9839423
-0.8135359
0.2305431
0.9310076
-0.7741622
-0.0522753
0.331781
-0.9028927
0.4311448
0.1023838
-0.3142759
-0.05355567
49
