-0.2821828
-0.8636876
-0.9474688
-0.908777
-0.5937786
-0.6351902
0.02515401
0.9965611
0.6638141
-0.7270112
-0.1320484
-0.4953691
0.7019135
0.2526073
-0.7342673
0.8636832
-0.6144019
0.849526
0.04360089
0.07124018
0.4001721
-0.3769622
-0.7385004
0.2303071
-0.201223
0.4159873
0.9758312
-0.2130371
-0.8024526
-0.6305493
-0.1929104
0.7195812
0.009916387
-0.8773342
-0.1974069
-0.3055215
0.07752948
-0.2176289
0.8534301
0.203114
0.3278696
0.2968972
0.8978713
0.2312349
0.909547
0.47275
-0.756655
-0.6332529
0.1348964
-0.009603551
0.06003854
0.3380685
0.5295309
0.6670999
0.8893358
-0.001763998
0.1263961
0.9298655
0.2886299
0.7117429
0.2872803
-0.7572171
-0.856869
-0.5392999
-0.05488084
0.5710543
-0.3932404
-0.5293214
0.3430603
-0.2070174
0.6203381
-0.981149
-0.2853704
-0.9467956
-0.9887984
-0.9378964
0.09350691
-0.4056003
0.3409712
0.8005409
-0.7104087
-0.9540343
0.498333
-0.5141954
0.08217047
-0.4356934
0.5764502
-0.4507837
0.1775466
0.2315388
-0.912281
-0.3931491
0.4393108
0.06044746
0.5827759
0.3090187
-0.4177324
0.8446669
0.2200332
0.8474434
-0.6207569
0.6489453
0.02577589
0.3343554
-0.2991948
0.0140728
0.8397354
0.04372632
-0.4150706
0.3250292
0.4217858
-0.4228202
-0.2476812
-0.9429089
0.624024
-0.3195706
-0.1965278
0.08268353
-0.1220758
0.6361005
-0.01121326
-0.2379073
0.2506454
0.4956169
-0.5862605
0.9713928
-0.006924927
0.3802742
0.3523992
-0.002871159
-0.7776319
-0.9502194
-0.9905298
-0.984058
-0.6212448
0.7124115
0.2936469
0.4412419
-0.1382194
-0.598259
15
