0.7148376
-0.5492371
-0.9473581
-0.1946118
-0.7434126
-0.03183893
-0.7953525
-0.1071733
0.6787667
-0.8842052
-0.7083479
-0.8500296
-0.3530601
0.3195055
0.2087583
0.02859947
-0.005801702
0.5950313
0.6518189
0.6562728
0.1323459
0.06544741
-0.5562785
0.3832719
0.84037
-0.2862644
0.4204065
-0.8255901
0.5906267
-0.1230014
-0.5808671
-0.2363662
0.3706842
-0.8391894
0.1554584
0.4549583
0.2215286
0.2961949
0.4210284
-0.2641689
0.6448076
0.9845508
0.1526868
0.7898349
-0.4828251
0.8336012
0.04723661
-0.2299546
0.8508295
0.4653302
0.2523144
0.2915886
-0.9867932
-0.2348854
0.2159756
-0.04879618
0.08007874
0.8918312
0.6499298
-0.1983708
0.7466325
-0.09154737
0.4717983
-0.05706436
-0.5290127
-0.6928987
-0.002716503
-0.142895
-0.1976694
0.3751571
0.9813629
-0.7758471
0.7442018
-0.8135113
-0.5960417
0.8407573
0.05224065
0.6786069
-0.8327036
-0.1108338
0.6336568
0.5285753
-0.4755199
-0.2110025
0.1303661
0.5106803
0.2918355
-0.5722514
0.6898234
-0.1516429
-0.5423252
-0.6355764
-0.5061356
-0.9541287
-0.2455318
0.4206547
-0.759651
-0.03380183
0.3858765
-0.3235824
-0.2186394
0.3686298
-0.397251
-0.03833674
0.8316734
0.7237391
-0.2328914
0.2242092
0.6347485
0.7052953
0.6593683
-0.3476698
-0.7979922
-0.1984273
-0.6560456
0.3822089
-0.5854117
0.425927
-0.8115326
0.05033262
-0.9332477
-0.9689147
0.4712285
-0.874087
-0.4062035
-0.3872669
0.6214039
-0.2174615
-0.6451847
-0.3197808
0.07364875
0.8280314
-0.9561417
-0.537999
0.2297979
-0.01867338
0.3265675
0.7229074
-0.5549569
0.7481573
47
