-0.05042741
0.6293343
-0.5581066
-0.4566104
-0.3802884
-0.2437357
0.7461151
0.822687
-0.8758485
0.4290876
0.01843598
0.05313743
0.9894578
0.4418599
0.6752753
0.8614783
0.1125755
0.892078
-0.2427715
-0.3072218
-0.174352
0.5342076
0.9539818
-0.887678
0.3468138
0.790161
0.7605609
-0.837496
0.8100439
0.8243779
-0.8791877
-0.06908974
-0.6924129
0.4512087
-0.1030304
0.9452491
0.4249539
-0.4020745
0.5344455
-0.4143646
0.7357545
0.2932705
0.06835172
0.1717468
0.4636703
-0.3565982
0.5539587
-0.3061733
-0.3336188
0.2950481
-0.5151291
0.7270127
0.4035752
-0.7938697
-0.05794996
-0.9813377
0.3217472
-0.009315291
0.64642
-0.3255375
0.3313105
0.1481895
-0.7117584
0.5385161
0.693333
0.7251655
0.9847857
-0.182289
0.9781896
0.03187354
-0.6924804
-0.5812511
0.2256969
0.4621804
-0.7920927
0.09863532
-0.8693676
0.7478514
0.1702719
0.3281515
-0.5315862
-0.2301239
-0.483916
0.1355814
-0.5069326
-0.02737725
-0.3573313
-0.230929
0.7578757
0.1718042
0.9604633
-0.3927571
-0.380264
-0.4974281
-0.7218842
0.3170057
-0.9324264
0.6061713
-0.03616051
-0.634965
-0.4872306
0.8061073
0.5235547
0.3382297
-0.1733657
0.7149947
0.2109287
-0.7320063
0.7130629
0.9694273
0.3759936
-0.4473238
0.2328091
-0.5253842
-0.2860008
-0.2759325
-0.4715464
0.7856696
0.2604003
-0.6236727
0.6575919
-0.6213856
0.8538715
0.6131546
-0.4808959
-0.4985877
-0.1048059
0.8874672
-0.3644539
-0.5070873
0.8877066
0.8626387
-0.9652114
0.2008446
0.9521579
0.9157376
0.5370671
-0.9585317
-0.5784177
0.7689999
15
