0.3079822
-0.9211263
0.7764833
-0.192361
-0.02412676
-0.1448261
-0.8291321
-0.1548545
0.454629
0.5682299
-0.8859412
-0.0904449
-0.9415284
0.5217241
-0.5279465
0.9284351
0.6485436
-0.9309187
-0.2699506
-0.1813823
-0.9337909
0.6919473
-0.327834
-0.9130032
0.2683741
-0.7791108
-0.2664487
0.7431613
-0.5619162
0.1426057
-0.8918274
-0.09957501
0.3100041
-0.8345623
0.6864679
-0.4948832
-0.03317329
-0.148364
0.7089619
-0.721184
0.5021867
0.7259849
0.8176082
0.02791028
-0.8654498
0.1593726
-0.2291865
0.8005336
0.7231026
0.5392277
0.9882365
0.8399955
0.4459082
-0.7373292
-0.8381437
-0.5924428
-0.2311304
0.6110457
0.1211711
-0.5292436
0.8883472
0.3192319
0.1361836
0.1758129
-0.9339569
-0.6119261
0.09194688
0.03056137
0.387174
0.3126809
0.1576216
0.84801
-0.6540213
0.1908217
-0.1696188
-0.7737864
-0.7539609
-0.5905048
0.9251405
-0.139183
0.4520195
0.1225057
-0.3780098
0.9673274
0.2542585
-0.2110593
0.7642414
-0.8658088
-0.9006054
0.298394
0.41317
0.9362653
0.4644621
-0.6037189
0.1211944
0.6541767
0.3800062
-0.3732135
-0.8024709
0.9083365
-0.0866665
-0.6386817
0.875393
-0.1377144
-0.9127918
-0.1342691
0.2180053
0.4785808
0.008412268
0.3729156
-0.3566842
-0.3653215
0.5116511
0.8227771
0.05758646
0.9520819
0.8547698
-0.2600975
-0.9453815
-0.5881336
0.008067716
-0.5348396
-0.1669677
0.4788374
-0.6006526
-0.2036967
0.972617
0.4836931
0.1036135
0.9646503
0.008208396
-0.2325417
0.401083
-0.447775
-0.7824988
-0.1826589
0.6108546
-0.2007868
-0.09025911
0.3021767
195
