0.09609201
0.8659086
-0.7607188
-0.3605092
-0.2183952
-0.5734106
-0.1068049
-0.6320486
0.4520748
-0.8582649
0.7992508
0.4578105
-0.3886171
-0.2943427
0.6027688
-0.04667085
0.3247714
-0.859252
0.7318653
-0.1496533
-0.6028283
0.04420117
-0.2208338
0.8865913
-0.3907967
0.7934597
-0.586951
0.562517
-0.9800321
0.917365
-0.5109862
-0.9533631
0.9738522
-0.9532677
0.2510818
-0.3910582
0.4197025
-0.2344288
-0.4768559
0.6404674
0.2879618
0.4806559
0.0506732
0.5044686
-0.7169524
-0.9705524
0.04886524
-0.8427329
0.8527977
0.4363382
-0.4317224
0.7640504
0.7029395
-0.4723219
0.2591434
0.04945515
0.8920564
-0.8074511
0.388409
-0.827337
0.006886997
-0.8723761
0.8448073
0.8116074
-0.1462266
-0.6814051
-0.5928627
0.1069143
-0.5773902
0.5733213
0.9044639
0.1675043
-0.7120498
-0.7044729
-0.7179309
-0.3668788
0.3412617
-0.748512
-0.3725522
0.5597481
0.9014033
-0.7794998
-0.8258919
0.8473049
-0.08952203
-0.6386101
-0.7981704
-0.8377553
0.1929589
-0.06751313
-0.7981954
-0.6872119
-0.6570386
-0.05017713
0.7360035
-0.8795425
0.1927056
-0.2448539
0.2223994
0.6499263
-0.3118141
-0.2026228
0.5298193
-0.7069504
0.5349349
-0.6522226
0.5899423
0.8556346
0.6172002
-0.1022465
-0.1523744
0.7298117
-0.0004100534
-0.5440779
0.9708584
-0.3059012
0.7846625
-0.1050156
-0.924396
-0.2666841
0.1258893
0.6519912
0.8845149
-0.2273165
-0.1148647
0.1070867
0.637685
0.9949006
-0.2394078
0.9342917
0.04317889
0.4856271
-0.3657121
0.7296943
-0.2878774
-0.8284084
0.2209102
0.718186
0.8764465
-0.7836209
47
