0.1663579
0.8024044
0.3913074
0.1625544
0.4413071
0.8944889
0.8992462
0.6867513
-0.8142906
-0.7386158
-0.3320828
0.3824459
0.6298145
-0.3624767
0.683182
-0.05477899
0.000192245
0.4567348
0.700702
0.479474
0.4545545
0.6414467
-0.4899854
-0.529878
0.5661289
-0.6495742
-0.2854385
0.1767139
-0.003837325
-0.8670552
0.4461606
0.2425309
0.2800688
0.2309305
0.7308295
0.4579533
0.2091596
-0.6732905
-0.6061367
-0.9626198
-0.8660164
-0.8879964
0.7505244
-0.740302
-0.8166692
-0.301291
-0.7980953
0.679084
-0.7439948
-0.2547478
-0.3791519
0.4789817
0.4902291
0.5640864
0.1223956
0.9238269
-0.4776643
-0.8396231
0.4317248
0.9833537
-0.3146707
0.5725366
0.292888
-0.8516707
-0.8725994
-0.4440864
0.6319215
0.3701165
-0.5458076
-0.01552696
-0.2566837
0.3211083
0.2007297
-0.04455024
-0.1413741
0.9755728
-0.8487824
-0.05407188
0.3477265
0.642302
0.8280901
-0.4458154
0.7449891
0.01280892
0.4476155
0.8736239
0.9496429
0.1317395
0.1035299
0.1749159
0.8260319
0.839043
0.8725171
0.4093902
0.2940639
-0.1871246
-0.08872606
-0.2049253
0.4010721
-0.792242
-0.4525087
0.2559766
-0.6686425
-0.3862968
-0.08283788
-0.9333365
0.7339926
-0.5225798
-0.8835291
0.2487716
0.974184
0.3905962
0.05684695
-0.7431911
-0.8426781
-0.1537137
0.7000196
0.8834978
-0.1457346
0.3145252
0.6446396
-0.1631532
0.9690444
-0.7535656
-0.5630183
0.4873397
-0.01024931
-0.4129736
-0.9617124
-0.2080376
-0.7584198
0.6737975
-0.1705428
-0.9010451
0.668118
-0.5625061
0.4973377
0.4881802
-0.144513
-0.3986708
195
