-0.07037833
0.6921313
-0.1656938
0.5043498
-0.09141999
-0.5892852
-0.9129526
-0.5302056
-0.1489603
-0.9630898
-0.7393726
-0.6115945
-0.7224749
-0.3107912
-0.197767
0.2724375
0.611037
-0.3070677
-0.5556553
0.9072005
-0.5137115
-0.8390005
0.3006491
0.1965602
-0.7708042
0.6794254
-0.1812188
0.4239456
-0.0365997
0.1615835
0.9401858
0.06680789
-0.8150601
-0.3692479
-0.4633398
0.1286384
0.949346
-0.894364
0.7014341
-0.8136306
0.09351111
-0.004943392
-0.2840173
-0.7287905
0.2278256
-0.08042647
0.9385165
0.3096842
-0.497913
0.9245176
-0.7188855
0.5309483
-0.8651425
0.7827667
-0.7084073
0.8628138
0.5071914
-0.796446
-0.03231045
0.7799416
-0.5386312
0.9814113
-0.2316397
-0.3353298
-0.05660091
0.2655708
0.6724228
-0.9936845
0.4613832
0.8826594
0.333921
-0.6986471
-0.8091547
-0.480173
0.626086
-0.04465976
-0.9738579
0.5178824
-0.09503243
-0.6336179
-0.827766
-0.3847729
-0.5437439
0.1834587
-0.2997853
0.9587744
-0.7015523
0.5202696
0.6873531
0.2710895
0.4562156
0.9430305
-0.3557472
0.8187747
-0.1475516
-0.2078418
-0.1957887
-0.8038443
-0.3548764
-0.7275146
-0.1065686
-0.5793659
-0.5952834
-0.8642951
0.7522836
0.6658874
0.07469219
-0.04860119
0.08255205
-0.6671818
0.5643662
0.9869218
-0.483799
0.6966001
-0.6762739
-0.4816616
0.3371585
-0.05041443
0.8122218
-0.8487592
-0.5386405
0.4762671
0.361192
0.1888978
-0.01077198
-0.0867131
0.8966362
-0.9448596
-0.2324566
0.9601986
0.880648
0.07474328
-0.5646697
-0.4278507
-0.1979841
-0.8146878
-0.9009739
-0.240344
-0.1402674
-0.8181237
195
