-0.06582908
0.02433892
-0.9204274
0.6875281
-0.7096737
-0.05199042
0.103233
0.9856247
0.9969337
-0.6751089
0.6815597
0.8963131
0.523173
-0.7671213
-0.09987187
-0.8541248
-0.03976468
0.3231681
-0.3552156
0.2698671
0.2548763
-0.5812079
-0.4311601
0.7062356
-0.5612553
0.6189768
-0.4448942
0.824123
0.5324507
-0.8904231
-0.1511512
0.8691452
-0.2570312
0.7297274
-0.2696933
0.1117546
-0.05801263
-0.3998464
-0.4212907
-0.7465279
0.836068
-0.3505511
-0.1610913
0.8337465
-0.290226
-0.4105837
-0.8013816
0.6948474
-0.8865197
-0.4014757
-0.7377647
0.7867316
0.2667624
-0.199836
-0.5466721
0.06502578
-0.7186299
-0.6501548
-0.04277857
0.1785717
-0.9939778
-0.4969205
0.4069153
0.7434615
-0.5111769
0.03211086
0.05740442
0.6894265
0.5231047
-0.6892882
0.9472569
0.2653879
0.2096878
-0.9537399
0.007631798
0.4681447
0.1520297
0.7686759
0.2529077
0.3737189
0.3376067
-0.7947394
-0.1330985
-0.646121
-0.8964453
-0.6542307
-0.5377702
-0.0004927083
0.2409043
0.6981958
-0.9456498
0.2525609
0.07704887
-0.7320025
-0.6937847
-0.4293199
0.4397611
-0.2073514
-0.1738853
0.2416294
0.4373866
-0.5700576
-0.5580603
-0.2602386
0.2609176
-0.9430254
-0.08016993
-0.08711665
-0.3033907
-0.8924415
-0.397204
0.2818628
0.1089408
0.2590256
0.1242215
-0.2465387
0.4260306
0.1389179
0.4372462
0.918143
0.5923498
-0.7352442
-0.1366882
-0.7185247
-0.1266748
0.5173144
-0.1765518
-0.5300736
-0.2146575
-0.0493428
-0.4516854
-0.7608536
0.07206656
0.1453491
-0.2290771
-0.9442561
0.09631983
0.6078759
0.2296576
0.3500933
195
