-0.4232726
0.3068452
-0.9133592
-0.5403569
0.8065976
-0.4501866
-0.5717267
0.5702779
-0.9353124
-0.3710832
-0.5172275
0.197805
0.9945539
0.2881077
-0.3932526
0.2025589
-0.8369106
0.800125
0.5809271
0.3633433
0.1268672
0.8717563
0.9791881
0.400821
-0.6789739
0.5407804
0.6431709
-0.4600531
-0.3506755
0.421045
-0.7341744
-0.7856153
-0.1697031
0.4466872
-0.7494566
0.9280843
0.6574373
-0.4035929
-0.8340639
0.6825765
-0.05600268
0.83756
-0.5860265
0.397249
-0.1925756
0.1714226
0.5064389
0.2334668
0.4086681
0.1713421
-0.4715793
-0.3190367
0.06886148
-0.5445985
0.9505535
-0.6376573
-0.5234517
-0.3600464
-0.7909003
0.8785133
-0.107624
0.8318661
0.4043418
-0.6178889
0.6849195
-0.3547875
-0.2161685
-0.4026951
-0.5193167
0.4353248
0.69612
-0.07037745
-0.6085432
-0.590415
-0.1650775
-0.554096
-0.1971052
0.5237867
0.4502675
0.9586835
0.06423219
0.003217287
-0.6691528
-0.2291888
-0.471331
-0.5660406
-0.1899571
-0.5518142
0.7617677
0.6053308
0.1442527
0.06013246
-0.8842762
-0.2693888
0.9864565
-0.9856252
0.4461031
-0.9956114
-0.4376736
-0.6384795
-0.6314723
0.9826522
0.7831994
0.4499846
-0.8928901
0.5252035
-0.6498839
-0.7019497
0.9267325
0.5165941
0.5522997
-0.9716375
-0.1218141
-0.3962311
-0.2657395
0.8322436
0.7161422
-0.3262695
-0.6043454
0.6705447
0.1991094
-0.220557
-0.9650216
-0.8808372
0.06679714
0.7134677
0.1464232
-0.05852778
-0.697525
0.3097191
-0.9042122
-0.4951554
0.5970542
0.9336733
-0.5936162
0.03586974
-0.8749686
0.7270783
-0.9634493
-0.3035746
15
