-0.5617028
-0.8406769
0.4980454
0.6150907
-0.7168818
0.3226755
0.5846438
0.8396479
-0.9416874
-0.1535697
-0.6550578
0.7488416
-0.1139471
-0.397
0.9563528
-0.698119
-0.1426442
-0.4172066
0.2279658
0.04515431
-0.5483392
-0.4343735
-0.3448829
0.7574914
-0.2526246
0.6410237
0.1992044
-0.3139532
0.4997826
0.483
0.6115702
0.2650055
-0.2883413
-0.9079434
-0.8149905
0.3081552
0.2921886
0.8341814
0.5572206
0.7081807
-0.5918287
-0.9638409
-0.2630685
0.9884211
-0.8146731
-0.2194944
0.09548379
0.6621647
-0.1927529
0.073649
-0.6173586
-0.8130038
0.4212024
-0.2921784
-0.3509729
0.1732916
0.4476644
0.4059888
0.4300812
-0.02503693
-0.9695131
0.7504624
-0.7175727
-0.6498681
-0.5617411
-0.6912169
0.01191007
-0.1023682
-0.5823269
0.1758472
0.2063972
0.1951911
0.7755463
-0.8456832
-0.3374871
-0.7353354
0.1444241
0.9472954
0.1084643
0.5740838
-0.8066406
0.7932155
0.2559656
-0.4751805
0.4525131
0.8611079
-0.01742177
-0.6384732
0.6537976
0.8762265
-0.7037549
-0.6054433
0.4165084
-0.6186265
-0.4982165
0.2129802
-0.7393872
-0.4173853
0.3259082
0.9206623
0.6360815
0.1481883
-0.4462996
0.2331633
-0.1197103
-0.4105741
-0.06896941
-0.1036171
0.2553085
-0.2120808
-0.8092867
0.08613759
0.7521912
0.5538547
-0.321282
0.6359302
-0.6660461
0.9010538
0.8483484
0.2252788
-0.9518297
-0.5707046
0.5717237
-0.5029892
0.5397657
-0.9417912
-0.3585093
-0.457617
0.2740272
-0.926913
0.333634
-0.7519588
-0.3080131
-0.679455
0.3833704
0.1072218
-0.9589757
0.7021109
0.8461015
0.8165828
195
