-0.3783841
0.3488621
0.7080478
0.5361122
-0.19027
0.9799485
-0.4181615
0.455355
-0.1704533
0.9391615
-0.104478
-0.2509291
0.4286123
-0.3150751
-0.6081627
0.8186882
0.9853038
0.8325672
0.333689
0.5669715
0.5668612
-0.6849638
-0.9083338
-0.09932423
0.7112023
-0.7844959
-0.721126
-0.01991125
-0.11313
-0.6562224
0.9364999
0.8818035
-0.8799611
0.8730603
0.2557189
0.7122886
-0.9523452
-0.323733
-0.2029395
0.1705399
-0.07201686
-0.935931
-0.2785486
0.2005719
-0.6066625
0.5656118
-0.01692291
0.5346546
-0.139053
-0.4134881
0.9064382
0.1189374
0.872786
-0.484045
-0.7546236
-0.2601876
0.2288232
0.8349875
-0.7196066
0.09744141
0.9322936
0.9055715
-0.3417054
0.6590068
0.0111784
-0.1685471
-0.9723806
-0.7719596
-0.7084125
-0.1737746
-0.1643889
-0.5493508
-0.02837977
-0.2528229
0.6605333
-0.5520762
-0.5577498
0.5757111
-0.3447006
-0.02861007
-0.0133191
-0.5561135
-0.3003046
0.7894287
-0.588516
-0.9690716
0.2235089
-0.5389679
-0.1381181
-0.5757341
0.6846692
0.8196144
-0.6153204
0.970835
-0.6650712
-0.522666
0.0924488
0.9742743
0.5400386
0.9454137
0.1233616
0.4073659
-0.1206448
0.8895571
0.599831
0.4625517
-0.580758
-0.9166427
-0.895529
-0.785552
0.5163035
-0.2322089
-0.02689433
0.8561274
0.4127722
-0.8873208
0.5208919
-0.3125405
0.3240781
-0.4661556
0.7390041
-0.9466549
-0.3119982
-0.6538262
0.7028638
0.4282452
0.571294
0.08206315
0.1473462
-0.8020184
-0.9713182
-0.6411071
0.4712401
-0.5591486
0.4550864
-0.7811102
0.4707808
-0.156432
-0.6233436
-0.7011952
195
