-0.4899634
-0.4639506
0.1369541
-0.6719626
-0.3147382
0.6313241
0.1316127
-0.9614942
-0.7320288
-0.09331638
-0.09396004
-0.9896144
-0.1730719
0.342057
0.916732
-0.2355313
0.9361258
-0.5614963
-0.5655293
0.3809411
0.9917709
0.5756741
0.7067009
0.8056663
0.7044114
-0.0197459
0.630837
-0.3549317
0.1708656
0.7814481
-0.01893347
0.4823861
-0.5805117
-0.5826056
0.6278045
0.7286185
0.226417
0.3459448
-0.5705582
-0.06160494
0.4921193
0.1327902
-0.3524075
0.766405
-0.7937893
-0.5469923
-0.347808
0.6655738
-0.26356
-0.5251676
-0.4119472
-0.1742874
0.6727023
-0.4047917
0.3177383
0.02765048
-0.8834389
-0.2804404
-0.299767
-0.04335669
-0.5950929
0.7856678
0.609064
0.3295762
0.4145643
0.7732497
0.3627931
0.0605231
0.1358463
0.4637243
-0.8877233
-0.729448
0.7020637
0.9596383
-0.2071117
0.1660583
0.9029717
0.1114926
-0.512072
-0.3232391
-0.136307
-0.08872262
0.9448353
-0.7857777
0.376541
0.1953987
0.8733221
0.08991212
0.00283012
0.8545548
-0.6341746
-0.8341061
-0.7899015
-0.03428251
-0.1738816
0.2215673
0.4307265
-0.3120458
-0.02648325
0.0401524
-0.4499641
0.5406994
0.1776458
-0.9403208
0.6111394
0.6767755
-0.1191228
0.45848
0.2186673
-0.8776604
0.1543284
0.02664896
0.7167295
-0.1543218
-0.409182
-0.7609867
0.5755693
-0.3566535
-0.4965422
-0.8070031
-0.6574768
-0.3251611
-0.9129937
-0.9043061
-0.08631164
-0.4284227
0.09290612
0.6423846
-0.6515011
0.1161129
-0.7148189
-0.5555083
0.8928254
-0.6344116
0.5224325
0.8370441
0.1945479
0.09915712
0.6234043
0.1375278
195
