-0.08026131
0.3233119
0.562261
0.3227614
-0.894154
0.7895944
-0.610751
-0.2044264
0.3946723
-0.2110991
0.7472318
-0.03016529
-0.9926939
0.8754575
-0.3066852
0.1982403
0.3578759
0.2965906
0.9688386
0.2051737
-0.03934523
0.3119541
0.6832258
0.346516
0.1878199
0.2794841
0.7196018
0.7861795
0.1531796
0.3346271
-0.6357877
-0.369543
0.7442456
-0.3516546
-0.8290889
-0.3774849
-0.7425503
-0.01214567
0.5881605
0.6750849
-0.8405614
0.5268577
-0.4989122
0.5801688
0.9900024
0.2363605
-0.4440794
0.7255505
0.9575292
0.4914388
-0.6638578
0.3101403
-0.5453036
0.8950304
-0.014119
-0.7107183
0.5790663
-0.08608433
0.1518502
0.483331
0.5321446
0.4013947
0.2074131
0.7195873
-0.3705377
-0.7796258
-0.5312531
-0.5728627
0.8854551
0.4569544
-0.3576803
0.6323254
0.3390613
-0.5226002
-0.1309685
0.6505144
-0.1427423
0.7881953
-0.639365
-0.1014618
0.7004178
-0.1943139
-0.3656707
0.6698486
0.8024825
-0.03718241
0.4230439
-0.9753417
-0.9811169
0.950537
-0.8462318
0.8303124
0.1023993
-0.8687939
0.03276521
-0.4728868
-0.8122036
-0.976312
-0.2888627
-0.660512
-0.6208972
-0.2322747
0.3649155
0.05899103
0.791021
0.5304561
-0.3241889
-0.2151522
-0.907452
-0.9769366
-0.1337623
0.5544081
-0.1049674
0.2013132
0.3295628
0.7018322
-0.7010046
0.076207
-0.3131779
-0.8976509
-0.9674222
-0.5549411
0.716
0.5459671
0.07785162
0.8745944
-0.7325901
-0.7199298
-0.3136212
0.3385754
-0.02529662
-0.9275901
0.6956473
-0.6624284
-0.9676995
-0.8539903
0.9106535
0.4330161
-0.6597142
-0.8993497
195
