0.9462097
-0.02365576
0.06325525
-0.2031571
0.9595055
-0.124067
-0.9366816
-0.1253136
-0.5521134
-0.2000216
0.2985076
0.6146297
0.3017338
0.3188826
0.7787974
-0.4193225
-0.8806276
0.2761638
-0.604368
-0.7901936
-0.4467528
-0.985937
-0.02134627
-0.6082305
0.9994175
0.8104768
-0.9869044
-0.3816045
0.5453923
-0.9539244
0.9113797
0.2824954
0.7393151
-0.6331265
0.6894141
-0.1059854
0.6887819
0.1514608
-0.721172
-0.5571728
0.8952025
0.1636647
0.9937962
0.4299098
-0.3755981
0.4137385
-0.8486719
0.2099042
-0.1168407
0.9591802
-0.284219
0.5571469
0.2538001
-0.3432068
0.5294388
-0.3362856
0.2370292
-0.3036183
0.1074288
0.06549089
0.1871512
-0.08814236
-0.4041416
-0.9949406
-0.09522405
-0.8651572
0.6208335
0.871824
-0.3055193
-0.6349411
-0.5706506
-0.09053177
-0.6069955
-0.5635481
0.4940253
-0.003899739
-0.2397371
-0.6781394
-0.1376693
0.3357031
-0.4265523
0.3167139
0.5109667
-0.5200986
-0.1410755
-0.0004779627
-0.3133631
0.7342557
0.4620976
0.5545713
0.2731812
0.8169579
-0.5430199
0.9137691
-0.9865221
-0.01426575
-0.2293397
0.5573444
0.9358844
0.6283017
-0.3465244
0.8294676
-0.6524265
0.5474563
0.3857324
0.3990672
-0.9538199
-0.2261013
0.7978687
-0.4700832
0.9770774
0.5027734
0.2342842
0.5528575
0.7923097
0.3701933
-0.5451224
-0.3179106
0.9915815
0.9190417
0.3641826
-0.9365109
0.9359396
0.066179
0.7115833
-0.4001182
-0.4381052
-0.1544518
0.05071943
-0.9050418
-0.05007989
0.9863642
-0.4760082
-0.667586
0.3586257
0.07067429
-0.9175703
0.9581093
-0.3124083
0.4887312
15
