0.3712805
0.0626241
-0.4805284
-0.09135531
-0.818957
-0.07646079
-0.433989
0.4747412
0.04372303
0.5787104
-0.7542042
-0.1149195
-0.8066422
-0.2194737
-0.480103
-0.4164086
0.9463408
-0.8045183
-0.4964392
0.8296928
0.5149273
-0.6007157
0.04155003
0.6740911
0.2639973
-0.3452868
-0.997307
0.3717462
0.5296144
0.08909287
0.3599638
0.2379825
0.8720329
-0.2745065
-0.7184257
0.4248707
0.9135038
-0.9165303
0.1004935
-0.6189083
-0.3249053
-0.8822028
-0.5459055
-0.5390772
0.561003
0.05905414
0.140647
0.9624527
0.3830607
-0.2203118
0.8210301
-0.07064352
-0.2630353
0.7783635
-0.446096
-0.866702
0.1905912
0.7939781
-0.3729296
-0.2438277
0.01003536
-0.5174587
-0.6257524
-0.3373686
-0.09638435
-0.8720013
-0.5690141
0.732435
0.2195233
0.4608429
0.4429443
0.9838881
-0.187579
0.7238726
-0.9913373
-0.4144292
0.6623196
0.2631865
0.1201871
0.1306993
0.464122
-0.7912851
-0.2553242
-0.226558
-0.9209425
-0.1225774
-0.1362651
0.2094015
0.8218778
-0.8464243
-0.006115231
-0.8189312
-0.1360536
0.6396506
-0.06185266
-0.3087934
0.3053762
-0.269778
-0.5477399
-0.0245678
0.3967346
0.8774605
-0.1577345
-0.7476386
0.3155662
0.6123152
-0.8153193
0.9635227
0.699306
0.6764814
0.2695631
0.9811897
0.9721002
-0.5265053
0.7622876
-0.1710335
0.6185948
-0.265403
0.724484
-0.7875909
-0.1773775
0.7007639
0.280175
-0.7559089
-0.9358917
0.5654838
0.1416226
-0.4399404
-0.5916936
-0.6036525
-0.5991099
0.6987969
0.5638806
0.4437056
0.8611362
0.4829322
-0.7633853
-0.728819
0.01115446
0.250091
15
