-0.502719
-0.3792413
-0.9149314
0.2338664
0.9053792
-0.08296662
-0.3728457
-0.0307369
-0.2950592
0.2141094
-0.6079895
0.6780735
-0.121152
-0.04871306
-0.2884352
0.257296
0.6340795
-0.634806
-0.433329
-0.5394243
0.02324098
-0.5610245
-0.08735498
0.4689182
0.2446606
0.4128776
0.6203604
0.8269016
0.3030897
-0.3251494
-0.9991747
0.7676399
0.4869766
0.6388887
-0.8891494
0.5987867
0.6989942
-0.8307204
-0.8690824
0.6544966
0.7202631
0.6212748
0.5802037
0.201679
-0.8647714
-0.3509786
0.7147568
-0.122289
-0.5423419
-0.09390444
-0.5011157
-0.8095027
0.842436
0.4749001
-0.2713768
-0.2703589
0.1337821
-0.5538201
0.1230158
-0.6934075
0.2180392
-0.5421253
-0.1616545
0.05044428
0.4938463
-0.2292643
-0.9021302
0.677169
-0.1839417
-0.9374566
0.5425391
-0.2436316
0.9075359
0.6605754
0.9616914
-0.1672563
-0.4034604
0.4377449
-0.2597049
-0.4849805
-0.7209045
0.1741805
-0.2961142
-0.003502802
0.4568114
0.5429506
-0.07070563
-0.5634677
-0.8549576
0.340115
0.500917
-0.9781748
0.3532213
-0.9316258
-0.8880426
-0.03610536
0.7137389
0.9196283
0.2399876
0.3024849
-0.9475182
-0.722988
-0.8625841
0.9426386
-0.373
0.3247038
0.4866115
-0.1540613
-0.9819112
0.1856726
0.8003468
-0.3027502
-0.6988625
0.7829008
-0.1943245
0.196214
0.1046534
-0.2300287
-0.06151314
-0.4700483
0.05699674
-0.8217586
-0.5628186
0.5135733
-0.9899384
0.2655272
-0.3810475
0.9648973
0.03357537
-0.3630123
0.3461322
0.7506009
0.4196561
0.5546225
-0.2853273
0.5818457
-0.126957
-0.07901502
-0.8091784
-0.7394027
195
