-0.2511655
-0.2171851
-0.06623708
0.2263344
-0.9200931
0.1519637
-0.8045639
-0.2256106
0.3204243
0.4102937
0.4261414
-0.3443229
0.9954531
-0.6943478
0.0945903
-0.4507841
0.9514957
0.6966968
0.2399003
0.8945262
-0.7780747
0.3374419
-0.6433728
-0.007571686
0.3329231
0.3316151
0.2504836
0.1913409
0.1539277
-0.7054787
-0.2811978
0.4725356
-0.3166131
0.529488
0.3345998
-0.7481295
0.8620569
0.6404745
-0.7874401
-0.8002993
-0.7391401
0.395886
0.5295773
0.02983019
0.6545579
0.2070191
-0.8535592
0.3053481
0.6909906
0.2170934
0.4354981
-0.1078793
-0.3981789
0.6173741
0.6095559
0.2762989
-0.900572
0.4042749
0.8917345
0.8280364
0.2899068
-0.4450384
-0.4381705
0.1207236
0.1494338
-0.9697446
0.1260998
-0.03437711
-0.3489057
0.8875712
-0.5972249
-0.3538524
-0.9942937
-0.9771931
-0.5409718
0.3298045
-0.2643791
-0.2607468
0.3828724
-0.9433758
0.2321871
0.8462086
0.2996063
0.3258913
0.004614453
-0.8361594
-0.08929394
0.5626634
-0.6199458
0.3043444
0.1257708
-0.103566
-0.01061974
-0.6750113
0.7969256
0.6147123
0.3901797
0.5067704
-0.429198
-0.6752466
-0.5286018
0.4071877
0.9224756
0.6343664
0.9849063
0.5892894
0.5925144
0.2759297
-0.3872404
0.4457153
-0.6344071
-0.4632354
0.02422076
-0.4126099
-0.2977343
-0.6065273
0.5655814
-0.7631592
0.3237979
0.5347215
-0.3599243
0.6193294
-0.6051791
-0.6736592
0.416173
-0.004412554
-0.276328
-0.6286601
-0.9620993
-0.1302612
0.7372901
0.4596911
-0.8735065
0.9371571
0.6910313
-0.3045775
-0.1780121
-0.2877838
-0.3763743
-0.3888583
15
