-0.3361779
-0.6531631
0.3378361
0.916534
0.9179592
0.7087093
-0.8856875
0.5564322
0.05335451
0.1581707
-0.7402967
0.9077261
0.3373092
0.3725619
0.3647846
-0.6933072
0.07207793
0.02734382
0.0266905
0.6450113
0.6198026
0.2427949
-0.555438
0.9918977
0.3592413
-0.4805992
-0.7834281
-0.02150145
0.283354
0.6208535
0.5875198
-0.2574367
-0.9771475
0.5286514
0.8426458
-0.8751483
0.1077497
-0.6565619
-0.8188176
-0.2288412
-0.1974835
0.2400661
0.2533798
0.04136747
0.7187728
0.7319084
0.627848
0.7037497
-0.02166962
0.5128998
0.9294378
-0.06784504
-0.8503379
-0.2805677
-0.4868695
0.9212589
-0.6760156
0.8091847
-0.9261118
0.7931075
-0.3990404
0.7708743
0.3752497
-0.7178043
-0.6443458
0.01963723
-0.3456537
-0.7040582
0.653789
0.6328762
-0.3211552
0.3683283
-0.9509866
0.5137907
0.7155735
-0.3123524
0.09313288
0.7251297
0.4787671
0.4379824
-0.8045837
-0.5926128
-0.09538971
0.4902465
0.0198939
0.8166454
0.3673136
0.7406568
0.1729972
-0.1769915
0.4705054
-0.1881921
-0.3103509
-0.4516937
-0.907686
0.4341882
0.1910526
0.739589
0.325794
0.03112524
-0.3612244
0.9027183
-0.7750175
0.540348
0.3174834
0.5220506
-0.9724553
-0.3405845
0.6995384
-0.3035149
-0.4460547
-0.4166724
-0.3638124
0.2508797
-0.6773978
0.7891517
0.08122524
-0.1730566
-0.8101183
-0.07853403
0.8285846
-0.08524267
-0.02985218
-0.3773362
-0.005899361
-0.2238735
0.1433458
-0.4913346
-0.8036926
-0.8064771
-0.3398971
-0.5662827
-0.9744087
-0.217718
-0.1159629
0.6120887
0.7711996
0.6537306
0.1676444
0.2307422
195
