0.4676394
0.003012602
0.4155634
-0.3252441
0.7005801
0.3537444
0.002438235
-0.7781256
0.3249532
0.3138011
0.9592753
0.9021226
0.539189
0.1141041
-0.6290143
0.8607559
0.5657543
-0.7292274
-0.353431
-0.682084
-0.3890062
-0.506172
-0.8992092
-0.579614
0.1989221
-0.5318305
0.8756623
-0.2552972
-0.1716058
0.7331285
0.7828324
-0.3786731
-0.6404832
-0.3819321
-0.7159523
-0.3861795
-0.02195609
-0.5462103
-0.5867763
0.9035031
-0.5675393
-0.142533
-0.2168223
-0.691134
-0.5279401
0.5744954
-0.4742953
0.5117729
0.2382538
-0.595506
-0.8811934
0.9384957
-0.1959696
0.5557948
-0.02387439
-0.1536875
-0.3565042
-0.2025045
-0.6092917
0.08675954
-0.6242995
-0.4513515
0.8086507
0.42145
-0.1186596
0.1018083
0.1189449
0.2303231
-0.3579558
-0.2035097
0.3350512
-0.9460186
0.03251887
-0.757925
-0.8008906
-0.3275019
0.6897976
-0.455004
0.4442603
-0.6473904
0.8246737
0.07816681
-0.6460055
0.7416347
0.3574281
0.234184
-0.1873239
-0.06193323
0.7367275
0.1822394
0.4948756
0.7477208
0.8117455
0.6167333
-0.4315481
-0.6215208
0.8249481
-0.4588973
-0.8902435
0.7995618
0.8846979
0.9807087
-0.9324874
-0.1143558
-0.4201797
0.04063982
0.5845011
0.06239573
-0.8016333
0.7419416
-0.9663636
0.705429
0.06076796
0.2084689
0.591884
-0.3720204
-0.263097
-0.8080826
-0.1470019
-0.4971389
0.2768601
-0.4221578
0.1205665
-0.1575176
-0.0882075
0.3543425
0.9864688
-0.8531253
0.6622547
0.1584696
0.08799694
-0.3725981
-0.6533707
0.7023187
-0.6810268
-0.8807554
-0.9826012
0.1455256
-0.8502493
-0.2705515
195
