-0.6039966
-0.1769058
0.6411266
-0.8792936
0.5624408
0.3956399
0.7676055
-0.4437331
0.7974614
-0.04702358
-0.9858521
0.9732962
-0.2715621
-0.9069437
0.03099482
0.3481292
-0.8653297
0.07709949
-0.5285988
0.7524743
-0.849649
-0.09643974
0.7147614
-0.6635578
-0.7016848
-0.1153376
-0.9886121
-0.5755084
0.7216536
-0.2018251
0.6655566
0.3568965
0.7843854
0.7754608
-0.5716478
-0.04510175
0.1802231
0.4524179
0.003505199
-0.7179221
-0.1262017
0.3078197
-0.2097377
-0.3639335
-0.9812534
0.7590806
0.7892165
-0.2893008
0.4426063
-0.4443513
0.4232084
-0.5051348
-0.4568049
0.2356932
-0.03319203
0.03910691
0.03870884
0.8656657
0.6923543
-0.3924575
-0.7845832
-0.6848124
0.5527617
0.5153835
-0.9208219
-0.2936718
0.1830339
-0.9076287
-0.9256903
0.2719142
0.5589127
0.4239711
0.6344932
0.9157525
-0.6707342
0.6554858
-0.6396348
-0.5209318
0.3696342
0.2592083
0.8459535
-0.8542778
-0.2678627
0.1141111
-0.4172419
0.350369
0.8041348
-0.7309981
0.6962827
0.7220239
0.7718644
0.08785173
0.3781082
0.731591
-0.2768348
0.4498272
0.6733266
-0.1254902
-0.6931993
-0.6367393
0.3987154
0.3101483
0.341065
-0.816602
-0.2903049
0.2774863
0.7627279
0.429084
-0.3470649
0.616439
0.2349721
-0.2302931
-0.830617
0.9703304
-0.1643219
0.1275651
-0.06292068
0.8211707
-0.2077817
-0.3706492
0.03300169
-0.6914759
0.7855707
0.7110489
0.8731988
-0.7512356
-0.9170938
0.4510952
0.2060574
0.05177953
0.8927579
-0.06871888
0.8261331
0.7531952
-0.9757638
0.07624657
0.9763392
-0.2381931
-0.721567
0.455193
195
