-0.5867103
0.982964
0.4767836
0.06693192
-0.3109778
0.4633402
0.302281
0.6670593
0.8583922
-0.5255992
0.3669211
-0.7777686
0.6684524
0.2550211
-0.5294971
-0.5325657
0.4840152
0.5878697
-0.8408382
0.6334485
0.3011472
0.0009209882
0.1506511
0.197742
0.2031493
0.252008
0.2929234
0.1024511
0.2813081
0.3723379
0.8252841
0.27002
0.9627786
-0.6821826
0.2624298
-0.1892297
-0.3599283
-0.4694504
0.2405461
0.4057645
-0.2352508
-0.5049635
0.2919333
0.5726088
0.7506324
-0.1081631
0.7806301
-0.371609
-0.4499541
-0.2277718
0.7833232
-0.1261119
0.4804988
-0.09390496
0.629909
0.1432696
-0.9798145
0.1589661
0.8045021
0.8782519
-0.1767315
-0.2282686
-0.5734867
-0.5473723
0.7096517
-0.1281154
-0.06970196
-0.9041564
0.5043887
0.5786659
-0.3131957
-0.1443758
0.03782379
0.3869337
0.8501254
-0.572741
0.5204222
-0.7554439
0.5678331
-0.9401203
0.2318225
-0.8660428
0.2979489
0.4030562
-0.4509307
0.05355267
-0.1564932
0.5101508
-0.3918342
-0.6094548
0.8804723
-0.455772
0.02616089
0.6618801
-0.2810398
0.909125
0.4572127
0.9049997
0.7224835
0.3233733
0.3714148
0.536074
0.060558
-0.5098338
0.5404056
0.649366
0.5759392
-0.9225574
-0.6429743
-0.4236437
-0.7002372
-0.4899653
-0.4491996
0.413957
0.9977797
-0.7209595
0.7455705
-0.2353669
0.7336676
0.8005267
0.4146719
0.02529836
-0.6266398
-0.8189846
-0.7927488
0.1507303
0.7950662
-0.4523424
0.8465281
-0.7992406
-0.1486801
0.4429796
0.8875304
-0.008523285
0.7601168
-0.2782121
0.5831568
0.8839919
0.4052765
-0.7299711
195
