0.527154
0.08152436
-0.4868217
-0.5714812
0.8280562
0.8669497
-0.177167
-0.08050235
-0.1583923
-0.5564253
-0.4285105
0.7182298
0.3085875
0.2528211
-0.4129717
0.3880402
-0.5437986
-0.7668446
0.8497929
0.7730679
-0.4515984
0.2289197
0.05028138
0.4387257
0.2607653
0.109189
-0.4270407
0.3236724
0.7257985
-0.1882317
-0.1869027
0.4144563
0.05944612
0.4047738
-0.3462107
-0.6700595
0.1207079
-0.6810974
0.9099824
-0.8482745
0.6020074
-0.5916647
-0.3074099
0.5009593
0.5246854
-0.8952857
0.1977599
0.2532612
0.05977977
-0.7258186
-0.4657375
-0.2826481
0.9763123
0.03433324
0.003485547
-0.8873023
-0.9779218
0.1084045
0.7747295
0.4981157
-0.2537582
-0.4960696
0.009515227
-0.3101177
-0.1584327
-0.8368459
0.02563965
0.8076282
0.7281357
-0.517686
-0.8097196
0.2029402
0.1733756
0.5756115
0.2388054
0.8310497
0.2526073
-0.9840519
-0.5647599
0.1480676
0.08711077
0.4645547
0.5489429
-0.7723171
-0.9344735
-0.6908331
-0.5950589
-0.6304362
-0.4367935
-0.5093648
0.3043009
0.3130797
-0.4092331
0.4276684
0.9614451
-0.6009328
0.2349597
0.1169787
-0.7378461
0.6936356
-0.147893
0.1818117
-0.181979
0.9117122
0.1870706
0.06970776
0.1684089
0.7486295
-0.03119328
-0.3056813
0.7077566
0.6525145
-0.454802
0.2840943
-0.8061852
0.433162
0.9131634
0.5818468
-0.2715628
-0.5574999
-0.07180553
0.9086609
0.5454742
-0.9655
0.630207
0.008468652
-0.6150808
0.2616635
-0.6114592
-0.8309024
-0.3373592
0.5039778
0.04714142
0.7409215
0.440311
0.4345963
-0.08064325
-0.7351514
-0.9661319
-0.3676355
195
