0.6198294
0.2299756
-0.4135457
-0.1901668
0.5120316
0.6909864
-0.9211125
-0.8855953
-0.9479709
-0.7454589
-0.8713388
0.7883419
-0.6605448
0.8574039
-0.2450287
-0.8944558
0.6478741
-0.1879426
-0.4627534
0.7740953
-0.5177724
0.7817201
0.8350757
-0.9188606
-0.4974898
0.9243528
-0.5598053
-0.09310365
0.3336466
-0.1001685
-0.8398743
0.4611647
-0.4086826
-0.7510833
-0.9356643
-0.4458187
-0.6646163
-0.7703975
0.3407225
-0.1918558
-0.07629683
-0.7191513
0.105138
-0.4255963
-0.3661147
-0.496539
-0.3905839
0.8116859
0.8630781
0.5980797
0.3968494
-0.7123485
0.7655105
-0.2764272
-0.0225979
-0.8413354
-0.3613418
-0.6624625
-0.2545025
-0.04214972
0.3556028
0.8492851
-0.2263179
0.243885
0.3308379
0.8478125
-0.316796
0.7650516
0.2235186
-0.7484896
0.4961281
0.8361882
-0.05102071
-0.06083304
-0.6227541
-0.8054239
-0.9837904
0.1115029
0.1037373
-0.6561544
0.2856947
-0.8973429
-0.8386011
-0.6242037
0.5442288
-0.6891594
-0.3125174
0.3474324
-0.08192115
-0.7834768
0.8709773
-0.4296679
0.006083818
0.08921217
0.312016
0.08751496
0.3318694
-0.834029
-0.8028423
-0.5606908
-0.5127487
0.4979132
-0.2920515
0.5192325
-0.687615
0.2941923
-0.8737473
0.3897142
0.179344
-0.3334385
0.4711821
0.2912258
0.4194587
-0.4710257
0.08687296
-0.2147293
-0.1567987
0.6844699
0.931869
-0.756677
-0.4840569
-0.4827671
0.5678938
-0.2157906
0.764259
0.998215
0.1282397
0.4297467
-0.373218
0.08305367
-0.9316766
-0.3735045
0.9321589
-0.5628241
-0.1273365
0.9944689
-0.3168015
0.6324247
0.2889234
-0.2410419
195
