-0.8263956
-0.9338549
-0.722526
0.7890047
0.5302763
-0.01081495
0.8699986
0.6260827
-0.02759145
0.8067241
0.8231246
-0.6757525
-0.243213
-0.3908903
0.9661778
-0.1263061
-0.5734805
-0.7675973
-0.05441479
-0.5203317
-0.4306742
-0.7541876
0.6219332
0.5151417
0.07516727
0.9080389
0.1131221
0.2678422
-0.2734674
0.1681368
-0.02371225
-0.9260631
-0.08891077
0.04754126
0.4914005
0.3203921
-0.9199402
0.3599347
-0.7197434
0.5632879
0.06082028
-0.242652
0.6414412
0.5586194
-0.7773635
0.9957678
-0.9481357
0.3143154
0.02378757
0.7600791
0.3243717
-0.7705046
-0.2383524
0.6873502
0.6250414
-0.9003325
0.1550559
0.2299328
-0.7023959
-0.7901158
-0.09087472
-0.4899362
0.3458261
0.4091207
-0.2540961
0.06577669
-0.3171938
0.1981676
-0.6135268
0.97041
-0.1781705
0.112204
0.2086151
0.1855061
0.1552965
-0.6601695
0.4841648
0.9345829
0.8901003
-0.02450021
-0.247017
0.8831893
-0.02976192
-0.4833516
-0.7409884
-0.533776
-0.2718892
0.5019686
-0.6983626
-0.5743762
-0.3624141
-0.1181079
-0.02653847
-0.6901534
-0.2585417
0.9486163
0.5487328
-0.5440649
-0.5966771
0.8828061
-0.4883969
-0.8827186
0.4242151
-0.9517123
0.007096098
0.4411824
0.2592573
-0.7550008
0.4283386
0.1588175
0.3715567
0.6530874
-0.07170457
0.8719803
0.5722983
-0.9727669
0.5366023
0.03597951
-0.3323376
-0.2027124
0.5170438
-0.7731289
-0.2051552
-0.4963329
0.4588069
-0.2954518
0.6879889
0.1603274
-0.82159
0.7141141
0.08057309
0.2391656
-0.4937556
-0.2687172
0.6039431
0.09989564
-0.0451061
0.09825778
-0.05564986
-0.7682216
195
