-0.8283688436031154
  0.034620890207855304
  -0.028738804156349662
  -0.7186043903859596
  0.10839921900700733
  -0.3634183200986614
  -0.6626458908036224
  -0.22607505065938693
  -0.40484167686828143
  -0.013255083644077459
  -0.3552965065235443
  0.8936692550506455
  0.358263910868879
  -0.7031699927196276
  -0.5501279175343473
  -0.700930044472555
  -0.12132171430506655
  0.006779838681734818
  0.0810316817030754
  0.4914950766207129
  0.8318506574781932
  -0.44653451556320745
  0.8015634740528659
  -0.5211596778596781
  -0.26039228918068014
  -0.5224265047965369
  0.8740531750496154
  -0.8546861502748726
  -0.7954597406684482
  0.2627553885460647
  0.7661216029322926
  -0.11786421400396063
  -0.3192129187277255
  0.36910606612778785
  0.6312867555086608
  0.4629872786582807
  -0.6136371045458404
  0.39122166423455496
  0.3776911186426304
  0.3283451251442979
  -0.2411223100855574
  -0.02252213533143599
  -0.17121821260391457
  -0.792022122242628
  -0.2841917553711414
  0.12144980795252147
  0.9113541738040907
  -0.926595128311726
  0.7888865051996881
  0.21387619862478457
  0.06403070160150204
  -0.3104045834774508
  -0.6945289965863413
  0.6639491813493497
  0.6304626425579727
  0.43012604803457366
  0.9170870400858358
  -0.66803127689066
  0.06565848823100473
  -0.10329925489757319
  0.3030285665369459
  0.38491483872343957
  -0.477588387983475
  -0.11245171339017246
  -0.20776355900215449
  -0.4439907726715506
  -0.7598387464057792
  0.00556283005445013
  0.4423271869318688
  0.2021612241048214
  -0.12257729598695344
  -0.5590896956368016
  0.24068504293972848
  -0.2606918453760221
  -0.47506272392651216
  -0.9032161119088883
  0.12249980808234784
  0.1966748132622711
  -0.61695197045943
  -0.4164912357530969
  0.15146769106045377
  -0.4810619759515139
  0.10407213905057988
  -0.5448372702408004
  -0.20096869575825715
  -0.17939879589596508
  0.5842499932097269
  -0.32615788975750115
  0.8318013765417709
  0.4233699464381089
  -0.33155965454979053
  -0.4244197346920391
  -0.5737691985778495
  0.9446744216820879
  0.675894303383775
  0.4732027557739462
  -0.3669948401709382
  -0.718218057739864
  -0.39889232417792153
  0.36174636875354804
  0.613919756304312
  -0.6861812730146816
  0.7008231761332651
  0.3639107639187573
  -0.8317555233382501
  -0.011024330345229316
  0.3248384626504035
  -0.8675414506459194
  -0.13735732449458982
  0.7504461053974905
  0.11524484864690554
  0.37693200595720144
  0.19200143030292782
  0.9630128290286915
  0.572253759258609
  -0.6990280648222746
  0.8893272571684956
  0.9685243422754724
  0.163794148263797
  0.45856924899444085
  -0.059562618003465295
  -0.3359961658453574
  0.020917572162779008
  0.18408639083848555
  -0.5188789926298965
  -0.1648118948286571
  -0.24400094774370007
  0.652470317602583
  0.7956367664720043
  0.6322179035053879
  0.17518364136065312
  -0.06593374575353661
  -0.674277688434757
  0.43484228766690847
  -0.27785106231295986
  0.9859779102456305
  -0.10408127625680186
  0.8861183971894504
  0.5686750524408211
  0.34092214026297585