-0.1680254584525933
  -0.05843069873600848
  0.9976935292408464
  -0.7292365328597834
  -0.5020523025716839
  0.24625227908149228
  -0.7228867454362202
  0.8371209018214485
  -0.551168507580424
  0.8943105572873253
  0.04420153871037069
  0.11515407402814559
  0.521542148776531
  -0.30760846752267357
  -0.60560685721371
  -0.7980359150076914
  -0.7422741191445423
  -0.590641081066184
  0.7827224765918861
  0.28187576276952386
  0.10285214134334719
  -0.647191048277481
  -0.6038654552781988
  -0.28738388087969435
  -0.5015227725535483
  -0.6946634409227398
  0.2814503676587896
  0.7182834137703644
  0.7780816880615875
  -0.006179163531694898
  0.23476296868890012
  -0.18342521091747177
  -0.3541950824839475
  -0.6893998154893428
  0.7804197888652136
  0.6213121151628254
  -0.012195916505705173
  -0.5807613504115401
  0.5833745424966108
  -0.3808639215351305
  -0.416890773156956
  -0.12756891328243858
  0.45641540338620645
  0.031740090018589795
  -0.29177806728748557
  0.004191783459831733
  0.9419734417298988
  0.5240066593963153
  0.5012336294764177
  0.7326284973851238
  -0.7672594342357391
  -0.47844841692533124
  0.09600812149459714
  -0.054698820080923416
  0.5020701783780468
  0.02671529528609984
  0.8699360664344167
  0.4605901524896623
  0.24558094541561726
  0.5806375995214612
  -0.4485668119280358
  0.8878796153420026
  0.03245132899607461
  0.6302368950772272
  0.7056449062130743
  -0.8063452904391616
  0.9935153999019424
  -0.4632241945598815
  0.7450345561297584
  0.6440374795253845
  0.44039839217506027
  0.562651598600562
  0.65888546245363
  -0.9323893557155938
  -0.398054354543636
  0.2541532793231036
  0.9325889348933705
  0.17702738866715162
  0.8956385250885073
  0.7837162341487076
  0.29306216746497227
  -0.6077391403749913
  -0.43970933171444126
  -0.7064039434613707
  -0.1330238873299603
  -0.6783476311472028
  0.5588806355947567
  -0.6858314342454397
  0.31956684926289713
  0.08880056218954668
  -0.5862711458337488
  0.922178195280271
  -0.7647785523612841
  0.7188438557832322
  0.24772488314816177
  -0.3875675486899097
  -0.09819603721256731
  0.3598762510470721
  0.5077626233954509
  0.11047860676877908
  -0.5516113803571013
  -0.36602805557982887
  0.7305744606907221
  -0.38838191162409197
  0.45013429960886353
  -0.5124012717463692
  -0.11324721191903109
  -0.9585537210524021
  -0.43692482655876397
  0.738357106591174
  -0.7099128225031
  -0.5562508771429262
  -0.8148343301111694
  0.07330017286502666
  -0.847104027447672
  0.06566272481760183
  0.44673215572728986
  -0.6384573194196267
  -0.5939754567916726
  0.9154547090676102
  0.7668952000127645
  -0.5716905232778817
  -0.9550699732859047
  -0.2700016140379793
  0.30316370843398666
  -0.4088880221938501
  -0.7119826995982792
  -0.43940807725230224
  -0.4715687055341644
  -0.3095965097649195
  0.9954696574848354
  -0.3027094204359593
  0.26609137126873383
  0.23296770743496809
  0.9738019217156806
  -0.15286116623206114
  0.7029484394503003
  -0.47117263963537026
  0.06249567936153655
  -0.6028736767819442