-0.1011318
0.2877836
0.02366416
0.7860416
-0.5516797
-0.008261082
-0.5133214
0.9790744
0.4461302
-0.9741287
0.3596488
-0.5615396
-0.1858904
-0.5342213
-0.3102529
0.3404487
0.8979851
0.8418688
0.4747315
0.2357343
-0.76823
0.7876135
0.09861933
-0.3246085
-0.3082472
0.7200053
-0.9318
-0.5353281
-0.4757928
0.4905333
-0.2759704
0.9135121
0.1077416
-0.08434105
-0.5226399
0.2309753
0.9407656
-0.2763864
0.2792528
-0.7433304
0.9103344
0.02546209
-0.5887729
-0.027517
-0.1780224
0.5385016
0.6949709
-0.5528772
-0.07218075
-0.6076365
-0.2826512
0.2756164
0.3377272
-0.6722377
-0.4546468
-0.01464391
-0.8199581
-0.8919948
0.3086816
0.217345
0.05097333
0.763065
-0.3001784
0.1894606
-0.8844631
-0.6658133
-0.9727667
0.8416266
0.643801
0.1512455
0.6454778
0.4508623
-0.08595046
0.08236799
-0.4816144
-0.04384638
-0.5501137
-0.229143
-0.8699617
0.7063968
0.5399633
0.9601948
0.1559903
0.3068622
-0.5604401
-0.03903537
0.2136905
0.918281
-0.199878
-0.8568267
0.203742
-0.900861
0.07981261
-0.8719927
-0.3888083
-0.5405279
-0.8885875
0.3288591
-0.5459026
0.865824
0.08861523
-0.07588612
-0.6829155
0.2214225
-0.1475998
-0.2428461
-0.8803738
-0.969135
0.8882024
0.5843886
0.7716656
-0.7382391
0.3078832
0.1655083
-0.986397
-0.04816568
-0.3167477
-0.4281857
-0.4217312
0.6560649
-0.7772258
-0.3016258
0.3875292
0.777977
-0.9373697
-0.2786361
0.1337779
0.692627
-0.7700322
0.7612316
-0.1634725
-0.5809786
-0.1173454
-0.4543503
0.9347312
0.2782024
-0.3476884
0.990482
0.2932592
0.4877256