-0.7117803
0.7979741
0.5608031
0.2018942
0.7527025
0.2717688
0.7735971
-0.6284742
0.4387309
-0.38026
0.7913324
0.02902932
0.2542509
-0.02361287
0.5757012
-0.08339303
0.0004057144
-0.8196836
-0.8718037
-0.01113414
0.459673
-0.07201219
0.4921539
0.5922689
0.9696017
-0.0655285
0.8647657
0.9247455
-0.4705459
0.3668701
-0.3678844
0.4387755
-0.2590845
0.6870391
-0.8883893
0.5238162
-0.6150103
0.9329363
-0.2255944
-0.3369902
-0.4442486
0.7974777
0.2518272
-0.4546677
-0.00847487
0.8445441
-0.912212
-0.328366
-0.2927423
0.8986959
0.96306
-0.5159901
0.2174827
-0.5751347
-0.6179242
-0.1505559
0.05705859
0.873764
0.09028354
-0.7711137
-0.1132208
0.8406608
0.5971202
-0.2242789
-0.9360114
0.9938547
0.7772021
-0.2910813
0.984862
0.7311572
-0.1711811
-0.6712282
0.4730587
-0.7704996
0.02580591
-0.02433698
0.7105051
0.06728861
0.2101931
0.1201575
0.8774129
0.9910017
-0.165538
-0.6994323
-0.519909
-0.2085453
0.8416553
0.9651944
0.6230505
-0.882244
0.7466141
0.676071
0.9480743
0.04324841
0.8341908
-0.7730203
-0.675581
0.02232689
0.5195264
-0.9841379
-0.8659611
0.02049942
0.4614409
0.5871002
-0.978717
0.9720582
0.6495479
-0.08308509
0.9447743
0.5906211
0.007788809
0.09186416
-0.7492865
-0.02747246
-0.5177278
0.2107082
0.8925865
-0.4461282
-0.05846973
0.8370089
0.6694357
-0.2451248
0.1893923
0.9689999
0.5971183
0.8083195
-0.1326691
0.8859586
-0.7917827
0.05374766
0.326115
-0.2064098
0.1225143
0.6195721
-0.8876313
-0.2144513
0.7402883
0.8619344
0.8182956
0.2693828