-0.7222877
-0.3581237
0.3400122
0.1440572
0.9203991
-0.4946322
-0.2883902
0.3018356
-0.9346229
0.8898278
0.3256942
-0.5812145
0.09889127
-0.3071342
0.02929654
-0.3304061
-0.9585407
0.7714347
0.2866913
0.5741977
-0.8951577
-0.8708558
-0.2623942
-0.5995232
0.3066763
0.1297893
-0.07825132
-0.836174
0.2451092
0.5082353
-0.7597755
0.3814168
-0.4935628
-0.311559
-0.6696293
0.8039887
0.599483
-0.3053367
-0.2513195
0.3930364
-0.3200953
0.3623431
-0.5940643
-0.3442299
0.6563893
-0.2926167
0.6814156
-0.5178221
0.2389735
-0.1950581
-0.6435462
-0.5115144
-0.2546272
0.785024
0.2475011
-0.1037045
-0.864561
-0.3484288
-0.1863135
-0.8835896
-0.09411519
-0.9830534
-0.4468449
-0.3276594
0.2099231
0.9633511
-0.9871502
-0.5568789
0.03647652
-0.6780868
-0.01182173
0.5592813
-0.4675387
-0.5182506
0.217744
0.6163567
0.3837714
-0.04741821
0.1529756
-0.5896192
-0.005649804
-0.7298225
0.3501394
0.1286988
-0.3976496
-0.7767221
-0.1717383
0.8340966
0.4785179
-0.6329804
0.7911388
0.1563618
0.6581868
-0.5732327
-0.5951419
0.1206233
-0.1701181
0.9241863
0.4380261
-0.9599674
0.3236119
-0.2711662
0.3292023
-0.1714073
0.8105917
-0.9137237
0.1383462
0.616674
0.1826735
0.02422319
-0.9319661
-0.6986575
0.1730534
-0.553333
-0.6747285
0.749523
-0.6412403
-0.8736122
-0.7325175
-0.9107002
0.1334692
-0.9113365
0.005095014
-0.00355613
-0.00169868
-0.7406555
-0.7699209
0.7038685
-0.3288423
0.1314677
-0.5219896
0.7670974
0.7699082
-0.8712476
-0.6576531
-0.3069923
0.09712411
-0.09652752
-0.1965728
-0.1471726