0.7132338
-0.1455353
-0.5619118
0.5297146
0.562343
-0.2820033
-0.08632642
0.4437235
-0.7052463
-0.5660559
-0.8972381
-0.9287534
0.1387283
-0.5275041
-0.1591837
0.6995091
0.7784706
-0.8502069
-0.9342029
0.2342259
-0.8434874
-0.3127877
-0.614028
-0.5026844
0.2146483
0.0461859
0.4257489
0.2352449
-0.14423
0.06385615
-0.6617335
-0.9719892
0.7602078
-0.9260716
0.01392194
-0.3494826
0.3725064
0.06004921
-0.5779278
-0.03207731
0.7780618
-0.6393929
0.6279745
0.9807199
-0.009232422
-0.9318818
0.9220681
-0.08041674
0.5885906
-0.6398885
-0.2313728
0.7145878
0.2872014
-0.567046
-0.221738
0.6852229
0.0942568
-0.6358401
-0.4842073
-0.08817441
0.3454903
0.8536243
0.02165135
0.326831
-0.3441177
0.7421548
-0.5567279
0.1580084
0.4817283
-0.2273019
0.777441
-0.1411126
-0.4387975
0.7056856
-0.5344014
-0.5580752
0.4000109
0.953018
0.7190537
0.5294254
0.9519291
0.06158897
-0.2805479
0.9439444
0.7183658
-0.5153579
0.0063595
-0.5666232
0.4180461
0.2717672
-0.7927546
-0.785502
0.5783209
0.6493741
0.1904817
-0.08082557
0.7994046
0.9222889
0.5151212
-0.4511572
-0.3318927
0.9690501
0.2005296
-0.9408348
-0.5918176
0.7070383
-0.00486436
0.3432571
-0.2854118
-0.7063801
-0.3211366
-0.3391201
-0.05388619
0.2440255
-0.2954198
0.1309923
-0.7246965
0.3722772
-0.8636507
0.7367078
0.9427502
-0.4790168
0.6428872
-0.06711444
-0.8954092
0.8083909
0.6583578
-0.4979627
0.2975033
-0.2414396
0.4467892
-0.9432462
0.2384298
0.4254338
-0.1494381
0.2910492
-0.8845248
0.4754266
0.2393642
-0.4126265