0.2200163
-0.06185753
0.8484461
-0.9360319
-0.4464056
0.09359197
-0.4729657
0.1236278
-0.3690384
-0.8384489
-0.651287
0.2241922
0.2554383
-0.8412817
0.9947392
-0.4622215
0.4817528
0.9265811
0.1654526
0.3949316
-0.9536573
0.5621259
-0.8871107
0.1968354
0.05416563
-0.2271873
0.738699
0.3147815
0.06542799
-0.8346696
0.9923391
-0.5989254
-0.7184237
0.3754698
-0.08408979
-0.4498912
-0.3296105
-0.5395667
-0.7582487
0.5856106
0.5040603
-0.2968641
0.7841324
-0.1460003
0.008816473
-0.572244
-0.9332407
-0.474364
-0.6892655
0.5839399
0.3050742
-0.9847718
-0.930631
-0.2881827
0.06425646
-0.1810584
-0.3434338
-0.5270237
0.1480579
-0.9965143
-0.5767975
-0.933399
-0.1181235
0.04535098
-0.3425092
0.6455771
0.4400599
-0.5985615
0.1499018
0.5669832
-0.5289809
-0.04388321
0.6158466
0.5815127
-0.9101427
-0.9688855
0.4927569
0.401072
-0.867421
-0.764776
-0.8837535
0.2657226
-0.8332765
0.0619423
0.742128
0.9257381
0.5191981
0.2362253
-0.282021
0.2703331
0.1100489
-0.7310491
0.3105315
-0.3252319
0.1145915
-0.4520564
0.08728927
-0.7973803
-0.2358576
-0.02229806
-0.06500091
-0.3343127
-0.606943
-0.9244895
0.4676934
-0.9606484
0.8485046
0.007426671
-0.03031062
0.1385183
0.2997435
0.4203409
0.7549973
0.8777248
-0.1065632
-0.8457484
-0.2439305
-0.7928916
0.9307595
-0.8904527
-0.4417121
0.2374402
0.6372961
-0.8278002
-0.3680159
0.8053318
-0.4369403
0.5403362
-0.8861806
-0.9494942
-0.81739
-0.5146698
-0.5686173
-0.005939357
-0.0645195
-0.3040944
0.5107254
-0.7110012
-0.8314945
0.5878764
195
