-0.9383904
-0.4902984
0.9870675
0.576932
0.110753
0.4469855
-0.2309528
0.1637071
-0.6301277
0.7224375
-0.6134643
0.7670641
-0.9075615
0.9584645
0.4073355
-0.00558564
-0.5790322
-0.362668
0.4544229
0.5000778
0.7555009
0.5357487
0.5147216
0.3020961
0.9238867
-0.8012044
0.01194448
0.1859875
0.019364
-0.7263796
0.7870952
-0.01662231
-0.6192281
-0.5678597
0.1992985
0.5879508
-0.2652926
-0.3916977
-0.3938653
0.3133484
-0.7514182
-0.6434709
-0.3176334
0.0559134
-0.4025567
-0.865171
-0.302541
0.4333278
0.2528922
0.9523418
0.3190218
-0.4807139
0.1352665
0.8445706
0.0819816
0.07823196
-0.8710703
0.5549272
-0.6223665
0.5228022
-0.2877219
-0.8392551
-0.4424275
0.05652392
0.4738557
-0.9699934
0.08469748
0.03652511
0.3610212
0.2725065
-0.7030447
-0.01236009
0.3844398
0.5020812
-0.818944
0.2362148
-0.5995178
0.6701511
-0.7798855
-0.1543453
-0.9301342
0.4570173
-0.191646
0.4965618
0.5613423
0.6263502
-0.5741947
0.324248
-0.04171547
0.1692919
-0.4967467
0.6981823
0.2472811
0.3336282
0.01639306
0.2609418
-0.02791072
0.1802855
-0.1251426
0.3612285
0.7343469
0.02730801
0.2132133
-0.5927625
0.882476
0.8620045
0.7109321
0.6387048
-0.7167717
0.4556314
-0.3475733
-0.1953183
-0.4033573
0.2083416
0.01954892
0.01409577
-0.08653619
0.2239443
-0.9598691
-0.7870861
0.05791733
0.904412
-0.8383324
0.9997926
0.5381597
0.2696473
0.7744266
-0.02279773
0.6196052
-0.6809486
0.5252827
-0.2382226
0.3869227
-0.2355169
-0.8067721
0.2651841
-0.1396254
0.6000124
-0.5229871
-0.4527535
611
