-0.0004742215
0.5990135
0.2687031
-0.5160306
0.3303789
-0.1738224
0.1384011
-0.6024086
0.1846575
0.5715851
0.927722
-0.3838574
0.3748977
-0.8255842
0.04376044
-0.3731582
0.07863364
0.3702632
0.8930942
0.1043857
-0.697669
-0.3230183
0.1101974
-0.1898557
0.765146
-0.02218025
0.06080401
-0.02197904
0.06999657
-0.09794699
0.358676
0.393404
0.4648075
-0.7671883
-0.545392
-0.1297202
0.003731275
-0.3700075
-0.08991239
-0.5684194
0.4702988
0.4634938
-0.8927191
-0.3427373
-0.5302253
-0.7985025
0.1771289
-0.9339854
0.4170161
-0.1912933
0.6457861
-0.08996712
0.2488132
-0.08466221
-0.001892748
0.6061218
-0.8657939
0.03589131
-0.9706386
-0.539901
0.8224463
-0.4915913
0.4875038
-0.2469231
-0.8987137
-0.5357718
-0.4911383
-0.282365
0.7046411
-0.157737
0.4497129
0.01261901
0.9532471
0.08438747
0.4585996
0.3922982
0.4281685
-0.8051404
0.8120371
-0.8409758
-0.1563863
-0.9750873
-0.05134048
-0.3901024
0.07960671
-0.1497327
0.9059002
-0.2882694
-0.8684745
0.9903798
-0.6385818
-0.7139037
-0.07464868
-0.9321753
-0.01813227
-0.5423202
0.5102467
0.02289344
0.1986631
0.0774765
-0.226671
-0.01773065
-0.7460225
0.2579918
0.965093
0.6208734
0.9613734
-0.3610843
0.8357311
-0.85216
0.7002215
0.4224755
-0.09563416
-0.9610183
-0.9013191
0.53635
0.5830573
0.4196791
0.7712091
0.6436065
-0.04601849
0.4859682
0.5189719
-0.3728354
-0.931066
-0.5325565
-0.2413585
-0.3047447
0.1192944
0.8377262
0.4309248
-0.2107472
-0.6408715
0.6641971
-0.5411972
0.4211382
0.1205469
-0.09032218
-0.4887833
0.5432567
195
