0.9837523
0.2409564
-0.8381744
0.6982356
0.303465
0.8914871
0.3566385
-0.5460131
0.1271702
-0.6846786
-0.3650016
-0.2023835
-0.1140202
-0.5282446
-0.4908305
-0.346963
0.2800193
0.8410459
0.09464772
-0.03691091
0.499785
-0.202105
0.6228081
-0.805146
0.538985
0.2236208
0.4129622
0.1165951
-0.8500727
0.3255212
0.1131063
0.1091889
-0.7857929
0.7214505
0.8426675
-0.5355019
0.05386921
0.9569708
0.4043207
0.9620569
0.5977657
0.1637736
0.006440032
0.4427765
-0.8418995
-0.9821703
0.5306436
0.01982555
0.6045939
-0.9923642
-0.3105695
-0.4015931
-0.7710196
0.5060933
-0.4172531
-0.1254365
0.02674932
-0.5596249
0.8555681
-0.1610331
-0.1623822
0.3996677
0.04966619
0.1651133
-0.2824443
0.4712248
0.7911765
0.4432033
-0.6863452
-0.5086603
0.1223935
-0.7398062
-0.7635481
0.08701196
-0.7263414
-0.09862192
-0.4310854
-0.8832852
0.6121071
-0.3355785
-0.8031285
-0.02741287
0.261027
0.3109604
-0.5120966
0.7134386
-0.9404773
0.04909383
0.003894809
-0.6285573
-0.3266784
0.6106659
0.643316
-0.08701902
-0.1603365
0.3375719
-0.07267829
0.9194281
0.1691179
0.2567224
0.4489151
0.4139288
0.4077184
-0.0598276
0.8107643
0.7168433
0.3373799
-0.08198003
0.01818995
-0.1306917
-0.1849592
0.9776555
0.4364803
0.4841254
-0.8343547
0.2269519
0.7563518
-0.8633148
-0.6745502
0.3799838
-0.4560969
0.8717484
-0.7259146
0.05693243
0.04242465
0.7084647
-0.1475247
0.2962795
0.2762477
-0.4431847
0.5639982
0.6508946
0.09852484
-0.2572012
0.8493807
-0.780784
0.5361069
0.7769016
0.1453151
0.2609515
195
