0.07920457
0.04246457
-0.7210143
-0.7771084
-0.2720407
-0.3552257
-0.5339493
0.2620558
-0.9782129
0.1426817
-0.4063545
0.6222031
0.4784179
-0.1074629
-0.2720707
0.3701643
-0.1482385
-0.9382972
0.7572591
-0.4833771
-0.8624532
-0.7042069
0.8053027
-0.3420172
0.6293432
0.6035305
0.4161001
-0.2992627
-0.5855877
0.2415285
0.6295397
0.517569
-0.9301476
0.5716447
-0.7240263
-0.5503829
-0.02078514
0.5812299
0.5951671
0.3374018
-0.1003717
-0.3544327
-0.8079943
0.6453889
-0.3285744
0.887113
0.1801268
-0.06943676
0.5899128
0.06962305
-0.9148885
0.4507422
0.1261073
0.8294002
0.01890073
0.5616356
-0.02738782
-0.2926591
0.9469179
-0.7216579
0.6655594
-0.1151791
0.6668887
-0.3156147
-0.7569466
0.9480782
0.4301974
0.833029
-0.7788885
-0.1591837
-0.8099625
0.9211982
-0.5282099
-0.3123639
-0.5684885
-0.3131954
0.1696858
0.9759026
0.639082
-0.9322923
-0.3690817
-0.2912408
-0.2461806
-0.8639299
0.5759691
-0.2552812
0.8506804
0.3854671
0.3285914
-0.6721045
0.01941975
0.1461859
0.3601184
-0.2456492
0.1473643
-0.02156991
-0.8262228
0.5043696
0.2138774
0.984621
-0.2825728
0.2042243
0.2914812
0.5222051
-0.5612952
0.3763523
-0.3030772
-0.00996288
-0.7465689
-0.7258181
0.7109551
0.5871451
0.3787495
0.6190224
0.2589224
-0.4806265
0.5247025
-0.0874621
0.537021
0.2646233
0.774301
0.9258278
-0.3808484
-0.7635095
-0.8766109
-0.01418683
-0.370283
-0.05041504
-0.7510687
0.05515916
0.9898818
-0.8203513
0.7224715
0.3649001
-0.6432475
0.04377319
0.3300096
0.134797
-0.1228522
0.05659562
195
