0.9570868
0.9228374
-0.276356
0.623911
0.8275396
-0.1984268
0.3365805
-0.4136165
0.8705564
0.1311988
-0.5149034
0.6310422
-0.3568196
-0.3876974
0.6927242
0.7980205
-0.6845961
-0.3350804
0.09079168
0.5915483
-0.8192635
0.5604783
0.7727049
0.7572384
-0.08777855
-0.1077966
0.2540115
0.8125693
0.6565858
0.3640721
0.8903713
0.1699683
-0.7338711
0.194251
-0.1051128
-0.08713915
0.228568
0.6617828
0.3642082
0.2444042
0.3930607
-0.8124443
-0.7945122
0.6846995
-0.6239212
-0.9964801
0.8781897
0.3412864
0.8305774
-0.04282263
-0.03479547
0.7235376
-0.8796841
0.7812429
0.3705801
-0.2128814
0.6567086
0.529393
-0.2709762
-0.08532122
0.5730051
0.6747977
0.2221753
-0.3738478
0.7381381
-0.7024591
0.4255544
-0.04151909
-0.7637762
0.6892043
0.9198307
-0.02588241
-0.1656577
-0.8663857
-0.3736563
-0.5428011
0.4401624
0.991462
-0.6133416
-0.8748971
0.2354948
0.7246186
0.08354548
-0.2580931
0.791067
-0.7844264
0.9477929
0.6399767
0.456113
-0.4026536
0.4873064
-0.7299129
0.4255591
0.6750038
0.3245734
-0.5810569
0.3532134
-0.9281265
0.05835576
0.91888
-0.4366424
0.8867277
-0.04537199
0.7054745
0.7216826
0.240586
-0.3600079
0.3784089
0.9901759
0.1550065
-0.1606743
-0.9832681
-0.92672
-0.8683226
0.4273723
0.302918
-0.7507614
0.5471715
0.3015787
0.3191949
-0.05567256
0.3536809
0.9001251
-0.6826562
0.1258468
-0.966897
-0.9805104
0.1288678
-0.5880683
0.3857577
0.8172067
-0.9382466
-0.9987139
0.2316519
0.2857772
0.2187629
0.6513386
-0.04813194
0.3145346
-0.511851
195
