-0.05044029
0.04279191
0.5680227
0.002494453
-0.2629924
-0.6431382
-0.7928088
-0.669887
-0.998574
-0.5544308
0.09105222
-0.2581113
0.399141
-0.1545798
0.2841056
0.2781141
0.7197311
-0.5265055
0.922489
-0.01167781
-0.2240425
0.5911646
-0.5252768
-0.1785062
-0.9655818
0.1981581
0.58749
0.3576312
0.9301553
0.772849
-0.4411653
0.1887717
-0.3295506
-0.8649595
0.5593873
-0.4333142
-0.2175364
0.9521549
0.7273263
0.3328862
-0.2667505
-0.1603482
-0.5844163
-0.2163917
-0.4203009
-0.1363109
0.891043
-0.3387005
-0.2335648
0.7433315
0.8371766
0.3890516
-0.4648507
0.4846152
0.1382417
0.7607881
-0.6276575
0.4329823
0.4431071
-0.8296782
0.5743982
-0.7449636
-0.3972133
-0.3314602
0.7123197
-0.7485996
-0.673695
-0.3844673
-0.7342789
-0.5795835
0.387071
0.05843158
0.7070593
-0.8208425
0.1511456
0.3869059
0.05601539
-0.009892044
0.6832521
-0.7263699
-0.1741845
-0.8454922
0.9145241
0.7598336
-0.8015492
-0.6962016
-0.4140151
-0.9980904
-0.5772792
0.3079869
-0.7596191
-0.8330691
0.6864338
0.3069097
0.9458151
0.674818
0.1325926
-0.7635738
0.6324627
0.1927932
0.8076736
-0.09906494
-0.02195258
-0.5071949
-0.08248404
0.6826689
0.4745275
-0.2246843
0.2861644
-0.1655566
0.1748031
-0.629567
0.01026149
-0.8648798
0.9299409
0.4074673
-0.4313974
0.295877
-0.2772754
-0.9624983
0.1188078
-0.9101213
-0.01693005
0.07292793
-0.3872571
-0.513864
-0.9196158
0.2142541
0.2616416
0.4684768
0.9123784
-0.7193003
0.7039436
-0.1511912
0.09882697
-0.5446174
0.1442462
0.7794039
0.8298927
-0.2090165
611
