0.966335
-0.5993786
-0.661602
-0.8630819
0.6530189
-0.8663744
-0.630038
0.1082153
-0.4508429
0.2914704
-0.6005465
-0.7756543
0.6599418
0.672598
-0.8983268
-0.4983959
0.8854416
0.7229761
-0.5803027
-0.4970804
0.5892474
0.6881241
-0.9361257
0.5020269
0.1886715
-0.5612958
0.6783339
0.9363619
-0.5213415
0.2937468
-0.06704397
0.1410233
-0.0019856
-0.9898917
-0.08025862
-0.2800182
0.6937391
-0.7724729
-0.7843295
-0.3757574
-0.8523386
-0.7034866
-0.2908295
0.9090121
0.7965103
-0.8709173
0.9978791
-0.5007408
-0.9570196
-0.152927
0.5404291
0.7149767
-0.5267904
-0.9792122
0.555193
-0.1746883
0.402607
-0.6717103
0.2171767
-0.06696286
-0.5601135
-0.8575652
-0.1074552
0.9249145
0.143809
-0.8970599
0.5151752
0.7509297
0.8760877
0.9725906
-0.4962749
0.3861824
0.6799958
0.5726243
-0.03750942
0.8742707
0.2149145
-0.9569135
0.9468339
-0.6366403
0.03609718
0.3500442
-0.2808148
0.5456214
-0.1461397
-0.2094788
-0.7515215
0.07309995
-0.1337007
-0.1831987
0.2048066
0.9428093
-0.6485606
-0.7569201
-0.8794824
-0.238521
-0.3834823
0.1365462
-0.05347851
0.9222397
-0.08583185
0.9547926
-0.4475747
0.6796206
0.8109758
-0.8096151
-0.004208502
-0.07241181
0.1669275
-0.2353282
-0.4231667
-0.6704929
0.4619904
-0.5996246
0.7282306
-0.5029229
0.7909954
-0.3505351
0.8043969
-0.6176701
0.4864224
-0.621371
-0.1955918
0.9538481
0.05842244
-0.4510675
-0.166243
-0.9996249
0.7616485
-0.2278943
-0.1215208
-0.7126737
-0.123841
0.1821621
0.7865264
-0.2934099
0.8880538
-0.6811902
0.8173908
-0.6432168
195
