0.1696686
0.3120897
0.3054658
-0.3915682
-0.2879548
0.8726087
-0.3683452
0.1383317
-0.9572161
0.3092597
0.9848838
0.5469531
-0.9111997
-0.2863633
-0.204908
-0.5503311
-0.7656953
0.3989964
0.14003
-0.2282122
-0.4713738
0.5595058
-0.1610788
0.381813
0.9688497
0.9876538
-0.8851249
0.1465655
0.1656796
0.0208281
0.5225968
0.6177379
-0.8356755
-0.3785002
-0.8753366
0.01133479
0.1486399
-0.0763405
0.3771079
-0.8176847
0.5710272
0.1640633
-0.5996938
0.3420316
0.5218795
-0.3768959
0.646409
0.04956964
0.02521091
-0.05217326
-0.4189696
-0.6358401
0.1233191
0.1476774
-0.9347204
0.5519307
0.1477652
-0.316034
-0.5162317
0.7007104
-0.2760312
0.7079952
0.7612238
0.8604687
0.7382325
-0.1791795
0.1466469
-0.2532313
0.1917572
-0.8280122
-0.1967402
0.184735
-0.6262145
-0.8077968
-0.8092426
-0.8355336
-0.5638133
0.6912438
0.3165334
-0.583081
-0.1601115
0.4309092
-0.3372028
0.4649692
-0.7031407
0.8146015
0.8565141
-0.6961442
-0.1167327
0.3038429
0.8646879
-0.5981288
0.7319023
0.20512
0.3790554
-0.6137079
-0.2097222
-0.7918971
0.1512742
0.3574131
-0.8130826
0.9551653
0.7330362
-0.3917081
-0.8920618
0.1501212
0.7013627
0.6583499
-0.1491819
-0.7493219
0.6954166
-0.1560906
0.8006986
0.1799255
0.8360225
-0.6779025
0.9760929
-0.4438963
-0.5185868
0.3519404
-0.9694573
-0.06145605
0.5954945
0.834344
0.9850704
-0.1519054
0.4516988
0.7654936
-0.9157349
0.04063615
-0.5368963
-0.2221632
-0.1595743
0.06585534
-0.2784977
0.9959791
0.6302105
0.4828717
0.6289467
0.9747618
195
