0.8385086
0.3004103
0.8224426
0.5313269
0.2733002
-0.07385606
-0.1936233
0.8975583
0.2200496
-0.4690391
-0.06540667
0.0247842
-0.8761621
-0.8893619
-0.1056905
0.4090807
0.1147396
-0.3328191
0.8867896
-0.8880409
0.5199107
-0.781509
-0.9705968
-0.1239437
-0.5878305
-0.6049937
0.02146684
-0.7306283
0.9066253
-0.09012142
0.5157208
-0.9214653
0.3360541
0.9504524
-0.5826529
0.005758528
-0.185294
0.4848564
-0.0599654
-0.4240103
0.733355
-0.2154821
0.878704
0.972306
0.5207254
-0.7553874
-0.2515664
0.9643694
-0.3463141
-0.673504
-0.02548773
0.3608388
0.5762464
-0.2809319
-0.5409591
0.7599739
0.9643562
0.8719901
0.1139799
-0.7324584
-0.8885621
0.3215203
-0.04247634
-0.3559401
-0.2023942
-0.8499246
0.1460802
-0.8484681
-0.4100874
-0.3503032
-0.3393529
0.1503702
-0.986505
0.5602936
0.1374468
-0.8409281
-0.3577554
0.310335
-0.5829847
-0.3478044
-0.5693499
0.1494767
0.1553918
0.6390836
-0.2015593
-0.8057995
0.121011
-0.3080058
0.1528466
-0.7327284
0.8596784
-0.3368259
-0.1050562
-0.7096623
0.9153427
-0.4170152
-0.2289772
-0.6815895
-0.1651409
0.3616536
0.602368
0.4380985
0.547354
-0.9985097
0.8958459
0.8250356
-0.794553
0.9371628
0.9206275
-0.7351595
-0.3610371
0.2723621
-0.2808564
-0.1532917
-0.5921367
0.4482638
-0.5734235
-0.3328141
-0.2712828
-0.785379
0.3790526
-0.1723303
0.3166728
0.228259
0.04732886
0.2225485
0.6030161
-0.9879953
0.6644476
0.3124112
0.9536248
-0.2949181
0.3897076
-0.8478251
-0.9867674
0.158288
-0.5696669
-0.6913165
0.2312203
0.3501769
195
