-0.3425319
0.8288671
-0.9453171
-0.6794787
0.7444445
-0.8940543
0.592823
0.620272
-0.2355072
0.1545999
-0.09492814
-0.4889596
0.003302732
0.5302537
-0.4339539
0.8889295
0.784358
-0.7924555
0.5480574
0.742686
0.3360837
0.3168029
-0.4970113
0.3564659
-0.1715225
-0.5293646
-0.6061214
-0.1193675
0.8335344
0.3171754
0.5329566
-0.3113749
-0.31179
-0.8710027
0.7246364
0.7497071
-0.7860106
-0.7314392
-0.8080072
-0.7820719
-0.8116311
0.6462034
0.03546485
-0.8748727
-0.5611297
0.05168831
-0.9370117
-0.02361398
-0.5348052
0.1610223
0.9289674
0.9751267
0.4717096
0.596392
-0.8058093
0.968843
0.1406572
0.9256857
-0.4041151
0.9947374
0.8919563
0.3242621
0.4282793
-0.4534353
-0.03376896
0.2588685
0.4755756
-0.1218246
0.09138349
0.5143577
0.8259411
-0.192028
0.7423498
-0.6129648
0.8137186
0.360957
0.8450933
-0.09340328
0.1622751
-0.1403655
0.3299782
-0.531807
-0.7152525
0.838797
0.4252191
-0.7913055
0.2603458
-0.8583548
0.1627662
-0.5342321
-0.7258685
0.335814
0.1771773
-0.322365
-0.608013
0.3803968
0.9038536
-0.3515703
-0.6885913
0.07791328
0.206595
0.1563916
0.8141109
0.6055602
0.831044
0.4607744
0.6903792
0.6329126
-0.8288271
0.9854963
-0.2915028
-0.0009880499
-0.2370805
-0.8698829
0.720606
-0.4438576
-0.8529152
-0.2493558
-0.8454223
0.5858342
0.3550149
-0.1728541
-0.4332333
-0.9865298
-0.6922373
-0.3304505
-0.00613887
-0.8632104
-0.4440089
-0.6470558
0.6705778
-0.7878193
-0.2645761
0.1767789
-0.8488627
-0.6690337
0.7052735
-0.8453695
-0.881809
-0.1309232
611
