0.1866955
0.5360457
-0.5098591
-0.05632655
-0.841995
0.01307689
-0.2419049
0.7571676
0.6281875
0.5023124
-0.7868894
-0.1071304
-0.6239731
0.6176515
-0.000796326
0.6236118
0.6357993
-0.1258872
-0.2297149
-0.7844471
-0.5041921
0.7357778
0.3530051
0.2319288
0.5122327
-0.4417506
-0.7917036
-0.5336061
0.08304759
0.370344
0.6535733
0.6056231
0.749204
-0.6612424
0.3605024
0.411646
-0.5043402
-0.929113
0.4331144
0.2172636
-0.8862156
-0.1421998
-0.1955386
0.2720046
0.9250754
-0.5625604
0.533675
-0.7191653
0.1108754
-0.1630602
-0.751244
0.5052698
0.7532447
0.9365401
-0.5476891
0.5810724
0.7868417
-0.8486167
0.583171
-0.253641
-0.4825829
-0.312792
-0.6759468
-0.589076
0.388528
0.3553103
-0.9115918
0.1040223
0.6925761
-0.438236
-0.9100632
0.3549647
0.7632375
0.9333454
0.9667969
-0.009461919
0.9825332
0.4164651
-0.2203821
0.9311602
-0.2285923
-0.943087
-0.1167771
-0.6633114
-0.1470731
-0.03363471
0.2815699
0.3382801
-0.04977045
-0.9948079
0.3232378
0.3916375
-0.6216891
-0.1286496
0.1273268
-0.2411802
0.09456278
-0.128884
0.3052077
-0.06546273
-0.5450935
-0.8827901
0.5012168
0.1797151
-0.9344679
-0.808157
-0.3779531
0.4165561
0.08361319
0.4859456
-0.7004974
-0.5514384
0.2011538
0.577979
0.4231212
0.1257796
-0.6911029
0.4527028
0.2835971
-0.3702918
-0.7392524
0.2172921
0.7988146
-0.2419611
-0.8931425
0.9727269
0.8537479
-0.4164777
0.8678133
0.774954
-0.6315088
-0.434023
-0.6671481
0.2936723
0.6316577
-0.6771539
-0.1442408
0.305244
-0.08643258
0.7271473
195
