0.7351958
0.290108
0.279185
-0.6147809
-0.8108209
-0.8494979
0.183861
-0.3864941
-0.3058331
0.4596792
0.5944338
0.9183384
-0.02521536
-0.836014
0.2804148
0.526974
0.1969915
-0.8707613
0.3939781
-0.5378667
-0.4615774
0.6951237
-0.05457696
-0.5048191
0.09924759
0.8846952
0.09124794
-0.3749576
0.9459411
0.7794388
-0.7763937
0.9550967
-0.3982899
0.2630454
-0.5569321
0.2004694
0.1150941
-0.180916
0.7925132
0.08576889
0.2891445
0.9511455
0.820276
-0.2004918
-0.06994584
-0.7827452
0.3352766
0.2087626
0.7495612
0.2141318
0.3641347
-0.4807962
0.8334628
-0.9495461
-0.4326228
0.7800991
-0.3116021
-0.9838604
0.9421512
-0.01129029
0.03540802
-0.635223
-0.1790073
0.608398
-0.8294653
0.6432883
-0.9019376
-0.8247235
0.2339318
0.06315998
-0.8083026
0.9882289
-0.6203225
-0.8201537
0.0979987
-0.9807813
0.8616609
-0.1050309
0.9278038
0.3191485
0.1962973
0.07510836
-0.3171088
-0.04276861
-0.2559693
0.8588294
0.134104
-0.006687896
0.09251072
-0.2002204
0.102407
-0.06018234
0.5851521
-0.2706468
-0.1059285
0.3009156
0.571468
0.6404297
0.7015095
-0.0891646
-0.6444061
-0.5596925
0.2809588
-0.5695873
-0.9821655
-0.7109737
0.8363127
-0.1237686
0.3064232
-0.2914522
-0.354005
0.6950858
-0.07637113
0.1423716
0.8863027
-0.9044096
-0.2203752
-0.9083605
-0.2856736
-0.1303809
-0.9281797
-0.5423673
-0.5262331
-0.6769036
-0.2924339
0.7513899
-0.2927299
0.9492649
-0.8379882
-0.1910276
-0.8170939
-0.01457046
0.588546
0.219256
-0.3268465
0.5012116
-0.8485205
0.5405196
0.07092866
-0.3515596
195
