0.767624
-0.5461749
0.9632769
-0.06177446
-0.111781
0.0320087
0.3465013
0.6666848
0.2430089
-0.3072058
-0.02003132
-0.2409819
-0.3460371
0.5224479
0.4080287
-0.1027139
-0.951609
0.3951792
0.9882576
-0.2624421
0.3947026
0.8967635
-0.2940576
-0.4295495
-0.5027835
-0.8148623
0.3090851
0.7809181
0.9584894
0.3758546
-0.8982375
-0.2401083
0.424177
-0.9640769
0.2346523
-0.3799655
-0.8262932
0.7942249
0.8202303
-0.8499572
0.1741575
-0.7921631
-0.9762529
-0.07311031
0.9177087
-0.9431387
0.9991395
-0.1807429
0.6549584
0.8280949
0.8492029
-0.350585
-0.6498058
0.8553658
0.2484144
0.0077323
0.02964813
0.9273539
0.7035732
-0.7318156
-0.1416981
0.5522764
0.8464544
0.09296613
0.5186366
-0.2278683
-0.264729
0.7270732
0.6047392
0.3511674
-0.1018534
0.2291339
0.7402208
-0.8398373
-0.111645
-0.2547124
0.5465693
-0.1494234
0.3220362
0.4894842
0.1554896
0.3817312
-0.9226551
0.6903049
-0.4824474
-0.4505138
-0.08656276
-0.6687891
-0.4827136
-0.5374794
0.8847635
-0.5533664
-0.8105143
-0.5309371
0.2518962
0.9450237
-0.5323839
0.8635843
-0.9614653
0.1724211
-0.489708
0.1485628
0.4972208
-0.8345258
-0.3273948
-0.5325283
-0.4279299
-0.3401108
0.3378131
-0.3010718
-0.9057049
-0.3015627
0.4100674
0.2410526
-0.6165791
-0.5883316
0.3627907
0.3773915
0.8410699
0.573613
-0.6954844
-0.1283133
0.6885385
-0.5676819
-0.1591246
0.7495838
0.7319131
0.5747465
0.4875575
-0.5791168
-0.8267825
-0.1133198
0.5127635
-0.376892
0.3951891
-0.5429476
0.9716638
-0.1637077
0.3068841
-0.8941157
195
