-0.2871136
0.201861
0.2841171
-0.2546293
-0.8886254
-0.4011587
0.5365146
0.2474885
0.7954685
0.7467458
0.4865153
0.994887
0.5606803
-0.444194
0.8359457
-0.0274306
0.6403853
-0.5512698
-0.7859904
-0.3827081
0.001629906
-0.8890803
0.1616919
0.7359817
-0.257255
0.4505657
0.5205646
0.851272
0.096967
-0.5792924
0.4775811
0.6659753
0.4284757
-0.7066149
-0.2736014
0.06303032
-0.6562682
0.6058617
-0.8361531
-0.4344097
0.629262
0.3256963
-0.2368073
0.00231326
0.3174215
0.4143631
0.6000856
0.650941
-0.9782618
-0.2573378
0.7446195
0.009102595
-0.4969546
-0.9436948
0.06966545
0.04691107
0.7733852
-0.009267978
-0.981028
0.04834425
-0.7448905
0.930653
0.08364155
0.2298783
-0.8825163
-0.8391811
0.2316943
-0.441633
0.2383845
-0.5784173
0.3724839
0.9894442
-0.5730079
0.4713474
-0.1273276
0.9925273
0.6078743
0.1053867
-0.3336837
0.6958339
0.6771805
-0.4701674
0.8323
-0.9513773
-0.834402
0.5469281
-0.4176662
-0.8014025
-0.8240986
-0.4344203
0.831336
0.7853647
-0.6325228
0.7422642
0.1931064
0.6398178
-0.1012957
0.2918454
-0.8703591
0.3248942
0.8064888
-0.5053012
-0.01537523
-0.6740957
0.06548177
0.2147869
0.1768026
-0.5455773
0.8907072
0.5227373
-0.5354227
0.5747878
-0.1851694
0.4533924
0.2170082
-0.5302551
0.5631758
0.3413773
-0.9632281
-0.5223342
0.2621146
0.939849
-0.5712738
0.9134902
-0.384906
-0.122215
0.004819444
-0.8989123
-0.5941344
0.6578855
-0.1842753
0.1534517
0.2146795
0.1435789
0.2312566
-0.8976073
0.7150019
-0.6210924
-0.1683855
0.6958532
195
