-0.0454139
-0.06806286
-0.2793683
0.1468629
-0.4406802
0.7742106
-0.04763466
-0.8483916
-0.9667854
-0.9536693
-0.3294514
-0.291333
-0.9219741
0.0006733318
0.9967144
-0.1406067
0.6466732
0.2484695
0.1780875
0.5077458
0.7002597
0.217316
-0.01696376
0.2372535
0.1380568
0.8843246
0.1198681
0.8452125
-0.9446477
-0.7661054
0.3288738
-0.001031149
0.6277919
-0.292428
-0.565882
0.8911426
-0.9965817
-0.9080641
-0.1326932
-0.445945
-0.008307378
-0.7179872
0.3559909
0.07937388
-0.7497178
0.7418338
0.2038881
0.05917907
-0.9535818
-0.006831854
-0.3705512
0.1889367
0.1193624
-0.01832739
0.4524222
0.9556172
0.3041452
-0.9869403
-0.287255
-0.3318228
0.7707923
-0.1395706
0.2843016
0.4791595
0.05463805
-0.6114641
0.3526762
-0.001348017
-0.2496089
-0.7451195
0.6555052
-0.4125059
0.2020513
-0.8150807
-0.121703
-0.4886771
-0.9020464
-0.9986364
0.7848312
0.1824396
-0.4198206
0.1068085
0.1324675
0.387175
-0.5368977
-0.5315557
0.7146673
-0.8513676
0.652934
-0.9544179
-0.4615336
0.00476634
0.3415448
-0.3875737
-0.1014501
-0.5958015
0.0799614
0.1710715
-0.7989231
0.7389593
0.6438802
0.2025245
0.2743478
-0.1360214
-0.5870112
0.5226403
-0.9435307
0.7321874
-0.4814298
-0.01602213
-0.75905
0.1555128
-0.6398743
-0.3328371
-0.8702892
-0.2339741
0.5188847
-0.3281247
-0.4193903
-0.3495605
0.3085745
-0.8183954
-0.2024249
0.01143183
-0.3889997
-0.5470193
0.3131463
-0.6619273
0.7719305
0.3556567
-0.5451463
-0.6342338
0.4827934
-0.1991466
-0.05851041
0.4246666
-0.2533172
-0.5346954
0.2574642
0.6970764
195
