-0.5431547
0.1571059
-0.1917174
-0.5600222
-0.8187789
-0.3314496
-0.3984771
-0.1060752
-0.7524874
-0.9395861
0.3138741
-0.6491376
-0.4354553
0.4990209
-0.4076793
-0.301157
0.23341
-0.002758214
0.7408445
0.8718589
-0.5784444
-0.8408056
0.471664
0.3846973
-0.2588109
-0.8859258
-0.4411927
0.147909
0.1406233
0.5694021
0.4103232
0.2494991
-0.7535015
-0.1809892
-0.3167649
0.5731047
-0.4343207
-0.9385302
0.7407573
-0.5696114
0.9412459
-0.2616152
0.8336536
-0.8879167
0.7649085
0.07134877
-0.5406564
-0.1588595
-0.7934644
0.2177068
0.5383
-0.7167642
0.9617605
0.116322
0.5361211
0.2073462
-0.0893926
0.9892718
0.7567427
-0.3918837
-0.8971289
-0.4599469
0.1531675
0.8171239
-0.880832
-0.4245107
-0.4827912
-0.5475386
0.7341124
0.5209719
-0.7605006
-0.6077304
-0.2092938
-0.4768623
-0.6664411
-0.8616802
-0.8025662
-0.6446581
0.8485762
0.5338429
0.2034668
-0.4304645
0.3911663
-0.467493
0.4665311
-0.1297299
-0.9036684
-0.5706255
-0.3001572
-0.8922542
0.05589594
-0.8867821
-0.6726426
-0.7802146
-0.8091108
0.5489763
0.9476786
0.3105159
0.7785244
0.6265886
-0.126085
-0.8959983
-0.007435745
-0.3273073
-0.98576
-0.03123549
-0.1079305
0.4292535
0.649791
-0.3341491
0.1110146
-0.5187671
0.289429
0.6489969
0.5522204
0.9896531
-0.7873043
-0.06661788
0.6262347
-0.4298083
-0.3721892
0.2066929
-0.326063
-0.8924763
-0.3529431
-0.8645023
0.3997053
-0.8819866
-0.4911023
0.3647944
0.2462503
-0.2318198
-0.2944491
0.1827253
-0.5771717
-0.2777661
0.2801065
0.7421694
-0.0197134
0.476878