-0.4017408
-0.3261348
-0.7611346
-0.1546673
-0.3357312
0.5064414
-0.4983869
-0.3369606
-0.09118435
-0.1986618
-0.1089597
0.01883982
0.4688697
0.7010632
-0.4125367
0.0117071
0.2806942
0.9853186
0.9433351
0.2894837
-0.2326984
-0.1197018
-0.347696
-0.9983821
-0.1525439
0.6917277
-0.7021009
-0.821112
0.9231213
0.1958243
0.8918597
-0.09745809
0.3280252
-0.4775403
-0.3563189
0.6212358
-0.8495404
-0.3062423
0.7388775
-0.5955341
0.7148933
-0.2616466
-0.5719951
-0.251583
-0.8975628
-0.1430081
-0.1926129
-0.8751244
0.089701
0.9993036
-0.6024766
-0.3569002
-0.2109052
0.4278014
-0.2807179
0.6957173
0.34584
0.7164057
-0.7983484
0.04303293
0.3559817
0.8078554
-0.07583806
-0.4956502
0.08644488
-0.847313
-0.409165
-0.2795473
0.598626
0.7304714
-0.79568
0.1558186
-0.1043824
0.9440315
-0.1080397
-0.8757982
-0.9087965
0.2245026
0.2823359
0.1517388
-0.6541123
-0.4185066
0.9772364
-0.1199116
0.8398426
-0.9159958
0.97838
-0.1763246
0.4360149
-0.5090058
0.03040085
0.430007
0.09513172
-0.991594
-0.7998541
-0.4409253
0.8427358
-0.5160267
0.8564567
0.9782354
-0.2342116
0.5828845
-0.1574603
0.9379622
0.6534159
0.81603
-0.3341367
0.9090064
0.5879589
-0.3647222
0.7173373
-0.4778354
-0.7196091
0.7106574
-0.9873679
0.9259747
-0.2872763
-0.08424412
-0.6957961
-0.4726298
-0.6900489
-0.8931383
-0.136004
0.6203905
-0.03531698
-0.3785645
-0.6867211
-0.04234466
-0.7093844
0.07593036
0.4583384
-0.8178029
0.6365437
-0.352942
0.4344014
0.8237231
-0.6988974
-0.7334209
-0.1325437
0.9138678