0.7608345
-0.5062333
0.671292
0.5414461
-0.757248
0.3256263
0.3562055
0.9436938
-0.353292
0.6113831
-0.6840564
0.2019934
-0.5077323
-0.7770956
0.6250753
-0.6705375
0.6394752
0.009833841
-0.0443997
-0.01160625
0.7204259
-0.6015065
-0.8180543
-0.8168116
0.5641947
-0.07198083
-0.09411225
0.2108727
0.814339
-0.7016023
0.3242239
-0.1402217
-0.5640244
0.2665411
0.3201569
0.7867933
-0.730175
0.02774099
0.8705416
-0.915723
-0.6680824
0.9832413
-0.5753261
-0.6359945
0.2767029
0.8238746
0.8678349
0.8262818
-0.5482526
0.450736
-0.1934763
-0.9172258
0.6269029
-0.4366171
0.07751709
-0.09894384
-0.9422089
-0.5952491
-0.7787108
-0.5440413
0.05580122
-0.6715355
-0.9268478
-0.437569
0.2794655
-0.6672977
-0.2226804
-0.8717378
-0.05379856
0.8012007
-0.5383723
0.8131933
-0.4419135
0.5048643
-0.81813
0.6376517
-0.2284094
0.6185628
0.1056713
-0.3368615
-0.1297719
-0.4988631
-0.01041651
0.3583803
0.2425965
-0.004240543
-0.2133739
0.8735446
0.9870756
-0.01254546
0.009473751
-0.8584371
-0.9184604
-0.9306591
0.6226493
-0.4812757
0.4251547
-0.08019046
-0.8178646
0.6390513
0.05228399
-0.750728
-0.2793895
0.7886088
-0.4194921
-0.6946132
0.09319071
-0.7314774
0.3207864
-0.9182423
-0.88557
-0.8157535
-0.5823247
0.2338347
0.446485
-0.08576165
-0.7530751
-0.9961888
-0.06021832
-0.2392588
-0.09245238
0.85751
0.9461268
0.3071502
-0.2510833
-0.7876444
0.09258285
-0.2305223
-0.07564355
0.8764832
-0.455539
-0.4969319
-0.7022236
0.02391367
-0.4512915
-0.3140184
-0.9165384
0.7557488
0.9118953
-0.6716419