0.8675557
0.6319997
-0.7974382
-0.7813889
-0.439464
0.2941636
-0.3033679
-0.141836
-0.08254982
-0.7938396
0.8582428
-0.1666259
0.5032395
0.732384
-0.4096693
-0.1949244
0.3534173
0.6832241
-0.08612946
-0.0626487
0.03528862
-0.3488781
0.8232393
0.2461091
0.3759709
0.3991848
-0.1372131
0.5572485
0.9168046
-0.6058199
0.4711139
-0.02316279
0.8449789
0.9652956
0.3813039
0.7484849
-0.3791977
-0.3156879
-0.8576108
-0.6423175
0.2470938
-0.6859604
0.9641675
0.07688374
-0.6258959
-0.5793757
0.4329753
0.01306067
0.6631586
-0.05147239
0.3784066
-0.4424192
-0.04089938
0.8399453
-0.2618547
-0.1092815
0.7870207
-0.7627338
-0.1626928
-0.1879489
-0.3266386
-0.98768
-0.2842252
-0.4402323
-0.04093339
0.5442032
-0.1307935
-0.5736442
0.3582799
-0.8302937
0.3721003
-0.6596434
-0.9799345
0.9653429
0.5589446
-0.5222922
0.6920213
0.9832941
-0.4920362
-0.5147476
0.6121641
-0.3744794
-0.2800586
0.1047535
0.7208187
0.4587939
-0.7389376
0.2852112
0.006228942
0.8371007
-0.1207216
-0.8055535
0.3260322
0.9726828
-0.01441785
-0.09326281
-0.7060259
0.9988246
0.5179391
0.8963963
-0.2713969
0.4496813
-0.4949031
0.1779062
0.3363636
-0.247114
0.8376395
0.8543471
-0.8808734
0.2793514
-0.3703439
-0.4981904
0.2310373
0.0002064542
0.9327727
-0.5210851
-0.3137122
-0.256908
0.5741856
-0.9476706
0.2502291
-0.1296181
-0.09158332
0.4618835
0.4411033
0.9224191
0.8352597
-0.1578408
-0.3710206
-0.1939414
-0.3599316
0.8376741
0.8641675
0.2286124
0.8555963
0.1103545
0.3944834
0.7197349
0.1719808
0.2419038