-0.3424256
0.1629495
-0.1968602
-0.8703489
0.479935
0.8492031
0.439281
-0.7801664
0.5727285
-0.9446084
-0.850729
0.8296651
-0.1983818
-0.58627
-0.6196616
-0.8942652
0.3984507
0.809839
-0.7501355
0.2920061
0.6886581
0.1499001
-0.551033
-0.827087
-0.9917235
0.9480652
0.6780931
0.1597779
-0.830938
0.7030173
-0.4496279
0.9928621
0.3606537
0.5708432
-0.5790792
-0.2018543
-0.5949253
-0.739793
0.7271854
-0.4586778
-0.262953
0.5898663
0.868149
0.2168916
0.6761364
-0.9036497
-0.6807867
-0.4673621
0.1744487
-0.5252369
0.04414086
-0.8796715
0.5731074
0.2772693
-0.07349416
-0.3352877
0.8022958
0.2322966
0.7087303
-0.3182108
0.4441284
0.179074
-0.5073518
0.03140626
0.3183446
-0.4405953
0.9615161
0.5847267
-0.2624064
-0.7160119
0.7865215
-0.1341872
-0.3646097
0.7751014
-0.7521347
0.5683295
0.5767927
0.1716977
0.2464072
0.3435642
-0.8542306
-0.5542036
0.4510477
0.4872728
-0.7411111
0.3712982
0.5002139
-0.6707526
-0.7475014
0.8615161
-0.1633704
-0.1796521
0.5226134
0.4431973
-0.2451993
0.8712341
-0.04552395
-0.9069524
-0.0309737
-0.8921931
-0.4804425
0.1475156
0.2862308
0.8308846
-0.6710063
-0.4016556
-0.3307191
-0.9141654
0.01838037
0.5552077
0.1644985
0.4730484
-0.02020201
0.8472142
0.8451596
-0.3762195
0.6564605
0.04945093
-0.7233945
0.4471104
0.6049286
0.8684685
-0.3842996
-0.3702133
0.7644306
-0.3609941
0.579582
-0.1954943
0.4461077
0.6495208
-0.1009514
0.4909581
-0.8466827
0.6911995
-0.8209343
-0.327279
0.4659985
0.6038335
0.6421131
0.6351085