-0.4847684
0.323776
-0.3330464
-0.5410328
0.2028791
-0.3896459
0.7592198
0.7980967
0.08712983
-0.3436852
-0.3560526
-0.3349411
0.2819215
-0.2230713
0.05081717
-0.5700862
0.1258502
-0.8723336
0.6542896
0.9771253
0.2375529
0.9121012
-0.1564309
0.3718366
0.2833266
0.5214514
-0.2388753
0.07827358
0.5371456
0.856302
0.539917
-0.4887319
0.8968475
-0.6647174
-0.7832181
0.7160486
0.3734912
0.3962546
0.7402918
-0.7277357
-0.5145665
-0.08339012
0.190009
-0.7275935
0.1313802
-0.9267243
0.5286679
-0.2421062
0.3237428
-0.8363269
-0.2144432
0.7957022
0.1402126
0.7945914
-0.0608614
-0.9960365
0.4269285
-0.6683289
-0.7578146
0.4868305
0.2368629
-0.6370348
-0.9421951
-0.1851345
-0.8291187
0.7273375
0.4750499
0.00951501
0.6455485
-0.02245857
-0.098754
-0.6320436
-0.1960765
0.4906165
0.1915685
0.4418508
-0.2281114
0.04897773
-0.567302
0.2793632
-0.9054772
-0.5705463
-0.1639118
-0.949685
-0.3805609
0.1769518
-0.5465368
0.081982
-0.8355987
-0.5105557
-0.7590013
-0.6360238
0.7507061
-0.2372497
0.3710183
-0.8825229
-0.8873137
0.6993925
0.08083793
0.6895294
0.3013871
-0.5203099
-0.6748042
-0.9556203
-0.9308497
-0.6438968
-0.04038607
0.08989756
0.1751522
0.7621868
0.5505002
-0.6550535
-0.8327303
0.752741
0.2458317
-0.1271133
-0.3877409
0.2950546
0.4438472
-0.9465959
0.6146512
0.7756574
0.9286771
0.9560191
0.6761543
-0.5784441
-0.9572394
-0.2404561
0.4214662
-0.1645346
-0.5177632
0.6819911
0.8738255
-0.3294888
0.7288629
0.7495763
-0.7378161
0.08334724
-0.1955167
0.7465525
195
