-0.3970839
-0.2544954
0.5847624
-0.4868423
-0.06457947
-0.8370581
0.9287905
-0.4295155
-0.6546683
-0.9543905
0.2602557
-0.4110759
-0.08211929
-0.5966273
0.6249802
-0.5539681
0.1059736
0.5092257
0.7313741
-0.3273848
-0.09304139
0.6522158
-0.667783
-0.4459166
0.3066497
-0.9588043
-0.9832274
0.4579107
-0.07780143
0.4345949
0.9894959
0.5779253
-0.4808391
-0.5469384
0.8367509
0.4975519
-0.5784099
-0.210278
0.9956449
0.1046483
-0.009319359
0.1946926
0.6147897
0.04654709
0.4470925
0.8388055
-0.6612813
0.319387
0.203571
0.3946181
0.7323038
0.5327607
0.3913477
0.5630876
-0.873412
0.0249908
-0.7736563
0.1317008
-0.3235932
0.4378687
0.7413518
0.1390685
-0.4251604
0.2406834
0.05492883
-0.9344369
-0.02586554
0.8713336
-0.04371985
0.7861748
-0.8926867
0.7865866
-0.6943453
-0.663244
-0.05968856
0.3741979
-0.7391319
-0.2308705
-0.5725046
-0.7183411
0.814852
-0.1149281
-0.2184961
0.4843299
0.6932431
-0.1495726
0.003085718
0.2784775
0.3981328
0.7711878
-0.4765826
-0.4497435
0.8334419
-0.7905298
-0.002664999
0.2040941
-0.1109621
0.2780337
-0.8937644
-0.9271053
0.5779374
0.5695892
-0.1081084
-0.07808787
0.5797661
-0.1527681
-0.2487432
0.9070178
0.8698444
0.2761607
-0.9780949
-0.0521338
0.733568
-0.09478104
-0.08554876
0.1910952
0.3056266
-0.6346306
-0.7566516
0.8508348
0.1765252
0.6961008
0.765098
-0.1166145
-0.7917626
-0.462276
-0.105305
0.3837425
-0.2430101
-0.9069205
-0.3770589
-0.6461496
-0.100715
0.1513348
-0.7402462
-0.1330142
0.1515039
0.876285
-0.4301213
-0.4978521
195
