0.02082546
-0.3909334
-0.7782561
-0.3148046
0.1082837
0.3357597
-0.1147657
0.7943813
-0.8363166
-0.3888673
0.3153536
0.9398212
-0.5178267
-0.776744
-0.9666029
-0.3507884
-0.8746927
-0.3160338
-0.279062
-0.7637053
-0.08546291
-0.603126
0.9844041
-0.3339662
0.5482595
0.9056495
0.3411138
0.04355449
0.3984918
-0.1258674
0.8400422
0.1010826
0.6481266
0.03648095
-0.03802807
-0.9355589
-0.8323534
0.4607345
-0.03533655
-0.8037803
-0.2389334
-0.3531256
0.1442678
-0.4324366
-0.9907381
0.365991
0.0475486
0.6405823
0.4166528
0.8610801
0.760219
-0.7306048
0.4764329
0.914785
0.9687963
0.9197429
-0.03905993
0.1852629
0.7232234
0.04384254
0.1681131
0.4244998
-0.1702822
0.9674637
0.8500661
-0.3315209
-0.2044465
0.9146099
-0.7860059
-0.3325939
0.601663
-0.5152751
0.2673135
-0.1401421
-0.5239242
-0.3548581
-0.07955889
-0.9303809
-0.3027625
0.6285166
-0.05529056
-0.8441491
0.320331
-0.6453507
0.7060195
-0.5844576
-0.7286352
0.6806629
0.1864149
-0.7065072
0.2688876
-0.7469633
0.2467404
-0.7027426
-0.4054433
-0.7236583
0.3795609
-0.7155902
-0.9085124
0.36412
-0.5544501
-0.02207054
-0.05665512
0.7881362
-0.08362935
0.604368
-0.05093583
0.1217836
-0.7912346
0.5532539
0.6483781
0.2802772
0.9988481
0.4297307
0.7749549
-0.0849236
-0.8222406
-0.4675395
0.372907
0.5737244
0.2889182
-0.4888563
0.8231223
-0.150126
-0.7781438
-0.3762664
0.54138
0.4791773
0.9434873
-0.1282922
0.6960777
0.7986575
0.8608537
0.1439835
0.9801386
0.6644323
-0.8429971
0.8906003
-0.4203056
-0.2090569
195
