0.6914259
-0.8402479
-0.8185024
0.5772752
-0.4118711
0.07996362
-0.7804658
0.1253245
-0.8495807
0.4199183
-0.4636382
-0.174864
-0.8632232
-0.4024758
-0.6430697
0.5674796
0.5707536
-0.6140658
0.3448348
0.8903992
-0.969427
0.7919636
0.2945801
0.2436023
-0.3092812
0.6660835
-0.4286377
-0.01940836
-0.7020841
0.9723433
0.829807
0.253507
-0.3084393
0.7714006
-0.5089836
0.2564094
0.2174587
-0.148407
-0.1351803
-0.8685001
0.08495763
-0.1424407
0.7133291
-0.5762782
0.4192061
0.1689501
0.03483495
0.3072928
-0.02616002
-0.2887146
-0.05741553
0.4405744
0.9934513
-0.05774626
0.8482771
-0.562081
0.4681913
-0.589903
0.08625888
0.3317195
0.862505
0.3679412
-0.7394952
-0.9810807
-0.6650394
0.6788025
0.1118069
0.713055
0.1783181
0.1879803
-0.4673553
-0.7365391
0.4120942
-0.3664506
-0.0521853
-0.4100015
0.7985123
-0.6476736
0.3953252
-0.7472001
-0.8021079
-0.8387346
0.8943328
-0.03380358
-0.8901616
-0.5381342
-0.006997827
-0.3273585
0.43644
-0.1877862
-0.8553975
0.5044037
0.6732749
0.6768395
0.5988553
-0.1785032
0.445465
0.07977965
0.4759071
-0.1707924
0.3704378
-0.3174914
0.9119676
-0.2789599
-0.4866067
-0.2186809
0.5462416
0.02725488
-0.1675847
0.3864113
0.4449168
-0.2044501
-0.02634298
-0.7259549
0.187117
-0.6418988
0.6946663
-0.4163347
-0.579936
0.5134639
-0.7666624
-0.9679727
-0.7628521
-0.6508895
0.8175425
0.8501361
-0.6485067
-0.3089459
-0.8798439
-0.8335044
0.04375686
-0.2287426
0.5199111
-0.9910861
-0.1921169
0.4023423
0.1876083
0.6202877
0.7790794
0.7517371
195
