0.5448008
-0.3622837
0.03512907
0.547298
-0.4053374
-0.1726834
-0.2148415
-0.04994364
-0.9987672
-0.5403891
-0.6906009
0.5052953
-0.4789562
-0.9868439
0.4499536
0.224087
-0.3296958
0.7405569
-0.3378417
-0.2872197
0.695728
-0.1250282
0.3371391
0.3676965
0.7313599
0.3841888
0.9127371
-0.8137301
-0.6894436
-0.9128654
-0.5940633
-0.6444297
-0.6358634
0.7837375
0.5414357
0.6712298
0.175057
0.7519419
0.4334319
-0.01584955
0.8674198
0.1541381
-0.2784158
-0.9557903
-0.6026485
0.7479693
0.01671129
0.5315886
0.4199749
-0.124435
-0.04575132
-0.03476605
0.5657287
-0.517256
-0.9037888
0.1892305
-0.7264203
0.2513916
-0.9941377
-0.07656722
0.6522596
0.03321667
0.5166245
0.01708233
-0.4078089
0.155261
-0.2162888
-0.5231659
0.6158046
0.7019843
-0.7926244
0.1387157
-0.679418
0.7865933
0.7585316
-0.2695059
0.3092432
-0.145605
0.2714853
-0.4578706
0.1106091
-0.3386545
-0.8195924
0.3871236
-0.565125
0.37272
-0.1610542
0.3470543
0.1915464
-0.6138253
-0.1124813
-0.3017771
-0.8638628
0.7314476
-0.2232252
-0.2712958
-0.1664439
-0.06500909
-0.714322
0.6668574
-0.5612739
-0.8376837
-0.7398968
-0.1221545
0.7649559
-0.7070969
-0.2151737
-0.8213949
-0.9521309
-0.2765088
-0.6497153
-0.07347463
-0.9401548
0.6196877
-0.9640859
-0.04596327
-0.1029206
0.7851769
-0.7596924
0.8634869
-0.6782951
0.8487203
-0.8088439
0.9489472
0.2632582
-0.9549406
-0.1213876
0.4427365
-0.9783626
0.4656284
0.9456677
0.1306381
-0.1934741
-0.4520059
-0.8081553
-0.8159162
-0.3984997
-0.43928
0.3512095
0.4808382
195
