-0.2328005
-0.5906631
-0.7474226
0.9229761
-0.4211238
-0.8874248
0.2672558
0.3241644
0.859297
0.7487192
-0.5299965
-0.2455891
-0.04037643
0.3094115
0.7854507
-0.4008197
0.1625975
0.9030537
0.9131571
0.111051
0.5937107
0.925954
0.2481755
0.0806782
-0.3807882
0.03557995
-0.4570276
0.05068096
0.6951689
0.07454178
0.09084543
-0.6294981
-0.2756317
-0.3286552
0.04346044
0.4789267
0.0724037
-0.07226367
-0.4363402
0.2183621
-0.3124614
-0.5515605
-0.222103
0.009105038
-0.4272151
0.1178029
0.523082
-0.5607672
0.3897021
0.7723031
-0.1406302
-0.8630726
0.9251188
-0.2954624
-0.3391083
-0.6033024
0.6849685
0.5812326
-0.1204844
0.09994957
0.04017152
-0.6604805
-0.2394954
-0.3590651
0.06118057
-0.9784361
0.9765139
0.9505185
-0.2633733
-0.3323521
0.07609839
-0.2766353
-0.4866483
-0.859146
-0.7483188
0.4567834
-0.9991648
-0.4563622
-0.5802135
-0.7774858
0.3506114
-0.0382602
-0.8288347
-0.4047807
-0.9656298
-0.2486741
0.6099973
-0.9165665
0.6101643
0.02189653
0.5024127
0.1218852
-0.8088903
0.8960119
-0.8577362
0.964174
0.9350879
-0.362957
-0.2425762
0.1160015
0.1169676
-0.02055589
-0.9805536
0.1671879
-0.5783083
0.89763
0.9657621
0.3298995
-0.3298326
0.9095658
-0.2132996
0.601535
0.9710684
0.8576191
0.5975368
0.9182863
-0.8515902
-0.1355073
-0.5013289
0.0970066
-0.913524
0.3394709
0.1930947
0.6206251
0.5506802
-0.9033457
-0.2960817
0.3461638
0.7191623
-0.6459488
0.4910213
-0.3290643
0.8734705
-0.4897793
0.4358138
0.7490764
-0.009328561
-0.6864538
-0.002317517
-0.8839161
195
