-0.762217
0.7389044
-0.6922441
0.6126904
0.004574562
-0.242256
-0.5700856
-0.6031336
-0.9245989
0.9708232
-0.2650383
0.9003836
-0.6590774
0.2197798
0.6680423
-0.3531076
0.1170757
0.7993614
0.8079976
0.2519384
0.4473652
0.05846385
-0.4579108
0.4178223
0.315471
0.9094737
-0.02747878
-0.6138424
-0.5748439
0.0172109
-0.514838
0.780893
-0.5429407
0.4020838
-0.1612373
0.3885346
-0.8297789
-0.3966576
0.1818317
0.5749639
0.5066578
0.7420186
0.6711797
-0.3084511
0.4243426
-0.3623861
0.2565684
-0.5569686
0.8285125
-0.9293351
-0.3080889
0.7708453
0.4654442
0.5624835
-0.6942189
-0.5431101
0.281845
-0.0943279
-0.2260723
0.6160399
-0.4124771
0.826572
0.2150346
0.2591959
-0.4510471
0.8904649
-0.813134
0.3190452
0.8273031
0.504329
-0.1331357
0.779012
-0.8162874
0.7733387
-0.5195382
-0.4251637
-0.1333005
0.9806225
-0.5943724
-0.4696482
-0.02524021
-0.5887835
0.4173827
-0.8824505
0.7781923
-0.1754036
-0.6922466
0.658551
0.3196965
0.5839866
0.2657668
0.9324031
-0.4107943
0.789308
-0.7324015
0.6882237
0.5093575
0.5314533
0.1458618
0.03619415
-0.1978492
0.2555805
-0.2652642
0.339414
0.5238069
-0.8884713
-0.4105406
-0.5055375
0.8508921
0.7985582
-0.1547726
0.4280783
0.5372407
-0.2599753
-0.5333439
0.2991367
-0.6906351
-0.01602266
-0.008402621
-0.1392707
-0.6188926
-0.3445873
-0.8268167
-0.2088911
-0.2978218
0.6112837
0.04427623
-0.1557014
-0.7504682
-0.6310669
0.985377
-0.627763
-0.8702697
-0.3929306
0.6851245
0.5466815
-0.1260242
-0.3226419
0.6508934
-0.5209444
611
