-0.4793215
-0.2345585
-0.4255927
-0.8097612
0.7258385
-0.1169353
0.6125749
-0.863348
-0.880062
0.8810753
-0.3714872
0.9744982
0.4452419
-0.09831729
-0.9686387
-0.6284099
0.391183
-0.2942243
0.3896198
0.3322901
-0.6950125
-0.2853265
-0.8783069
-0.5008942
0.03077194
-0.6075167
-0.8584467
-0.2668687
0.4534101
0.445418
-0.2038364
0.6931109
-0.360235
0.411887
-0.3654804
-0.7606675
0.1650721
-0.1133313
0.4452731
-0.1470105
0.07384181
-0.3363325
-0.8306352
0.9488214
-0.6379114
-0.564513
0.5942302
-0.9028034
0.9254081
0.6711528
0.430772
0.2607429
-0.8239188
-0.3508883
-0.5475978
-0.1724324
-0.8743235
0.1625203
0.5557192
0.4865061
0.7179927
-0.2740939
-0.3086211
0.2669485
-0.1927665
0.9648453
0.8051333
0.4964206
-0.4604059
0.5958743
-0.22264
0.2939865
-0.2196324
0.718467
0.9015181
0.04424454
-0.4614077
0.4725814
-0.9532965
-0.7967956
-0.7331932
-0.02096706
0.1774121
0.966904
0.7274253
-0.9297425
0.001732071
0.3728165
-0.3953466
-0.3303257
-0.5658008
0.6686515
-0.6529254
0.8493989
-0.9243705
0.7798553
0.8832999
-0.5491022
-0.9526967
0.317844
0.8968947
-0.8783513
-0.949507
0.7222037
0.404346
-0.548261
-0.9166691
-0.7908228
-0.07831363
-0.6178553
0.8258355
-0.24714
-0.4421331
-0.1139551
0.05230696
-0.9506588
-0.6211685
-0.15802
0.1913189
0.0273782
-0.9184546
0.3542355
0.4491173
0.2217501
0.6989796
-0.3442887
0.2434935
0.0581639
-0.685879
0.4497791
-0.0390863
-0.6705849
-0.4491049
0.6645588
-0.6226311
0.5139468
-0.5788339
-0.7086328
-0.08540292
0.6780841
611
