0.1130765
-0.1269447
0.9827225
0.8818946
-0.1881849
0.90856
-0.0292543
0.5291899
-0.5188156
-0.2537245
0.8200041
-0.9526154
-0.6188339
-0.9720237
0.2474791
0.2049713
0.08484692
0.8293276
-0.4522211
-0.7761828
0.699778
-0.8017517
-0.06303681
0.044146
-0.4897046
0.1024535
0.7886066
0.901242
0.02844753
0.3523308
0.6751676
0.04332659
-0.582628
-0.550377
0.6587148
0.4328474
0.06266734
0.322975
0.4028091
-0.5387517
-0.9971832
-0.9942794
0.611245
-0.1397016
-0.9026716
0.407811
-0.2068317
0.006162539
0.9859677
-0.6275889
0.8822058
0.878683
0.05525274
0.6514419
0.4917993
-0.9302501
-0.5443167
0.5330994
-0.7768202
0.3789677
-0.1541073
0.6477708
-0.8736191
-0.980064
-0.2565414
0.8142835
-0.5638604
0.5208677
0.930648
0.8396681
-0.588197
-0.9213156
0.8433599
-0.8246323
-0.6583886
0.821095
0.1429956
0.2855213
0.5523468
-0.5594545
-0.3532297
-0.7444927
0.6780621
0.6494799
-0.4935619
-0.9726031
-0.08305425
-0.602564
0.7061644
0.8444313
-0.003292217
0.5417997
0.392327
0.563141
-0.9505547
0.9241324
-0.8376394
0.4358773
-0.481313
-0.7237666
-0.7351846
0.507647
0.4538158
0.5454222
0.7256409
0.6266985
-0.7993792
0.4057729
0.1450038
0.4644024
0.1528041
-0.9417528
0.8269349
-0.6212515
-0.6177401
0.3040931
-0.7445562
-0.4367601
0.9704907
-0.1806738
0.6519229
0.0002623112
0.002180737
0.6544146
0.5748527
-0.09584393
-0.3751314
-0.7020622
-0.5502732
-0.285087
0.6204742
0.7372227
-0.8594824
-0.9120557
0.2877414
-0.411477
-0.5714276
0.2993137
0.26722
0.202345
611
