-0.6875655
-0.9102379
0.09090079
-0.1940997
-0.3480924
-0.4322986
0.7144921
-0.2391686
-0.5623271
-0.7096567
-0.7069636
-0.7512525
0.8918067
0.3340036
0.3317524
-0.2160306
0.2009852
0.6870571
0.3786277
-0.8179564
-0.3527695
-0.428619
0.7489497
-0.5904776
0.9046302
-0.1283842
0.2938855
0.9276579
-0.7551262
0.4669691
0.7934908
0.6293651
0.506432
-0.2857404
0.6869825
-0.1699539
-0.2419634
-0.7285573
-0.3433893
-0.2013896
0.02935497
-0.4542769
-0.08791992
-0.4653035
-0.3241526
-0.9803407
-0.6685408
-0.8304138
-0.3251833
0.192901
0.2161059
0.152905
-0.360765
0.4049759
0.9018919
-0.3169307
-0.4166699
-0.6233588
0.1189178
0.8218614
0.8096648
0.4430494
-0.8957793
0.6390625
0.2609884
0.7473133
0.3366674
0.3571102
-0.3418437
0.312093
-0.5474898
0.03139898
0.01224041
-0.8142733
-0.0340623
0.4943255
0.932146
-0.6560261
-0.4923695
0.2215609
-0.7117142
-0.08275577
-0.1912599
-0.5769877
0.6573043
-0.6495585
0.5251445
0.8673695
0.4532712
0.9396692
0.4933787
0.4009263
0.6132864
0.3445176
-0.6538998
0.997956
0.5334827
-0.2736466
0.5687588
0.1815218
-0.9124866
0.9874853
0.6619558
0.4532558
-0.09538472
-0.7011384
-0.655835
-0.7837773
0.7476715
0.5514504
0.1579248
-0.2840395
-0.07662995
0.1792487
-0.6715173
-0.5912615
0.8297629
-0.240297
0.2929623
0.2630324
-0.7861694
-0.389686
0.7883515
0.4766344
0.2245797
-0.5349751
0.3694432
0.5589846
0.2811114
-0.3329239
0.1501606
0.7159232
-0.4036977
-0.04381996
-0.9363639
0.5723252
0.9938742
0.6294914
-0.9054704
0.2485658
195
