-0.762217
0.7389044
-0.6922441
0.6126904
0.004574562
-0.242256
-0.5700856
-0.6031336
-0.9245989
0.9708232
-0.2650383
0.9003836
-0.6590774
0.2197798
0.6680423
-0.3531076
0.1170757
0.7993614
0.8079976
0.2519384
0.4473652
0.05846385
-0.4579108
0.4178223
0.315471
0.9094737
-0.02747878
-0.6138424
-0.5748439
0.0172109
-0.514838
0.780893
-0.5429407
0.4020838
-0.1612373
0.3885346
-0.8297789
-0.3966576
0.1818317
0.5749639
0.5066578
0.7420186
0.6711797
-0.3084511
0.4243426
-0.3623861
0.2565684
-0.5569686
0.8285125
-0.9293351
-0.3080889
0.7708453
0.4654442
0.5624835
-0.6942189
-0.5431101
0.281845
-0.0943279
-0.2260723
0.6160399
-0.4124771
0.826572
0.2150346
-0.4995627
-0.5358347
-0.00705696
-0.7707961
0.6493737
0.7954373
0.03042842
0.390324
-0.3259557
0.9708489
0.7373327
-0.4399727
0.6765199
0.5930197
-0.02039434
0.1120411
-0.1414189
-0.3723713
-0.9331509
0.6122298
-0.1908838
-0.570312
-0.34141
-0.4341416
0.956622
-0.0620815
0.8458197
0.1593307
-0.4791526
-0.1920948
-0.8485967
-0.8153601
-0.1673865
0.7711697
0.9338471
-0.8684784
0.7478227
0.04459422
-0.7230373
0.3309903
-0.03006863
0.4430362
-0.3749381
-0.8413846
-0.343672
0.1327955
0.6471912
0.8910315
0.325223
0.9677536
-0.07189196
-0.5432907
-0.9333246
0.01866682
0.06363128
-0.6842026
0.6315518
0.2217734
-0.7046432
0.5178521
-0.9523855
0.9858342
0.1133613
0.343054
0.0009175758
-0.7057036
0.9349654
0.5179045
-0.06330836
0.8468102
0.46485
-0.03245039
0.3024056
-0.9009045
-0.3158782
0.6508934
-0.5209444
613
